<?xml version="1.0"?>
<opencv_storage>
<opencv_ml_svm>
  <format>3</format>
  <svmType>C_SVC</svmType>
  <kernel>
    <type>RBF</type>
    <gamma>5.3830000000000000e+00</gamma></kernel>
  <C>2.6699999999999999e+00</C>
  <term_criteria><epsilon>1.1920928955078125e-07</epsilon>
    <iterations>1000</iterations></term_criteria>
  <var_count>112</var_count>
  <class_count>2</class_count>
  <class_labels type_id="opencv-matrix">
    <rows>2</rows>
    <cols>1</cols>
    <dt>i</dt>
    <data>
      0 1</data></class_labels>
  <sv_total>1780</sv_total>
  <support_vectors>
    <_>
      -2.56435812e-01 5.11654496e-01 -1.03154734e-01 8.25362280e-02
      1.03131726e-01 -3.19760069e-02 -6.72832737e-03 -3.29340287e-02
      -2.68171988e-02 -1.74969524e-01 1.14198044e-01 -4.82308492e-02
      -1.95604116e-02 -1.71798259e-01 -4.59926715e-03 -2.97647994e-02
      -2.96741538e-03 -1.76171944e-01 1.30335793e-01 -8.02725852e-02
      6.43038824e-02 1.44327030e-01 -2.71423776e-02 -2.65538823e-02
      -2.37285160e-02 1.48935784e-02 3.00276075e-02 -1.57857537e-01
      4.97906003e-03 3.80221531e-02 4.68309186e-02 -1.99561883e-02
      -5.21221161e-02 -4.13254515e-04 1.58703867e-02 -2.75808889e-02
      2.78701093e-02 -7.05407001e-03 1.25843370e-02 -1.79204848e-02
      3.16907354e-02 5.79768466e-03 1.68464556e-02 3.66672091e-02
      -6.52192486e-03 -5.95845329e-03 -5.71879977e-03 -3.16676274e-02
      -2.54882500e-02 1.48711968e-02 4.64037657e-02 -5.68715017e-03
      -1.26332799e-02 -2.58926973e-02 8.62728991e-03 -9.18491464e-03
      2.34739482e-02 -1.32966600e-03 5.15319593e-02 2.28197090e-02
      -1.72536597e-02 -6.52154954e-03 9.86679737e-03 1.07208639e-02
      2.38972604e-02 5.15243923e-03 -1.07834479e-02 -1.80874544e-03
      -8.93975329e-03 -8.64086673e-03 1.54151756e-04 -5.89884643e-04
      2.59362650e-03 -2.18485016e-02 1.74446814e-02 -7.64217554e-03
      -3.19440011e-03 -5.43442741e-03 1.55905914e-02 1.20301300e-03
      -1.57528627e-03 5.78323787e-04 3.12111177e-03 -9.33355652e-03
      1.07420841e-02 -1.80762541e-02 6.14899676e-03 -4.87357192e-03
      -1.44779868e-02 4.40209126e-03 9.15818289e-03 1.84785726e-03
      -2.52038677e-04 -3.04019963e-03 -6.61079306e-03 4.08060942e-03
      -1.25334254e-02 -9.52803646e-04 8.02861899e-03 -6.95873867e-04
      1.42911449e-03 1.11428404e-03 -1.35328081e-02 2.06127577e-03
      3.31933936e-03 -9.59305465e-03 -2.85092881e-03 9.17203818e-03
      1.25231622e-02 -4.72331652e-03 1.97501620e-03 4.46772017e-03</_>
    <_>
      -2.99609900e-01 -1.70816593e-02 -1.30097523e-01 6.33476749e-02
      -7.45768920e-02 6.04966246e-02 -1.36391725e-02 -1.07231596e-02
      1.51716070e-02 -3.94680239e-02 -6.69007003e-03 6.17005341e-02
      -6.60825446e-02 -6.87523708e-02 3.34366411e-02 -7.48357596e-03
      7.69569129e-02 1.14896864e-01 -8.48858431e-02 -4.68752682e-02
      6.67836741e-02 5.31839766e-03 -3.43316011e-02 -3.78919281e-02
      -4.59865555e-02 1.66460369e-02 -7.52093224e-03 -3.15697975e-02
      -2.80379243e-02 -5.15176058e-02 -4.73626051e-03 -1.18548097e-02
      1.00043081e-02 -1.09963771e-02 2.18892321e-02 -3.50466371e-02
      -1.15589369e-02 -1.06212366e-02 -1.01982709e-02 -3.11902142e-03
      -2.07530595e-02 2.25984957e-04 -1.70287788e-02 1.09329158e-02
      1.78740602e-02 2.32463162e-02 -2.08415538e-02 7.26929680e-03
      -1.25104114e-02 -4.58335364e-03 1.92846544e-02 1.35559523e-02
      -1.49837695e-02 -2.66996655e-03 -1.85277677e-04 3.47400969e-03
      -1.11001544e-02 -1.78639067e-03 7.61100324e-03 1.42804543e-02
      1.45269493e-02 -9.51111969e-03 6.02201978e-03 -1.48548493e-02
      4.43602838e-02 -1.82823706e-02 1.74798351e-02 2.52752211e-02
      1.63934231e-02 1.66058308e-04 -1.13037573e-02 -1.25642577e-02
      4.59682109e-04 4.60988469e-03 -8.56980099e-04 -2.11965088e-02
      -9.75381874e-04 1.46242362e-02 -2.80241575e-03 1.36154955e-02
      5.55210165e-04 -8.57527088e-03 -2.50888243e-03 -3.13018379e-03
      -4.72004898e-03 7.57935969e-03 -1.17332852e-02 4.41590743e-03
      -4.08451015e-04 -1.90689648e-03 7.05423485e-03 4.65935702e-03
      4.14624112e-03 -9.21072252e-03 -4.59171971e-03 5.82429022e-03
      -1.34866070e-02 2.28480832e-03 -3.63364187e-03 -1.56170558e-04
      1.91766992e-02 -9.29905009e-03 -6.02488406e-03 2.24661711e-03
      1.70879648e-03 7.63766933e-03 1.52804551e-03 -1.02750175e-02
      1.39587768e-03 -4.22466313e-03 7.93990586e-03 1.06819775e-02</_>
    <_>
      4.71329302e-01 -8.00647885e-02 -2.04881236e-01 1.59897760e-01
      -5.63903004e-02 9.07663852e-02 -1.17375381e-01 -1.15833558e-01
      2.85603236e-02 -4.44864631e-02 5.33528216e-02 -3.62196118e-02
      -4.24363278e-02 -5.36175184e-02 1.63124755e-01 6.47552460e-02
      1.15462141e-02 -1.34257330e-02 -2.18193047e-02 -1.31760323e-02
      -6.51211711e-03 -4.53337515e-03 6.05970155e-03 -6.51931241e-02
      1.22025451e-02 -4.88030016e-02 3.05132549e-02 1.23929151e-03
      2.56217998e-02 1.06159104e-02 1.80488881e-02 2.00410672e-02
      -4.28621769e-02 5.48140556e-02 -7.05834304e-04 -1.31995017e-02
      1.29386559e-02 1.12435762e-02 1.47309303e-02 -4.21029329e-03
      7.01557798e-03 9.43967141e-03 1.09259533e-02 3.96371186e-02
      3.54239605e-02 1.46235414e-02 -1.66473314e-02 -2.28990596e-02
      -3.14262323e-02 -9.26541630e-03 -2.84909131e-03 -1.13359662e-02
      8.41421075e-03 7.19250937e-04 4.47358191e-03 8.82203784e-03
      4.65564290e-03 -1.10188229e-02 2.65885494e-03 1.37171624e-02
      -3.21136112e-03 -2.76086875e-03 -2.81153154e-03 -6.43239962e-03
      -5.23288501e-03 7.27717346e-03 1.39653608e-02 1.36303867e-03
      2.04256549e-03 1.58385967e-03 -1.73381027e-02 -2.03469470e-02
      -1.19535746e-02 4.24424419e-03 7.77377328e-03 6.25560293e-04
      -1.18641919e-02 6.58155233e-03 8.60541500e-03 -1.35952802e-02
      1.51734417e-02 -4.29017935e-03 9.24690161e-03 3.93160945e-03
      -8.41702614e-03 6.87311124e-03 -1.34010697e-02 1.19541492e-02
      4.86229896e-04 4.50600463e-04 2.43267350e-04 -7.12510757e-03
      -5.14522009e-03 -6.32914202e-03 2.43103271e-03 -2.97051924e-03
      -6.66830502e-03 6.60703238e-03 -2.13765888e-03 -8.79801810e-03
      3.66044813e-03 8.95045232e-03 -1.53833290e-03 5.61521482e-03
      4.98018647e-03 -1.40426867e-03 -1.09009887e-03 -1.27699394e-02
      8.99175997e-04 -2.34550145e-03 -8.83839151e-04 2.69251480e-03</_>
    <_>
      1.03979155e-01 1.84630770e-02 -1.87186897e-02 -5.63089401e-02
      -5.14915176e-02 -5.42486552e-04 -7.26875365e-02 -1.10584714e-01
      3.93490270e-02 -4.18475131e-03 2.57324427e-02 -3.22730057e-02
      -5.03872894e-02 -1.65570099e-02 5.11892252e-02 5.84706068e-02
      -2.30656601e-02 3.40929464e-03 -2.64221895e-02 3.13910656e-02
      4.04141136e-02 -9.34738200e-03 2.13970132e-02 -2.75406372e-02
      -3.37591581e-02 -7.65065604e-04 -7.40956422e-03 -1.43891526e-02
      -1.80705264e-02 -6.62012375e-04 1.14718881e-02 3.27260233e-02
      1.29874644e-03 2.30790838e-03 2.88442243e-03 -2.40055175e-04
      -9.31867457e-04 -2.96053826e-03 2.69620474e-02 -9.66684893e-03
      7.41684716e-03 5.05282870e-03 1.51262386e-03 -1.36710061e-02
      8.00143275e-03 -4.25409176e-04 1.80991914e-03 -2.79077166e-03
      5.87776629e-03 -1.49759538e-02 -5.28771291e-03 -5.22349542e-03
      1.73593487e-03 7.20829889e-03 -1.99233857e-03 -1.33729810e-02
      -4.72766085e-04 -2.55432166e-02 -2.71991882e-02 -9.80876293e-03
      3.12391692e-03 4.50298749e-03 -1.67649286e-03 2.01141884e-04
      -5.43514825e-03 3.15758260e-03 -6.04524137e-03 2.37138360e-03
      -1.07845208e-02 -6.59955572e-03 -1.22020720e-02 1.57505483e-03
      -1.25069637e-02 1.25834784e-02 -5.94813190e-03 4.21788357e-03
      4.48310701e-03 1.35205137e-02 -7.79833645e-03 -6.31314982e-03
      6.41215360e-03 -1.21754073e-02 -8.73034261e-03 -9.53935739e-03
      1.26179936e-03 5.91463735e-03 -1.30011793e-03 -6.56057568e-03
      -3.70432902e-03 1.46769162e-03 7.59740081e-03 4.98580048e-04
      3.32478248e-03 1.44949777e-03 4.30042204e-03 -1.01016033e-02
      6.63543865e-03 -9.40280268e-04 6.55940035e-03 4.97533055e-03
      -5.17193787e-03 -1.33736758e-03 -3.75001342e-04 -1.99127826e-03
      6.11633435e-03 2.59277062e-03 7.94840977e-03 6.73723454e-03
      -2.75532389e-03 1.83483493e-03 4.05831728e-03 -2.33594052e-04</_>
    <_>
      3.32097501e-01 -1.73615113e-01 8.94277096e-02 -1.03765003e-01
      -9.15046632e-02 4.53613959e-02 -4.41781431e-02 -5.57685904e-02
      3.51420417e-02 2.83613731e-03 2.42360272e-02 2.04838421e-02
      3.90979908e-02 2.30725911e-02 -2.47676182e-03 -7.43620172e-02
      -9.46786776e-02 -3.93322520e-02 -2.65120119e-02 4.64835167e-02
      9.83261019e-02 2.52974574e-02 -9.14479978e-03 -4.38363589e-02
      -2.73214262e-02 6.49684593e-02 6.47808937e-03 -1.50280362e-02
      -1.08315051e-02 3.09401546e-02 -1.62229743e-02 3.96408439e-02
      4.15038364e-03 1.62568968e-02 -3.77303064e-02 1.20374728e-02
      2.50749607e-02 1.06242495e-02 1.95152592e-02 -1.81517079e-02
      6.80217287e-03 -2.16415338e-02 1.41010424e-02 -1.23526733e-02
      -2.73284223e-03 -9.85188875e-03 -2.44041812e-03 -6.51568081e-03
      2.33792677e-03 5.28472941e-03 1.49554852e-03 -1.37587851e-02
      3.46101401e-03 -4.91107814e-04 -9.18379240e-03 1.17947226e-02
      2.38424912e-03 -4.15791059e-03 -6.97921077e-03 3.22472351e-03
      1.83936465e-03 -4.55515808e-04 -1.31738801e-02 3.15138372e-03
      -4.40686895e-03 3.69409821e-03 -1.06740734e-02 -2.70599173e-03
      1.43957639e-03 1.48975814e-03 3.73437535e-03 -8.27612076e-03
      1.46359410e-02 1.73001620e-03 6.62233401e-03 -2.54118396e-03
      1.96730412e-04 9.54074133e-03 5.25634410e-03 -1.15980254e-02
      -2.08230354e-04 1.58496376e-03 -6.81536319e-03 -5.76974824e-03
      -6.56935619e-03 2.22634547e-03 -9.33042821e-03 -9.28286929e-04
      -5.62346959e-03 -1.44143985e-03 4.96434048e-03 -2.53453851e-03
      -6.50226464e-03 5.36202127e-03 -6.65198639e-03 -3.64496629e-03
      2.46176310e-03 -5.79374610e-03 -5.49530983e-03 4.05734358e-03
      -6.21310808e-03 1.78988324e-04 -5.99528430e-03 7.65632838e-03
      -2.90567684e-03 -1.17575843e-03 2.72137113e-04 -2.19093729e-03
      -3.52940685e-03 6.06617890e-03 6.69331057e-03 1.53146926e-02</_>
    <_>
      4.64843750e-01 2.76804231e-02 1.23084925e-01 -1.26901582e-01
      8.66394415e-02 -1.13007361e-02 5.44840004e-04 -4.48392518e-02
      8.62279441e-03 -1.18442466e-02 -1.40917683e-02 -5.75775607e-03
      -1.57410875e-02 2.16345321e-02 2.07773298e-02 1.59272756e-02
      3.28009427e-02 -2.30684541e-02 -3.56316194e-02 4.22498537e-03
      3.54926065e-02 1.28773332e-03 -5.39197028e-03 1.16001312e-02
      8.32149945e-03 1.68446619e-02 2.67177131e-02 2.36942302e-02
      -5.22876717e-02 1.97192505e-02 -8.10746383e-03 2.40066852e-02
      1.45409163e-02 2.73853750e-03 -1.79589242e-02 -1.81428716e-02
      -6.61263801e-03 -4.28926107e-03 -1.14688473e-02 1.67307220e-02
      1.93252955e-02 -2.96866558e-02 6.57859538e-03 1.22290039e-02
      1.67944189e-02 1.40712187e-02 -3.12819034e-02 -7.19610089e-03
      6.55032182e-03 1.22978566e-02 2.50549312e-03 5.16569475e-04
      7.65799917e-03 -6.05608337e-04 5.03893651e-04 -5.35102887e-03
      2.81185587e-03 -1.14383269e-02 8.05330835e-03 -9.58510116e-03
      -4.70721349e-03 -2.18231254e-03 -1.66453552e-02 -7.04369668e-05
      -6.00494444e-04 6.67080283e-03 -1.70504185e-03 7.15023186e-03
      -2.65497039e-03 1.80767123e-02 1.10540155e-03 1.77580249e-02
      1.06799118e-02 1.67626776e-02 2.44234363e-03 9.82776284e-03
      -9.58981831e-03 4.32896335e-03 1.85862165e-02 -3.96676082e-03
      1.12639717e-03 2.61149689e-04 -2.31179828e-03 -2.52900776e-02
      -5.18848933e-03 1.63977477e-03 -3.67876189e-03 6.58668636e-04
      -6.16648933e-03 7.56617030e-03 6.11926196e-03 7.62179866e-03
      -6.48527464e-04 -6.22894103e-03 -4.86097066e-03 -6.89079706e-03
      -1.75271148e-03 -4.28933185e-03 2.73343432e-03 -2.99023092e-03
      -1.68104528e-03 8.29522265e-04 4.06699628e-03 -9.35595389e-03
      1.29688799e-03 3.87014239e-03 -2.36039297e-04 1.16779783e-03
      9.38111916e-04 4.52690932e-04 9.02759377e-04 1.32104130e-02</_>
    <_>
      6.57958984e-02 7.89071470e-02 1.10710144e-01 5.56352027e-02
      4.91317213e-02 -5.69086857e-02 1.79098472e-02 -4.79264222e-02
      -1.87117737e-02 -3.87334079e-02 1.96458157e-02 1.07302815e-02
      -2.67212633e-02 -4.56409529e-03 -3.48538980e-02 -1.82681568e-02
      -3.11843324e-02 -2.81023402e-02 2.14359872e-02 -3.70422937e-02
      3.56707200e-02 -2.42932164e-03 -1.39036297e-03 2.97595207e-02
      2.18104161e-02 8.23017396e-03 1.55750932e-02 1.53737897e-02
      -1.52076613e-02 -9.75160673e-03 1.20916171e-02 1.38126248e-02
      -2.16697482e-03 -1.96746606e-02 -1.40294926e-02 -1.91922933e-02
      -2.33963206e-02 -3.25712301e-02 -1.45177189e-02 -5.09348605e-03
      1.29615730e-02 -2.00478313e-03 2.06669848e-02 -2.84513850e-02
      1.39517849e-02 -3.46691310e-02 6.73922384e-03 3.29668028e-03
      -1.21965050e-03 2.21413970e-02 1.73374768e-02 9.80188139e-04
      -1.55610871e-02 -6.07108930e-03 -1.77147239e-02 7.94559601e-04
      2.97726132e-03 1.39534695e-03 7.58555485e-03 -9.77511611e-03
      3.20505793e-03 -1.93714574e-02 3.65726789e-03 2.18099263e-02
      -4.32098564e-03 -1.04285674e-02 1.03156324e-02 6.36730483e-03
      2.25090561e-03 3.08057433e-03 1.89145356e-02 -6.46433095e-03
      -8.83882958e-03 1.30059626e-02 -3.20861745e-03 -5.74226072e-03
      -3.59567202e-04 5.26539003e-03 6.33186474e-03 9.07808635e-03
      -2.64112512e-03 -8.02697521e-03 1.66883562e-02 -6.78342907e-03
      3.00871395e-03 -7.05300923e-03 8.19570664e-03 7.19454465e-03
      -3.68446438e-03 1.35833044e-02 3.40281683e-03 -2.32170522e-03
      -7.52861099e-03 1.35524757e-03 2.85323616e-03 -3.29259201e-03
      6.06477959e-04 -1.64122190e-02 5.59925195e-03 6.49606111e-03
      -7.52757842e-05 1.46122826e-02 -1.98824983e-03 -5.02458122e-03
      -3.04768118e-03 -7.11195171e-04 -8.18046508e-04 -6.27186615e-04
      -3.34258541e-03 -1.05754379e-03 -3.12713237e-04 8.75161774e-03</_>
    <_>
      9.37577114e-02 3.90046947e-02 1.08109927e-02 2.51137286e-01
      -6.40606359e-02 1.02492034e-01 -6.55768514e-02 -1.35544911e-01
      -4.99852113e-02 -1.73446219e-02 5.17376363e-02 6.29694480e-03
      2.84479130e-02 -1.10203810e-02 -3.87549819e-03 -3.67391296e-02
      -8.15010816e-03 3.81063158e-03 5.19101545e-02 -6.37030900e-02
      3.34295188e-03 1.35370502e-02 -4.20336146e-03 2.90152915e-02
      2.00759694e-02 -4.95072408e-03 2.25433870e-03 -1.31470235e-02
      1.90260215e-03 3.08134276e-02 -1.37691600e-02 1.18175279e-02
      8.53638444e-03 -8.09338689e-03 2.07734592e-02 1.54979574e-02
      1.81935895e-02 1.00989947e-02 -3.76732349e-02 1.43215654e-03
      -8.14449601e-03 6.75074523e-04 -7.11155217e-03 -9.55730118e-03
      -2.22954154e-02 -1.03682540e-02 3.74593213e-03 1.57816708e-02
      1.14133768e-02 7.69132236e-03 9.38746426e-03 -1.51189016e-02
      -6.64094137e-03 -1.65964756e-02 1.81872044e-02 -2.24574446e-03
      -7.25565042e-05 3.90000315e-03 4.36492759e-04 -2.18136772e-03
      3.09204264e-03 -1.34532144e-02 1.37468064e-02 6.98299147e-03
      1.79890841e-02 -4.63689957e-03 6.15846738e-03 -2.01358739e-02
      6.35502767e-03 -5.30334015e-04 9.92289558e-03 -3.22888196e-02
      7.26501597e-03 9.27518215e-03 1.47452357e-03 -1.22368950e-02
      -5.20999776e-03 -3.47763789e-03 8.55252985e-03 -1.42817842e-02
      1.09030772e-02 9.16145567e-04 -7.81882461e-03 -1.23215927e-04
      1.52773717e-02 -7.80690927e-03 -1.24385906e-02 -5.09662367e-03
      2.27028062e-03 5.57675399e-03 -6.28541736e-03 -3.91838653e-03
      -1.89851783e-03 2.62137782e-03 -7.87537172e-03 5.10809710e-03
      -9.34195938e-04 -7.53589440e-03 5.61268814e-03 7.62945786e-03
      1.84707053e-03 -4.39163065e-03 2.57787737e-03 1.03823876e-03
      -4.97141574e-03 3.87376966e-03 8.53004027e-03 -1.31216098e-03
      -2.10062563e-02 -5.70840947e-03 8.74962937e-03 3.54728487e-04</_>
    <_>
      4.25534874e-01 5.63192703e-02 -2.44974811e-02 2.10119560e-01
      1.18326372e-03 -5.85376695e-02 -1.35013983e-01 -9.57420096e-02
      -2.01826524e-02 1.31859602e-02 8.15798435e-03 -2.86890268e-02
      -1.86265365e-03 1.05528403e-02 1.57116391e-02 3.28278020e-02
      3.01353093e-02 -1.02790715e-02 2.24522948e-02 -2.32768189e-02
      -9.18814447e-03 -1.97517928e-02 2.09454019e-02 1.08564924e-02
      1.21635827e-03 3.78102735e-02 2.71426272e-02 3.42156291e-02
      -1.90105364e-02 -4.04133974e-03 -1.89286079e-02 -1.52666951e-02
      -2.58270279e-02 -2.17473228e-02 -9.06658266e-03 -1.09512471e-02
      2.50416473e-02 5.06216241e-03 -6.32176250e-02 -1.96521310e-03
      -1.65370908e-02 -1.23942364e-02 -1.05115045e-02 -1.52818589e-02
      -1.76720731e-02 -4.18863865e-03 -2.92970450e-03 -1.87963335e-04
      -3.49509669e-03 1.44305946e-02 1.58221480e-02 -4.02206928e-03
      -1.84990056e-02 -7.30762258e-03 2.26765424e-02 9.31065902e-03
      3.82358936e-04 -1.26357675e-02 -3.86503106e-03 2.89636169e-04
      7.35563925e-03 -1.33230193e-02 -1.02661094e-02 2.33636834e-02
      -5.96251292e-03 1.05612434e-03 7.07808242e-04 -1.22991884e-02
      9.47446935e-03 -1.10633364e-02 1.83594704e-04 -3.99258453e-03
      -4.48773237e-04 -9.69237275e-03 -1.15867350e-02 1.64681859e-03
      -2.42914050e-03 -1.93140411e-03 4.28332482e-03 2.27270368e-03
      1.25754811e-03 -7.63661880e-03 -2.76068039e-03 5.07328287e-03
      1.44097246e-02 -7.23655615e-03 -6.18600333e-03 -4.96374303e-03
      2.84989993e-03 -2.28853693e-04 2.76800035e-03 2.13800860e-03
      3.47595895e-03 -1.70081528e-03 1.16723694e-03 -5.81033854e-03
      6.34357100e-03 -7.30637275e-03 3.43080465e-04 7.98994489e-03
      -6.03633700e-03 -1.85670669e-03 4.32815868e-03 3.70184495e-03
      -8.16166168e-04 5.20247407e-03 -7.36408914e-03 -3.75498086e-03
      -1.88578595e-03 3.30612785e-03 -5.31846704e-03 -1.90586539e-03</_>
    <_>
      2.94438362e-01 -3.02348677e-02 8.90395939e-02 -1.44925028e-01
      2.16217209e-02 -1.31094351e-01 -8.38968605e-02 -8.65317509e-02
      5.29762218e-03 -2.28092745e-02 -6.63375657e-04 -3.14026102e-02
      1.53296404e-02 5.84706739e-02 4.43966426e-02 3.36654834e-03
      -8.44698306e-03 5.07853553e-02 8.74525961e-03 -2.70870216e-02
      -2.79756542e-02 -4.69782352e-02 3.90392751e-03 4.56028245e-02
      -3.47736143e-02 9.91220027e-03 -5.55904657e-02 -3.92407589e-02
      -4.36909124e-03 2.14558952e-02 -1.69083674e-03 2.81674229e-03
      -3.38134766e-02 -5.05805295e-03 -6.46609347e-03 -7.33538903e-03
      -5.33211837e-03 1.59223881e-02 -1.89168416e-02 -2.52177864e-02
      1.11768385e-02 -1.61425620e-02 1.08741987e-02 5.64442249e-03
      9.35149379e-03 6.32688450e-03 -6.33519492e-04 -1.90685838e-02
      -2.86754058e-03 1.88364313e-04 3.38545814e-02 -1.33700334e-02
      8.91988166e-03 3.25846439e-03 1.88443866e-02 -2.74154730e-02
      1.25626964e-03 2.16220506e-02 -1.12952488e-02 -3.19681666e-03
      1.34519872e-03 8.02320056e-03 -1.06883086e-02 -1.42797083e-02
      1.44198886e-03 -6.33997982e-03 2.61246576e-03 -3.50345764e-03
      -8.85619503e-03 6.02816883e-03 -3.71352490e-03 3.61307990e-03
      8.16083420e-03 9.62193031e-03 4.69739549e-03 -6.57194946e-03
      6.88536931e-03 4.62522544e-03 8.04376788e-03 -2.34377614e-04
      -4.54441272e-03 3.55611276e-03 -9.35290661e-03 1.66976720e-03
      2.79545854e-03 -3.67903174e-03 2.87516811e-03 -7.18741619e-04
      -6.36417128e-04 -6.89728418e-03 7.00203888e-03 -2.57864501e-03
      3.43520124e-03 1.57369371e-03 6.52803387e-03 3.29351547e-04
      3.29939136e-03 -3.21230921e-03 -1.56252477e-02 -5.11560263e-03
      -1.53277582e-03 -6.74320338e-03 -1.26524421e-03 2.80949846e-03
      -2.66197626e-03 -3.17447376e-03 -1.06286127e-02 1.13417220e-03
      6.18499052e-03 -3.07604624e-03 5.36526041e-03 1.62882097e-02</_>
    <_>
      3.37465070e-02 2.88850397e-01 2.02701032e-01 1.76540669e-02
      -2.15945795e-01 5.96311688e-02 -3.17479931e-02 -5.34766540e-02
      -1.23376064e-02 9.87987965e-03 -1.48127275e-02 -1.78221539e-02
      3.53822187e-02 -6.42141514e-03 6.14229254e-02 -6.00316329e-03
      -1.21902274e-02 3.64879705e-02 -4.32117283e-02 -1.25559315e-03
      -2.26875790e-03 -3.37431906e-03 7.18910666e-03 2.49874499e-02
      -5.42691536e-03 7.25332722e-02 -1.25449896e-02 -3.19106020e-02
      -1.03505040e-02 4.17597331e-02 -1.99168604e-02 2.76931114e-02
      -1.17028486e-02 6.14452781e-03 -1.74740609e-02 3.31499241e-02
      1.26144262e-02 -1.01038022e-02 5.28366631e-03 1.24344788e-02
      -9.02546011e-03 3.22455354e-03 -7.13082356e-03 -2.77256779e-03
      6.37547113e-03 -5.73984487e-03 -1.49851001e-03 -8.58151726e-03
      3.69281368e-03 -1.12013950e-03 1.03314584e-02 6.65986724e-03
      1.82736423e-02 1.03087565e-02 4.31344099e-03 3.67126404e-03
      -5.91114769e-03 -3.46615771e-03 -4.21482697e-03 -2.85790814e-03
      2.45182961e-02 -2.21483428e-02 -8.41820147e-03 5.45423885e-04
      6.66176900e-04 4.26147459e-03 2.40616873e-03 -9.73598007e-03
      -8.38816632e-03 3.28616612e-03 2.72233994e-03 -3.24544781e-05
      -1.17333066e-02 2.23165704e-03 -2.17497000e-03 6.72857976e-03
      2.05430388e-02 8.61253066e-04 1.21866753e-02 5.85363666e-03
      -2.19722604e-03 -3.08371568e-03 -1.25551363e-02 1.63827091e-02
      1.10022270e-03 -8.62382818e-03 1.20074842e-02 3.42146959e-03
      1.58827542e-03 6.19197264e-03 -5.42147458e-03 1.83136715e-03
      -1.16322201e-03 -5.25508123e-03 2.17348034e-03 9.70611349e-03
      -2.66553252e-03 3.34250787e-03 -1.24855945e-03 -2.19585490e-03
      5.51315816e-03 5.32027660e-03 -2.75732041e-03 1.05234757e-02
      -4.72381292e-03 -2.40759389e-03 -3.92670830e-04 8.56407359e-03
      -2.84059648e-03 9.02053807e-03 -3.72092030e-03 -1.02253922e-03</_>
    <_>
      3.07975441e-01 -3.83798528e-04 -3.30002122e-02 -1.01853579e-01
      -1.18571274e-01 -7.17664957e-02 -9.97677892e-02 -1.10708132e-01
      3.83262970e-02 1.05940178e-02 3.96923423e-02 -3.21864337e-02
      -1.13580776e-02 3.28425281e-02 5.52910529e-02 -2.32829433e-02
      -5.80836087e-02 -4.34540510e-02 -5.40901683e-02 3.04091144e-02
      5.15270419e-02 -5.77671779e-03 -8.05494469e-03 -3.58284824e-03
      -7.47176111e-02 1.73551124e-02 -3.12024914e-02 -2.35656705e-02
      1.47862549e-04 1.67890992e-02 -3.74286361e-02 2.85432413e-02
      -1.74826328e-02 -1.00856228e-02 -3.16313505e-02 -5.17413311e-04
      -2.20999513e-02 1.87704656e-02 -4.22386825e-02 -1.14250248e-02
      -2.94793751e-02 2.26558689e-02 3.87183973e-03 -5.40293241e-03
      -1.60321984e-02 8.95905867e-03 -5.26154414e-03 -5.12095913e-03
      1.05267419e-02 1.19099412e-02 1.13691669e-02 -4.96973703e-03
      7.26128416e-03 5.25846565e-03 3.22745554e-02 -1.04424478e-02
      -4.45418712e-03 8.95988103e-03 -8.95235036e-03 -2.04955484e-03
      2.02988703e-02 1.85742062e-02 9.57055483e-03 -5.74078318e-03
      8.43448658e-03 -5.52888168e-03 -8.72799754e-03 -4.89222351e-03
      -1.16046611e-02 -1.91323546e-04 9.81816370e-03 -1.15939397e-02
      -1.62952524e-02 -6.36949379e-04 -3.51987954e-04 -1.94082465e-02
      -9.97823570e-03 -8.86602420e-03 -1.46317407e-02 7.06933578e-03
      -6.85870321e-03 -7.86412507e-03 -5.62938908e-03 -5.28272660e-03
      1.10907657e-02 3.81881208e-03 6.54518884e-03 2.77832113e-02
      -1.42323179e-02 -6.06558053e-03 4.80778329e-03 -2.80396955e-04
      1.60306669e-03 -3.44908237e-03 9.69307730e-04 3.51860677e-03
      -4.75671329e-03 -7.94543512e-03 -8.73822626e-03 -6.26416691e-03
      6.64532650e-03 -1.09618483e-02 -4.17785998e-03 -1.89052075e-02
      5.34910802e-03 8.07119650e-04 -2.51416489e-03 -1.14415772e-02
      -1.78489368e-02 7.85293244e-03 2.24874681e-03 -1.12112155e-02</_>
    <_>
      4.83990133e-01 -6.33763969e-02 1.14205360e-01 1.64817184e-01
      -1.16488568e-01 2.49544419e-02 -5.98950833e-02 6.88805282e-02
      -4.48408574e-02 4.49748635e-02 -1.12922993e-02 2.46859267e-02
      -3.60049610e-03 3.91527899e-02 -1.22046564e-02 -1.50157325e-02
      2.68629175e-02 -3.08403634e-02 2.90812086e-02 9.38207656e-03
      2.10254211e-02 -2.65395013e-03 -2.79238764e-02 -1.81647558e-02
      -2.47999560e-02 1.99098755e-02 2.67429873e-02 2.37287935e-02
      1.77496113e-02 5.51129282e-02 1.69459265e-02 2.01121848e-02
      -1.54686105e-02 -5.75786270e-03 2.02436093e-02 2.45309784e-03
      -1.81814134e-02 2.09863242e-02 1.11473408e-02 -2.97086854e-02
      2.28298479e-03 7.71886087e-04 -2.45455862e-03 -1.75487511e-02
      -1.02416985e-02 -8.30045715e-03 -9.77052096e-03 8.56234413e-03
      9.94200446e-03 -5.15515823e-03 8.67365580e-03 8.42448964e-04
      2.31015757e-02 3.90880508e-03 -4.25238721e-03 8.71839747e-03
      -5.30141965e-03 3.36966186e-04 -1.19601553e-02 -4.54980601e-03
      4.07758588e-03 -2.36661267e-02 -2.44481396e-03 -2.82220803e-02
      4.47450858e-03 4.05638525e-03 -1.07711600e-03 7.21233198e-03
      5.72589878e-03 -3.02522467e-03 -1.30765624e-02 8.00593290e-03
      -5.29377442e-03 5.24446415e-03 -2.41396439e-04 1.04705822e-02
      1.53925372e-02 5.32735605e-03 2.85763759e-04 1.34869362e-04
      -2.70594424e-03 -3.60071613e-03 -8.47945083e-03 1.54379820e-02
      -1.12415245e-02 9.51126509e-04 -2.48006452e-03 -5.70345484e-03
      1.32716401e-03 -4.97096777e-03 -1.78727752e-03 -7.82098155e-03
      5.74470824e-03 5.81781333e-03 9.38766543e-03 1.36712799e-02
      3.89541662e-03 -2.61800736e-03 4.90579335e-03 -4.39537177e-03
      7.04753213e-03 -8.43979698e-03 -7.47725880e-03 3.43842548e-04
      3.82861379e-03 8.92761687e-04 -5.38137881e-03 2.63536093e-03
      -4.99773212e-03 4.95980633e-03 -1.56007195e-02 1.38320243e-02</_>
    <_>
      9.61698741e-02 -6.49615973e-02 2.12012216e-01 6.45157322e-02
      4.40542325e-02 -4.88930754e-02 -4.51286845e-02 -5.93739969e-04
      3.05561745e-03 4.42377701e-02 6.77083731e-02 9.95074678e-03
      3.49462666e-02 -1.68355629e-02 1.20980097e-02 2.02356242e-02
      -3.09373420e-02 1.93918368e-03 1.75285153e-02 -8.12858157e-03
      4.78055067e-02 -1.20849805e-02 -9.42280889e-03 -4.28268835e-02
      -1.61720328e-02 2.01410782e-02 -1.38064893e-03 -2.67511886e-03
      7.53971376e-03 2.85008252e-02 -5.06650284e-03 2.74802875e-02
      -7.63417175e-03 1.12459678e-02 -9.48016718e-03 2.44759303e-03
      -1.92247052e-02 5.27342036e-03 -8.94467626e-03 1.70316047e-03
      3.45449778e-03 -2.22345199e-02 1.68679245e-02 -1.47335082e-02
      1.12481089e-02 -1.06979823e-02 -9.02000908e-03 -4.69644321e-03
      -2.19587167e-03 7.70868547e-03 -5.22045710e-04 1.27164857e-03
      -4.23466600e-02 2.12877430e-02 -4.24387259e-03 1.95434671e-02
      4.06876020e-02 1.23195173e-02 -1.65082421e-02 -2.03067227e-03
      1.54553261e-02 1.38284126e-02 1.09221681e-03 2.04795087e-03
      9.47261881e-03 -8.04473704e-04 -1.11108972e-03 -1.22715971e-02
      -6.44869916e-03 7.75007717e-03 1.84150618e-02 6.73658540e-03
      1.30531620e-02 1.23462567e-04 -2.41343677e-03 -8.29671603e-03
      7.70952611e-04 1.49425538e-03 -2.69279117e-03 -1.82992611e-02
      8.89725145e-03 1.39803803e-02 -1.07764336e-03 -1.18912533e-02
      -5.76518383e-03 7.10723922e-03 -2.19129380e-02 -1.83240045e-02
      -2.12879479e-03 -1.24788620e-02 -9.87662096e-03 1.10171763e-02
      1.02155134e-02 -7.79533433e-03 -8.96320213e-03 1.73233566e-03
      -6.79362053e-03 2.77256896e-03 -3.99556826e-04 7.63683254e-03
      -1.50764100e-02 -3.07183247e-03 -3.09730938e-04 -1.45899206e-02
      2.52540666e-03 5.94204245e-03 -8.43906030e-03 8.05007701e-04
      -6.53172797e-03 3.77084780e-03 -2.31410703e-03 4.26688278e-03</_>
    <_>
      2.69911438e-01 4.17056829e-02 1.33704379e-01 -1.29564032e-01
      -1.23011269e-01 6.27298430e-02 2.36033350e-02 -6.24354258e-02
      -6.70715061e-04 -1.80584211e-02 -7.88032822e-03 -6.75066113e-02
      -4.92081679e-02 -2.24278271e-02 2.11977866e-02 -1.22929234e-02
      8.23261589e-03 1.00270338e-01 1.77389290e-02 -3.71361244e-03
      -6.12222869e-03 4.13623787e-02 1.32627394e-02 2.68514324e-02
      7.23345876e-02 3.60860117e-02 -1.58494653e-03 -2.24504638e-02
      4.39064531e-03 -2.75158267e-02 -2.77335495e-02 -1.87405236e-02
      -9.40213259e-03 -1.80025250e-02 2.29983572e-02 6.65253215e-03
      1.54934181e-02 1.88581701e-02 6.73301890e-03 -1.84622277e-02
      2.18295828e-02 5.83859044e-04 -8.18249770e-04 -1.65145863e-02
      -7.34961173e-03 8.93498026e-03 -1.29495049e-02 2.18883753e-02
      2.89467908e-03 1.46070058e-02 -8.90270714e-03 1.86544470e-02
      6.33590966e-02 -6.98730233e-04 -3.42578138e-03 2.00992003e-02
      1.94249228e-02 -2.08819954e-04 -2.99552339e-03 1.74688250e-02
      -1.49835870e-02 -2.25106943e-02 2.83984991e-04 1.89241432e-02
      2.07476318e-03 -4.41008667e-03 1.96647132e-03 1.11449137e-02
      -2.88074167e-04 -6.11601444e-03 4.88160644e-04 3.54064675e-03
      4.20819782e-03 -6.29938208e-04 2.67078099e-03 -5.10724913e-03
      2.84342066e-04 3.43035534e-03 -1.05340611e-02 -2.08936795e-03
      -8.30631517e-03 5.30738267e-04 2.84366077e-03 -5.95018454e-03
      -7.96981185e-05 6.70082541e-03 7.91704468e-03 6.91272086e-03
      -8.73502716e-03 -6.72685029e-03 3.76499793e-03 -4.23846272e-04
      2.16962025e-03 -4.72771656e-03 4.04328573e-03 -7.84537382e-03
      -3.07214679e-03 2.85998639e-03 4.66536032e-03 8.29171110e-03
      -7.76836975e-03 -1.06410484e-03 -1.33936561e-03 3.55944131e-03
      3.29141534e-04 9.21832956e-03 6.18316606e-03 -5.49078407e-03
      -5.02305757e-03 5.99456858e-03 2.78473919e-04 -4.84940922e-03</_>
    <_>
      3.50075155e-01 -1.66014701e-01 6.08280078e-02 7.98098892e-02
      -3.48061249e-02 -6.53578639e-02 -6.12686723e-02 -5.80788031e-02
      5.89998811e-03 1.99320856e-02 2.18346026e-02 -9.06022452e-03
      5.34534194e-02 6.90328479e-02 -3.26572619e-02 -5.02234548e-02
      -6.59845257e-03 8.31089541e-03 -4.45243232e-02 8.19687359e-03
      -1.78109072e-02 1.65199358e-02 1.00336531e-02 3.43066491e-02
      -2.21463051e-02 7.21950363e-03 -3.07906102e-02 -6.47545443e-04
      1.86597034e-02 5.35756000e-04 -2.66867992e-03 1.43608693e-02
      2.69974805e-02 8.90374184e-03 -1.55995768e-02 1.97919924e-02
      -8.89588967e-02 3.17361690e-02 1.53279991e-03 -1.34019600e-02
      -1.44342566e-02 -2.93796440e-03 1.54451258e-03 1.83809511e-02
      4.84721828e-03 3.44063039e-03 -1.57248396e-02 1.71367899e-02
      -1.99791659e-02 3.72648202e-02 2.60537248e-02 2.32711877e-03
      1.83374062e-02 -2.37363130e-02 -4.83266497e-03 8.04349873e-03
      1.01203965e-02 1.60236116e-02 6.90327771e-03 -3.71422386e-03
      -6.87962165e-03 1.13726230e-02 1.20998379e-02 1.67080835e-02
      -1.23299826e-02 -3.11401149e-04 8.61319155e-03 8.17526691e-03
      -1.11028291e-02 -3.06763430e-03 1.17743434e-02 -1.19485920e-02
      6.09516923e-04 5.21693518e-03 -1.46860292e-03 -2.38256399e-02
      -3.93645791e-03 6.43651560e-03 -4.23166482e-03 1.42941223e-02
      -1.38510782e-02 -5.39627671e-03 1.10693974e-02 6.38201972e-03
      -2.23994832e-02 3.45021230e-03 -7.63097312e-03 1.30221201e-02
      3.16343573e-03 3.79252248e-03 6.53878145e-04 -1.42610166e-03
      -5.47869271e-03 6.92094583e-03 -1.21663306e-02 -1.63359623e-02
      8.29548854e-03 -1.05185984e-02 -5.96677244e-04 2.07683966e-02
      9.37925279e-03 1.83993988e-02 1.09386947e-02 -1.62380878e-02
      -5.80692431e-03 -4.19057999e-03 1.48696208e-03 -9.77052469e-03
      3.50565277e-03 -6.52819593e-03 2.13324348e-03 -5.09638852e-03</_>
    <_>
      9.65699852e-02 3.50934789e-02 4.70714010e-02 3.37289721e-01
      -2.71736793e-02 -8.79352465e-02 -1.59294337e-01 -7.12362975e-02
      -4.70815375e-02 -6.77956920e-03 -3.01432284e-03 -8.75180811e-02
      -4.35920544e-02 -3.60714272e-02 1.37266755e-01 7.67913312e-02
      1.13418675e-03 -3.09487134e-02 -6.37946576e-02 -1.50428098e-02
      -3.89365219e-02 1.30564384e-02 -2.99551357e-02 -3.46841626e-02
      2.23752600e-03 1.30913248e-02 -3.30407061e-02 -2.27431854e-04
      -1.71432309e-02 -7.77165219e-02 2.89773177e-02 3.50673869e-02
      -4.33332920e-02 3.17947790e-02 -2.30189636e-02 1.29463486e-02
      8.31970538e-04 -2.89998595e-02 -5.17469086e-02 -2.11266000e-02
      -1.80438813e-02 -2.29001399e-02 1.39783053e-02 1.26910685e-02
      1.98600702e-02 2.10147146e-02 -4.47073020e-02 -7.80089432e-03
      -1.86707154e-02 1.91782750e-02 1.32458126e-02 -2.57312749e-02
      9.35740583e-03 -1.70429219e-02 4.27368702e-03 -7.55251665e-03
      4.15324513e-03 -1.02542853e-02 -1.87471751e-02 2.14625318e-02
      2.33476690e-04 -1.52840577e-02 -2.81872082e-04 1.38362804e-02
      -1.39168045e-02 3.83191655e-04 -5.00410423e-03 9.75652505e-03
      1.84491370e-02 4.74627130e-03 -8.74718186e-04 -1.67562701e-02
      -6.27318257e-03 -8.09431449e-03 -6.78682001e-03 3.94632528e-03
      4.59894538e-03 1.39815342e-02 -1.67752784e-02 -1.62070850e-03
      1.27546396e-02 5.48945321e-03 3.14587518e-03 9.33208130e-03
      -9.78954951e-04 1.11809969e-02 -1.41337368e-04 -3.61204799e-03
      1.56069326e-03 -2.93091708e-03 -3.59372376e-03 6.22878177e-03
      -2.63586268e-03 6.78350404e-03 7.95828551e-03 7.86019489e-03
      5.48177049e-04 3.94277228e-03 8.19363224e-04 -1.10048801e-02
      -4.45596408e-03 -9.32583120e-03 1.46260113e-02 -9.40999482e-04
      -2.90946290e-03 6.77787059e-04 -6.27480913e-03 4.46638325e-03
      4.40089358e-03 2.53236084e-03 4.60578711e-04 1.15268975e-02</_>
    <_>
      -3.32554840e-02 7.30408728e-02 2.05343574e-01 -1.49116144e-01
      -3.11092231e-02 5.98033331e-03 3.05399522e-02 -7.65665472e-02
      -2.40924638e-02 -7.06969425e-02 5.86621240e-02 -8.06891620e-02
      -6.74189478e-02 2.76759565e-02 7.91272819e-02 2.54403669e-02
      -3.22563853e-03 2.05135718e-02 -1.09901661e-02 -5.34681454e-02
      -3.83281894e-02 1.21975699e-02 3.01140267e-03 -7.57516536e-04
      -6.45887107e-03 2.88066380e-02 7.99264107e-03 1.27964728e-02
      -1.81855690e-02 2.72093969e-03 -3.41933928e-02 3.53196613e-03
      1.13582360e-02 1.17182545e-03 -4.56359563e-03 -1.39996770e-03
      -2.43660901e-02 2.52458709e-03 -1.31797453e-03 -1.14781801e-02
      -1.29689677e-02 -2.26751645e-03 -2.79722456e-02 -5.50749901e-05
      1.05854236e-02 9.08641238e-03 -1.28149884e-02 2.38388125e-03
      -6.15362963e-03 1.53902099e-02 1.06950551e-02 -9.51649528e-03
      -9.42676701e-03 4.43746755e-03 -9.12508927e-03 -3.20370658e-03
      -7.78928108e-04 1.05208904e-02 2.68692616e-02 -2.81224418e-02
      -5.80190029e-03 -1.25499759e-02 1.26104532e-02 1.29085500e-02
      -1.13028288e-02 -1.27032790e-02 2.79107559e-02 -1.85706711e-03
      1.24675361e-02 -8.68957583e-03 -5.80505002e-03 -3.83473444e-03
      -5.90344006e-03 -1.21418433e-03 -6.49358844e-04 1.67356282e-02
      -1.41172670e-02 -9.15049948e-03 5.40728681e-03 -6.66904903e-04
      4.55023767e-03 -3.13586183e-03 9.62479413e-03 5.06384717e-03
      1.23703387e-02 -4.04783944e-03 -9.53675061e-03 2.24821665e-03
      4.15780535e-03 -9.70657729e-03 2.86295521e-03 1.22023118e-03
      7.01435702e-03 -1.82338096e-02 2.50871177e-03 1.37040159e-02
      -5.48931444e-03 1.19139568e-03 2.29020487e-03 1.83763506e-03
      3.06341820e-03 1.38557805e-02 -5.75140119e-03 -5.27254352e-03
      5.52252540e-03 6.36863988e-03 2.84366030e-03 9.65600554e-03
      2.58408487e-03 -3.10781971e-03 -1.19668350e-03 3.28843109e-03</_>
    <_>
      -5.55471107e-02 1.59705088e-01 7.41526634e-02 -1.18007302e-01
      -5.76967336e-02 5.90697676e-02 -2.98775472e-02 -6.97111711e-02
      6.64928462e-03 1.18846004e-03 3.02206986e-02 -7.43612126e-02
      -1.23633318e-01 2.03710049e-02 7.49534741e-02 4.15019095e-02
      2.08611302e-02 3.68018560e-02 -2.05737110e-02 4.03647237e-02
      -1.23241683e-02 1.45564592e-02 2.61382498e-02 1.17634656e-02
      -2.66702343e-02 -1.27129061e-02 -5.38450573e-03 -2.94310655e-02
      -3.69998487e-03 -5.59514388e-03 -3.82623300e-02 4.54482250e-03
      4.83798608e-03 -1.31104672e-02 1.60301179e-02 1.22222053e-02
      -1.89747550e-02 3.80120426e-02 -2.62043043e-03 1.41897919e-02
      8.20396561e-03 7.78812263e-03 -2.90397927e-02 6.40695775e-03
      -5.75153530e-03 2.85354024e-03 -1.87947955e-02 -3.14975809e-03
      5.49398595e-04 1.02661531e-02 4.59044427e-03 -2.08214615e-02
      -1.65240820e-02 1.15128672e-02 2.16614129e-03 -2.09067320e-03
      -1.25535280e-02 3.63572012e-03 2.70387135e-03 -2.34387908e-02
      -2.69680095e-06 4.05383616e-04 2.83786468e-02 2.34957840e-02
      -1.33353351e-02 1.47863505e-02 1.34959966e-02 -1.43073052e-02
      -6.72140392e-03 -3.57139832e-03 3.96869611e-03 -4.84878663e-03
      -7.25851860e-03 3.77911702e-03 1.82936601e-02 1.04769999e-02
      -4.82280739e-03 -2.82786824e-02 4.18169564e-03 -1.58534795e-02
      6.06414163e-03 -1.27089797e-02 -7.64654158e-03 1.13328295e-02
      -1.23506999e-02 2.21001520e-03 -3.35773197e-03 -4.03020112e-03
      -1.88217266e-03 -8.24778900e-03 -5.53273479e-04 3.41640483e-03
      -2.30444642e-03 -3.68305808e-03 1.23792514e-02 1.14309238e-02
      -3.42981628e-04 3.24748713e-03 -1.01547809e-02 6.03941828e-03
      3.35998391e-03 3.58105032e-03 -7.84385856e-03 9.31487698e-03
      -2.97621009e-03 -1.03909522e-03 -4.56825568e-04 1.34622888e-03
      -1.29604051e-02 -3.54017899e-03 -2.42044800e-03 -5.43559995e-03</_>
    <_>
      4.18588877e-01 -2.99153309e-02 1.55788794e-01 -2.42796794e-01
      -2.96602160e-01 3.43139797e-01 -3.81224006e-02 -1.28927618e-01
      1.23428002e-01 -6.10302109e-03 1.72545407e-02 -1.60736233e-01
      7.37845227e-02 -6.29186332e-02 -7.66820414e-03 -2.51782648e-02
      1.04201464e-02 2.82456749e-03 2.99077146e-02 3.84254456e-02
      1.94972921e-02 -5.28124794e-02 3.39894332e-02 -1.60880387e-03
      1.22761242e-02 3.25611304e-03 -5.38470186e-02 -3.23973298e-02
      -4.75647999e-03 -4.83194180e-02 -2.54309718e-02 -4.28659096e-02
      -1.18902735e-02 7.93788955e-03 4.08722460e-03 1.75422337e-02
      2.68041100e-02 1.51212849e-02 7.50907045e-03 -2.69275978e-02
      -1.90805681e-02 1.16820233e-02 -9.44085885e-03 -1.84469931e-02
      -9.65727610e-04 5.53904427e-03 2.91608889e-02 -9.15459730e-03
      7.35298451e-03 5.38125052e-04 6.08642772e-03 -6.45213760e-03
      -1.91067217e-03 3.49803804e-03 1.41194472e-02 -1.61574017e-02
      9.46261047e-04 1.20223220e-02 1.35090230e-02 -7.94833992e-03
      -3.75170610e-03 1.39858611e-02 -9.29929595e-03 -4.31171153e-03
      -1.00433594e-02 -2.04734597e-03 -9.15713515e-03 9.87985544e-03
      1.64466333e-02 -5.16701955e-04 6.22568931e-03 -6.22320315e-03
      -9.56686679e-03 4.25733812e-03 -5.52101046e-05 -4.37422842e-03
      -8.28268472e-03 -8.37008283e-03 -5.81194973e-03 1.02442605e-02
      -1.90472626e-03 -5.84014738e-03 7.79442722e-03 -1.22162804e-04
      1.22121638e-02 1.07220337e-02 6.64774980e-03 -7.27215270e-03
      1.48504367e-03 -1.01036411e-02 4.56887065e-03 -4.18816553e-03
      2.54145102e-03 -6.37052441e-03 -3.64837726e-03 -1.03138173e-02
      7.09676044e-03 -4.69885394e-03 2.72956723e-03 6.89280278e-04
      -7.53019005e-03 -6.01004204e-03 -4.15504258e-03 8.83310102e-03
      4.76585282e-03 -3.53255146e-03 6.68412121e-03 -4.74940054e-03
      4.38903691e-03 2.59255106e-03 -7.76441710e-04 9.91729833e-03</_>
    <_>
      5.02660334e-01 8.06880146e-02 4.32667024e-02 1.73627608e-03
      4.63292003e-03 6.90125078e-02 -7.03767315e-02 -7.66194016e-02
      2.57409271e-02 6.39322633e-03 -1.98421944e-02 -3.38311940e-02
      -9.06636938e-03 -1.57442037e-02 4.49866913e-02 9.81064327e-03
      3.17711160e-02 9.55765136e-04 8.14144127e-03 4.70463708e-02
      -1.93032194e-02 -1.09590013e-02 -2.79294141e-02 -5.40326862e-03
      1.95074566e-02 6.56541716e-03 2.30910499e-02 -2.29597446e-02
      -1.29539836e-02 -9.08204261e-03 -8.82521179e-03 -1.12856561e-02
      -1.10876085e-02 7.90174771e-03 -1.86092332e-02 -1.32106841e-02
      4.41889744e-03 8.38251319e-03 -7.23257335e-03 -7.19723804e-03
      -9.44702420e-03 -2.84759002e-03 -5.60790207e-03 -5.48698753e-03
      -4.35641175e-03 8.63947906e-03 7.14527443e-04 1.35836555e-02
      -9.74993873e-03 6.20678905e-03 8.06206092e-03 2.40180250e-02
      1.05914772e-02 1.63252815e-03 -1.05389040e-02 8.43469240e-03
      9.81660839e-03 -5.08232648e-03 -8.60532094e-03 1.06232997e-03
      -1.91304542e-03 3.95635562e-03 -7.67315878e-03 1.71842035e-02
      2.59644585e-03 -4.02138336e-03 -9.60511621e-03 5.72452275e-03
      -3.56627489e-03 2.75849248e-03 -9.35694110e-03 -1.31017715e-03
      2.98167905e-03 3.18771577e-03 -1.21370917e-02 2.77745235e-03
      -8.22742842e-03 -1.53434929e-03 1.72306504e-03 -1.52415514e-03
      2.06325413e-03 -1.05641307e-02 6.10238756e-04 2.59857695e-03
      1.72998232e-03 -1.92818535e-03 4.22330231e-05 -4.94085345e-03
      6.94872288e-04 3.80000356e-03 -7.94272812e-04 -2.04848545e-03
      -2.96994764e-03 -5.78611856e-03 8.00117571e-03 -6.05810387e-03
      -2.46086274e-03 2.41362746e-03 3.90895596e-03 -5.47661621e-05
      6.29437563e-04 -2.45765387e-03 9.28186253e-03 1.91144913e-03
      2.91033415e-03 -7.35417925e-05 -1.47232821e-03 -3.60471057e-03
      -6.92969363e-04 1.57354365e-03 3.65267682e-04 -2.02763150e-03</_>
    <_>
      -7.50853792e-02 -1.50168180e-01 3.54088783e-01 -2.14656726e-01
      -7.04111904e-02 2.93639958e-01 -4.84124646e-02 -7.64577910e-02
      7.99776837e-02 -5.22058643e-02 3.84990312e-02 -1.77354570e-02
      1.23862885e-01 2.70330254e-02 2.82122418e-02 -3.78041565e-02
      -1.00327544e-02 -6.22699000e-02 -1.75027829e-02 6.14989921e-02
      4.17634994e-02 -1.19217662e-02 -8.36832263e-03 7.87647907e-03
      -9.60112642e-03 1.53107215e-02 -1.07405558e-02 6.66410488e-04
      -1.78092660e-03 -6.14114292e-03 -7.67151918e-03 -1.83862727e-02
      9.05680656e-03 1.57707855e-02 -1.12646678e-02 2.42468715e-02
      1.29572898e-02 5.73616056e-03 2.33449740e-03 -1.97783355e-02
      2.62921996e-04 3.05688148e-03 -6.78325538e-04 1.54025236e-03
      1.32596353e-03 -1.29164318e-02 5.32655232e-03 -2.12153457e-02
      -9.06424248e-04 9.28402878e-03 2.27248650e-02 -2.84163817e-03
      1.05880958e-03 -7.09833298e-03 -1.49705517e-03 -4.03528009e-03
      -6.37495378e-03 5.10227028e-03 -5.36005152e-03 -3.35988100e-03
      -6.41991338e-03 8.62969458e-03 -1.53094828e-02 1.30364876e-02
      -9.60369688e-03 5.33850119e-03 7.40021653e-03 2.86817248e-03
      1.49795483e-03 -5.56327542e-03 -1.10498322e-02 8.32433347e-03
      1.41870249e-02 1.36734126e-02 6.56337151e-03 7.55909830e-03
      -9.52089764e-03 1.32602127e-02 4.40783147e-03 -4.38578567e-03
      5.40632196e-03 -2.13595107e-03 -1.78360473e-02 -2.37687863e-02
      5.30262943e-03 3.39559396e-03 3.67325661e-03 4.28881589e-03
      -4.81292118e-05 -2.39196629e-03 -1.40377970e-05 -1.99596252e-04
      -1.48003013e-03 -6.15747087e-03 -4.89124563e-03 4.21795528e-03
      -1.26249634e-03 -5.05306292e-03 3.46704014e-03 4.25410504e-03
      6.83338800e-03 -2.12809304e-03 -1.84824085e-03 9.28175636e-03
      -4.10648156e-03 -4.76026122e-04 2.77449191e-03 3.09771486e-03
      -5.27381292e-03 1.76728843e-03 4.39915294e-03 8.90109281e-04</_>
    <_>
      -1.01487450e-01 -1.18154295e-01 2.57111490e-01 -2.06122324e-01
      -1.53960794e-01 2.99036115e-01 -6.67167902e-02 -1.92376181e-01
      8.97600576e-02 -6.50982745e-03 3.19473445e-02 -7.41273761e-02
      4.16024216e-02 1.11902936e-03 2.51554679e-02 -9.02566463e-02
      -2.00151559e-02 -7.65735731e-02 1.00507364e-02 9.74830464e-02
      6.52135462e-02 -2.64400877e-02 -9.50541347e-03 -3.92335057e-02
      -3.60185690e-02 2.14320850e-02 -6.30825981e-02 1.50042102e-02
      9.65944771e-03 -1.47423772e-02 6.53590029e-03 -5.41881807e-02
      1.46346092e-02 1.72593016e-02 -1.28416950e-02 1.69876032e-02
      2.39603110e-02 -3.40698083e-04 1.86001379e-02 -1.86430197e-02
      -1.28686642e-02 1.24572869e-02 -5.01064816e-03 -2.37076543e-02
      4.33207769e-03 4.20863228e-03 6.23724423e-03 3.58119607e-03
      3.51275969e-03 3.20454352e-02 1.13438012e-03 1.07957842e-02
      1.00825336e-02 5.74690662e-03 1.13859167e-03 -8.31654016e-03
      -4.46952833e-03 -1.13549307e-02 1.05360011e-02 -2.06517754e-03
      -5.01662865e-03 1.26529988e-02 2.76926206e-03 1.43092303e-02
      -3.99993500e-03 2.54067709e-03 1.40819997e-02 -7.16197910e-03
      3.45385098e-03 8.48448463e-03 3.18765029e-04 -9.34448652e-03
      7.03064434e-04 -1.78787727e-02 -7.86827970e-03 4.37275507e-03
      -2.33269967e-02 1.53527781e-02 2.08215658e-02 3.14173917e-03
      7.50169158e-03 -2.40127486e-03 -3.48558626e-03 2.27236710e-02
      4.39894432e-03 -7.08254380e-03 3.04607465e-03 1.52229494e-03
      -2.13099830e-03 -1.22063067e-02 -2.09724065e-03 -1.53479762e-02
      -5.13435341e-03 -1.18795922e-02 -6.20526145e-04 3.93314520e-03
      -2.16613826e-03 -3.68227600e-03 -1.06683159e-02 9.89760458e-03
      8.61232002e-06 -4.16186493e-04 -9.33490507e-03 5.27708838e-03
      7.11104600e-03 -5.67915989e-03 4.12793038e-03 -5.52871614e-04
      -9.67039354e-03 -2.73592491e-03 1.28144324e-02 -1.87597517e-03</_>
    <_>
      5.62192321e-01 -1.20516852e-01 -8.29959586e-02 -1.46682367e-01
      -4.28560078e-02 1.44958869e-01 -8.93110111e-02 -1.35793239e-01
      3.55507806e-02 -1.19977689e-03 -6.16922490e-02 -5.99518456e-02
      1.37110725e-02 -3.33032012e-02 -7.91923158e-05 -3.07622552e-03
      -6.41130493e-04 1.74424369e-02 5.31464033e-02 1.10569578e-02
      1.46555211e-02 -1.00867683e-02 4.58679311e-02 8.73986073e-03
      -2.07708403e-02 -5.26220091e-02 -3.99902053e-02 -2.56900862e-03
      -2.05179416e-02 4.49608453e-02 -1.42065855e-02 -4.51836362e-02
      -3.28361951e-02 3.70223373e-02 1.68638434e-02 2.75563244e-02
      -1.99912954e-03 -1.64209139e-02 -9.43522248e-03 -2.30409391e-02
      -2.58111004e-02 -1.04592720e-04 1.05358204e-02 9.25323926e-03
      -2.04256997e-02 -2.13876162e-02 -1.03070978e-02 -2.48313765e-03
      3.66586493e-03 1.15822861e-02 -1.80133265e-02 2.49354839e-02
      -1.30042554e-05 -4.81725577e-03 -2.37211436e-02 -2.72383261e-03
      -5.03124390e-03 1.04919281e-02 1.20302839e-02 -2.65880506e-02
      1.18019311e-02 5.66107593e-03 -2.17181183e-02 4.26740432e-03
      6.62985770e-03 -2.60303821e-03 2.14414927e-03 5.27396100e-03
      -1.67126693e-02 1.30913733e-02 1.02878185e-02 -1.11410860e-02
      -9.16927960e-03 -1.12242270e-02 8.79351608e-03 -4.82985051e-03
      4.80981776e-03 -1.15467925e-02 -1.88054272e-03 -7.03094807e-03
      1.27101988e-02 -7.52322469e-03 -6.88288733e-03 8.93780589e-03
      -9.78974439e-03 -1.92946736e-02 -2.28023771e-02 9.41177830e-03
      1.07212190e-03 1.07978480e-02 -3.96609306e-03 -6.77801960e-04
      -1.05960043e-02 -5.27030975e-03 2.37401226e-03 5.05531998e-03
      3.44648259e-03 -4.61953832e-03 -4.37117694e-03 5.19852852e-03
      1.18784355e-02 -7.02613872e-03 2.01042276e-03 5.69661753e-03
      -1.99070387e-03 3.67150758e-03 4.90095234e-03 5.33155538e-03
      -1.36430794e-02 -6.14277879e-03 -4.36071801e-04 3.24976863e-04</_>
    <_>
      9.58766032e-05 1.77073464e-01 1.84991375e-01 -7.33890831e-02
      1.02083664e-02 -9.36213508e-02 1.73178054e-02 6.25726432e-02
      3.06171412e-03 -9.41354260e-02 1.79241002e-02 -1.19580187e-01
      -1.46253742e-02 -2.41265278e-02 -5.54505102e-02 4.23368290e-02
      -7.07345502e-03 -4.57613589e-03 2.36035120e-02 3.16235758e-02
      2.48990357e-02 1.02955647e-01 7.42935576e-03 -2.04341952e-02
      -3.57774310e-02 3.54936235e-02 1.37588894e-02 8.25592317e-03
      3.32253799e-02 1.47775107e-03 6.50136638e-03 -1.29190898e-02
      2.06139293e-02 -3.50367627e-03 -2.26446427e-02 -3.85858025e-03
      -1.88728273e-02 7.08298665e-03 5.87450992e-03 5.85462991e-03
      -3.06957327e-02 -3.24106286e-03 -1.55374967e-02 8.07229243e-03
      -1.52546205e-02 1.49136689e-02 2.75199790e-03 2.82655098e-02
      1.01216277e-02 -2.30000038e-02 -2.06412096e-03 8.58852454e-03
      -3.57863046e-02 -1.60870012e-02 1.07452003e-02 -8.07793252e-03
      6.77015353e-03 5.30833902e-04 -5.09158522e-03 -1.47568388e-02
      -5.58391400e-03 -1.56616773e-02 -3.07379733e-03 1.31272255e-02
      -2.01040711e-02 4.35889512e-03 -3.73285869e-03 1.66925392e-03
      -2.46114936e-03 -5.48914447e-03 1.45088118e-02 -1.88101456e-02
      5.76804066e-03 5.40520006e-04 3.51021951e-03 -1.60323363e-02
      1.35561656e-02 -2.64077040e-04 1.46602269e-03 -1.40924398e-02
      6.30057417e-03 2.06037221e-05 2.28856085e-03 -1.36810141e-02
      1.57339890e-02 -4.08581970e-03 9.82389413e-03 -7.43641576e-04
      -2.77049523e-02 5.29918866e-03 1.06476741e-02 -4.35766717e-03
      -4.21742117e-03 7.27256411e-04 -1.12158377e-02 -3.60767683e-03
      8.77494272e-03 -1.39697816e-03 6.61700033e-04 -6.53545139e-03
      1.41892664e-03 5.30170463e-03 4.10323730e-03 -1.46081401e-02
      1.00118853e-03 1.00847976e-02 6.87067350e-03 -9.10435244e-03
      9.46877617e-03 3.75389331e-03 1.80328859e-03 4.62705083e-03</_>
    <_>
      -1.51746511e-01 2.83709690e-02 2.70215094e-01 -1.19989239e-01
      -1.67458117e-01 1.51129246e-01 6.28308654e-02 -7.24647120e-02
      -5.52592333e-04 -4.15734127e-02 3.39634418e-02 -2.70299688e-02
      -2.01712605e-02 -1.77725870e-02 1.34158079e-02 -3.63525888e-03
      2.61775544e-03 7.15880655e-04 1.29369684e-02 -9.58690234e-03
      2.51417123e-02 9.11485497e-03 8.87762476e-03 1.94049738e-02
      1.05146021e-02 1.41303102e-02 1.72080542e-03 4.84522339e-03
      1.83936544e-02 -6.33248768e-04 1.07736734e-03 -1.22520374e-02
      2.15563085e-03 -2.49239360e-03 1.94864795e-02 -2.96382327e-03
      -6.48414623e-03 7.39285117e-03 6.23999303e-03 1.97121873e-03
      -1.47499079e-02 2.07905236e-04 1.85563171e-03 -4.75659827e-03
      3.47257894e-03 8.10275844e-04 6.49929699e-03 -9.90246236e-03
      -7.07120495e-03 1.13493213e-02 -1.03880214e-02 4.80504846e-03
      -3.08673903e-02 9.31504706e-04 1.48899490e-02 -7.82649126e-03
      -2.44849101e-02 2.33425490e-05 1.08515599e-03 -1.10022854e-02
      -4.63990588e-03 -3.82133643e-03 -2.51902523e-03 1.15469832e-03
      9.11291689e-03 -1.60503797e-02 -2.84694764e-03 2.20096484e-03
      1.21955322e-02 1.46722998e-02 -1.36353951e-02 -4.70775133e-03
      -4.84093744e-03 1.06947878e-02 1.03865648e-02 -3.08447401e-03
      -4.66890354e-03 -8.42857268e-03 3.09550902e-03 -2.43567512e-03
      4.84102173e-03 -8.96983594e-03 2.72340910e-03 -1.34125324e-02
      3.13259684e-03 1.71260443e-02 6.02912565e-04 -7.74534419e-04
      -6.25542412e-03 -7.72172539e-03 5.49746258e-03 5.96658792e-03
      -6.32157084e-04 -9.04990174e-03 2.27350974e-03 -4.08484507e-03
      -1.32073776e-03 -1.68301687e-02 -7.68895820e-03 -5.77945262e-03
      7.47869164e-03 4.40842565e-03 2.42812606e-03 3.08656658e-04
      -1.70798006e-03 7.14146940e-04 -8.75914190e-03 5.70242479e-03
      -4.73924866e-03 1.05821714e-02 -2.60553858e-03 8.35890137e-03</_>
    <_>
      5.38759232e-02 -1.04405783e-01 2.66410321e-01 -1.54540733e-01
      -1.30945891e-01 2.08785012e-01 -6.36815950e-02 -1.57978579e-01
      5.80594093e-02 -1.24641117e-02 -2.31929519e-03 -4.19206731e-02
      5.22875413e-02 -5.35347965e-04 1.42289856e-02 -1.24828123e-01
      -5.64703085e-02 -4.69811782e-02 9.27291624e-03 7.71403834e-02
      1.33015305e-01 -3.04867104e-02 1.13509670e-02 -2.54625417e-02
      -5.43656498e-02 5.70759177e-02 -7.83199966e-02 -1.87051930e-02
      2.64504552e-02 7.10921735e-03 -1.78768206e-02 -3.37245725e-02
      -4.34631994e-03 3.18988673e-02 -3.74715403e-02 3.81740816e-02
      6.88002259e-02 -8.75154138e-03 2.39778701e-02 -5.92340939e-02
      8.50102957e-03 1.39217009e-03 2.24054493e-02 -6.89995335e-03
      3.83147188e-02 -1.64494608e-02 1.89354829e-02 1.56896742e-04
      1.90101732e-02 2.88708620e-02 9.97705502e-04 -2.28371359e-02
      2.41116053e-04 2.32543284e-03 9.72444308e-04 -3.45427310e-03
      -1.71524547e-02 -1.51988110e-02 -3.72227072e-03 -6.13220548e-03
      2.24129856e-03 2.18450394e-03 -1.97123531e-02 5.35643194e-03
      -3.57378158e-03 -1.01639759e-02 2.38932930e-02 -1.99722331e-02
      -5.33593260e-03 1.11839566e-02 -2.86907959e-03 -1.08526442e-02
      4.80440166e-03 2.60453881e-03 9.23418626e-03 4.41420591e-03
      8.35694280e-03 1.21713635e-02 6.72776159e-03 1.49820594e-03
      -8.18997715e-03 5.03572077e-03 1.63263141e-03 5.36357192e-03
      -6.42335275e-03 -2.85001588e-03 2.10782280e-04 -1.53494347e-03
      -7.51095079e-03 -7.20138056e-03 -5.46789588e-03 -1.46495493e-03
      -1.68539793e-03 5.82997082e-03 -5.97546250e-03 3.53470421e-03
      -8.57510255e-04 -7.89724349e-04 -6.25671493e-03 2.05974188e-03
      1.03331963e-03 7.62045267e-04 -3.98941245e-03 7.27747474e-03
      -1.65491703e-03 1.36723707e-03 1.19667013e-04 -1.35548518e-03
      -7.71586597e-03 -1.37100753e-03 8.39763321e-03 -4.12615994e-03</_>
    <_>
      2.34434023e-01 2.17763949e-02 1.99107960e-01 -2.18306676e-01
      -2.75715113e-01 2.47769669e-01 1.79104079e-02 -1.14160046e-01
      8.00372064e-02 -1.16051417e-02 4.30029705e-02 -1.16025746e-01
      2.48731542e-02 -3.36345993e-02 1.67732628e-03 -2.82934085e-02
      -1.44089013e-02 4.41885293e-02 -2.30853595e-02 3.72928195e-02
      3.58236097e-02 -1.65773258e-02 2.75987554e-02 -5.70003502e-03
      5.26315086e-02 6.13579713e-02 -1.26797855e-02 -5.00128567e-02
      -3.27054933e-02 -3.08334138e-02 -2.82979161e-02 -2.09804028e-02
      2.27653235e-02 2.33960282e-02 -2.09890655e-03 -2.38329675e-02
      5.17877564e-02 -1.07292263e-02 -1.44565329e-02 -1.50100626e-02
      -1.90349761e-02 6.87523372e-03 4.45146317e-04 -1.80819985e-02
      2.46441923e-02 7.20938342e-03 6.71561621e-03 3.25978361e-03
      -5.40264882e-03 2.51761004e-02 -4.92862891e-03 1.56964101e-02
      -3.60928662e-03 -3.71791655e-03 -6.57769991e-03 -2.37831511e-02
      2.96066445e-03 -1.63347693e-03 2.27391049e-02 -3.72321680e-02
      -5.79428975e-04 -2.61486578e-03 -1.82959549e-02 -2.70726858e-03
      -1.89030841e-02 -6.72254758e-03 -6.87986566e-03 2.66603543e-03
      1.19896997e-02 1.61933023e-02 9.47939884e-03 -2.05446500e-02
      -8.08218401e-03 9.80491005e-03 -1.92369185e-02 -1.14650396e-03
      -5.83180040e-03 -1.02896877e-02 2.97133811e-03 6.33656280e-03
      -1.53600809e-03 -7.12525612e-03 1.49070621e-02 -1.98407375e-04
      -2.91072251e-03 6.35265489e-04 -3.87248001e-03 -7.09052011e-03
      1.27067568e-03 2.91965832e-03 1.69638055e-03 -4.66327462e-03
      -9.58626904e-03 -2.33239098e-03 -7.49738747e-03 5.59331093e-04
      3.35397944e-03 6.25244481e-03 -4.43924597e-04 -2.17097555e-03
      2.37716609e-04 -7.09337695e-03 2.27903831e-03 1.27743836e-03
      2.92791636e-03 -2.04742001e-03 -2.50017177e-03 -9.87659022e-03
      -1.04287197e-03 -1.02022681e-02 -1.93780835e-03 1.76084670e-03</_>
    <_>
      -3.48241702e-02 -3.20225470e-02 2.52361268e-01 8.25194046e-02
      -9.64071080e-02 -3.92125314e-03 -9.73158795e-03 -2.32782885e-02
      -1.97149217e-02 -2.84629259e-02 -1.35673815e-03 2.58770213e-02
      3.20143700e-02 9.68402531e-03 -6.32027909e-03 -6.21267408e-02
      1.96386594e-03 2.15122495e-02 -3.51633541e-02 -3.44137177e-02
      -6.24720566e-02 -2.69533694e-02 -2.11068299e-02 2.63909213e-02
      -1.11837592e-02 1.57352574e-02 -1.83838550e-02 7.76634645e-03
      1.55101102e-02 1.07366871e-02 1.75017398e-03 2.30424404e-02
      1.33055281e-02 2.08429192e-05 -5.13729407e-03 4.31031771e-02
      -2.54149176e-02 1.49986129e-02 -6.80979714e-03 -7.52609083e-03
      -8.69318668e-04 1.24200359e-02 1.03771016e-02 -1.10721989e-02
      1.90201905e-02 -8.49878415e-03 -6.45354111e-03 5.36759198e-03
      -1.52247772e-02 1.89836808e-02 3.08571104e-02 -6.42201863e-03
      -9.76486690e-03 -4.31232946e-03 -8.45496834e-04 -1.13883028e-02
      3.43634933e-03 -3.41799902e-03 -2.10254150e-03 -5.80886472e-03
      4.42556851e-03 -6.95952913e-03 5.00391377e-03 -1.20648788e-03
      4.45054891e-03 1.26236537e-02 -2.99805286e-03 2.11556457e-04
      4.17484436e-03 -2.60945200e-03 9.64756031e-03 -9.63512249e-03
      6.25386322e-03 5.63626830e-03 1.65642137e-04 -1.89705938e-02
      -4.89579746e-03 8.17622058e-03 -1.05242403e-02 -8.26975890e-03
      5.40454779e-03 -9.50157456e-03 1.28128352e-02 -1.55515866e-02
      -4.27486515e-03 -5.57002611e-03 1.88108461e-05 1.06823733e-02
      3.24550783e-03 9.51790775e-04 3.91980121e-03 -6.66647824e-03
      -6.64966553e-03 4.47594374e-03 -4.65183315e-04 2.97339330e-03
      4.11468232e-03 -1.04553588e-02 9.59037431e-03 2.68478156e-03
      -3.21587338e-03 -7.44357007e-04 5.59642492e-03 1.01503520e-03
      4.39662999e-03 -2.12637195e-03 1.13322027e-03 6.05834881e-04
      -4.51563438e-03 -7.85570499e-03 -5.40895015e-03 -3.93395592e-03</_>
    <_>
      -4.62662190e-01 1.67616867e-02 -1.50738403e-01 -6.21565729e-02
      2.39574537e-02 8.66417401e-03 7.01576099e-02 2.51083784e-02
      -1.26153558e-01 -6.14000484e-02 1.53940450e-03 -5.94581924e-02
      2.98613943e-02 6.70083286e-03 1.39560038e-02 -4.02246714e-02
      -9.14909411e-03 3.81572582e-02 4.22412679e-02 6.26144232e-03
      -3.71294655e-02 -5.11053391e-03 -2.18237638e-02 -2.73955576e-02
      2.64630765e-02 1.47075020e-02 -1.66259166e-02 2.50113513e-02
      1.57948080e-02 -2.45924760e-03 -3.26423459e-02 1.41815217e-02
      1.50051937e-02 -4.24150145e-03 -1.27619235e-02 -4.58253967e-03
      1.12945111e-02 -3.25908512e-02 -1.15020173e-02 3.23297232e-02
      -1.37865907e-02 1.13133183e-02 4.23702411e-02 -7.05324998e-03
      3.46232727e-02 -2.49161758e-03 -4.38060425e-03 -1.67436954e-02
      -3.78178991e-02 -7.75853219e-03 1.23591060e-02 1.59333404e-02
      -1.09362835e-02 4.65459414e-02 1.14527848e-02 3.23006548e-02
      -3.82870845e-02 -4.46093222e-03 2.82895239e-03 1.26139435e-03
      -9.41389520e-03 -8.46252404e-03 7.05193076e-03 1.66672636e-02
      2.48953421e-03 9.67453886e-03 3.27107101e-03 -3.24041164e-03
      8.47249944e-03 9.28630773e-03 2.01043556e-03 -6.06598007e-03
      1.53866280e-02 9.32215061e-03 -1.52401784e-02 -1.14957867e-02
      1.00294538e-02 -1.98153555e-02 -2.29651891e-02 -4.16805688e-03
      -7.28608051e-04 8.92863516e-03 -8.26227292e-03 3.81816854e-03
      1.41615877e-02 1.44626023e-02 -7.18169706e-03 1.39429315e-03
      -4.79366397e-03 1.42529951e-02 2.15411615e-02 5.44798002e-03
      -3.02803586e-03 -6.65595697e-04 1.20902127e-02 7.19401054e-03
      1.01582417e-02 -1.77288931e-02 8.26511532e-03 1.33168343e-02
      1.95216127e-02 3.59911099e-03 8.21373798e-03 5.09541342e-03
      1.70097928e-02 7.51909567e-03 -1.04159153e-04 -2.62662559e-03
      9.66820307e-03 -1.02204280e-02 6.96449215e-03 6.49293652e-03</_>
    <_>
      2.36678377e-01 -7.28781745e-02 8.74090567e-02 1.39310732e-01
      -3.40427868e-02 2.72648856e-02 -8.80547762e-02 -6.47956729e-02
      -4.44221869e-02 2.95916796e-02 3.85292843e-02 3.65055464e-02
      4.59836191e-03 2.79115010e-02 -3.43443602e-02 -3.12124807e-02
      -3.80272530e-02 -2.22190134e-02 -2.77367001e-03 2.35335343e-02
      4.19521108e-02 -1.56845674e-02 3.49722803e-02 4.70000058e-02
      -3.87038030e-02 5.71053699e-02 1.15712965e-02 -7.33779324e-03
      -4.12196293e-02 2.87795737e-02 2.34903358e-02 2.30040122e-03
      2.81379987e-02 -3.57892849e-02 -3.21631245e-02 -8.10027216e-03
      6.01465674e-03 -1.03599746e-02 1.04497792e-02 3.74085247e-03
      4.71772905e-03 2.28625201e-02 2.31183935e-02 -3.95387039e-02
      -9.45332926e-03 -2.08661016e-02 2.16816086e-02 1.54540464e-02
      -1.57991381e-04 2.94409562e-02 1.00381486e-02 3.92043684e-03
      -4.01242170e-03 -2.89068930e-03 4.61757556e-03 4.26723331e-04
      -1.13136321e-02 -1.05742058e-02 5.03212959e-03 4.05683788e-03
      2.13758387e-02 -6.86506322e-03 1.08371591e-02 8.09223857e-03
      -5.61074447e-03 -1.44043788e-02 8.52615014e-03 -5.17037045e-03
      -3.24616791e-03 1.84793363e-03 -1.56121585e-03 3.19240280e-05
      -1.57040991e-02 6.78909197e-03 -6.00534864e-03 -1.34973926e-02
      -9.17126075e-04 -1.21649483e-03 -4.43363329e-03 1.01779737e-02
      -4.85696364e-03 2.68386886e-03 1.09359426e-02 1.05587905e-02
      -4.31539165e-03 -8.65157787e-03 -1.38591614e-03 7.61970831e-03
      -7.88392790e-04 3.55320238e-03 -2.77277012e-03 -2.64473679e-03
      -6.76754164e-04 -4.46341612e-04 -3.51019064e-03 -7.39086745e-03
      -8.15751962e-04 -6.99371658e-03 4.11858829e-03 -4.65525920e-03
      4.68042260e-03 3.00508982e-04 5.12474682e-03 -2.63151480e-03
      -5.19598788e-03 4.12465306e-03 5.66554954e-03 -3.18159512e-03
      -7.51039386e-03 -9.94015206e-03 -5.44319255e-03 -1.60278790e-02</_>
    <_>
      3.61185998e-01 1.04267776e-01 1.35321826e-01 1.13210805e-01
      -6.00343198e-02 -7.01774880e-02 1.69039629e-02 3.60992402e-02
      -7.00971764e-03 -1.15408422e-03 -7.23165646e-03 1.29198600e-02
      1.09652225e-02 -1.36079043e-02 1.31467870e-03 -1.93141382e-02
      -1.83002409e-02 2.30442006e-02 -3.80535536e-02 -3.62283662e-02
      -5.57745583e-02 -1.48261571e-03 -2.47696955e-02 2.37605441e-02
      1.10937525e-02 1.18543638e-03 -2.02667154e-02 2.08312599e-03
      2.22499333e-02 6.87132170e-03 3.87494732e-03 2.11067479e-02
      -1.17507400e-02 -7.87173864e-03 1.44379986e-02 1.22048240e-03
      3.60018574e-02 3.54850339e-03 1.57748647e-02 -1.10165616e-02
      -1.79990660e-02 -2.16967445e-02 4.74862242e-03 -1.71489790e-02
      7.52586115e-04 2.04873011e-02 4.19901946e-04 2.32843403e-02
      -1.94095504e-02 1.37829436e-02 1.92518241e-03 9.84129310e-03
      -2.61307675e-02 -1.61164999e-02 1.92213319e-02 1.55256158e-02
      -2.38427031e-03 -3.05360816e-02 -2.51239128e-02 -3.14175879e-04
      1.30195636e-02 2.92961113e-02 -1.63370967e-02 -3.34360776e-03
      2.12758183e-02 1.70544814e-02 -3.65011883e-03 -1.32112522e-02
      -4.89337556e-03 -2.14541703e-02 -6.54822029e-03 -3.73030966e-03
      5.70729375e-04 1.23141608e-05 2.00778618e-03 -4.49133245e-03
      1.17124077e-02 -2.33375910e-03 -1.95871051e-02 -8.96506757e-03
      -8.24180525e-03 -4.63758688e-03 4.33145883e-03 -8.14670976e-03
      1.26430495e-02 -2.20499467e-02 -1.97140989e-03 -6.22062990e-03
      -1.59917735e-02 -7.03327823e-03 8.88105948e-03 6.77493541e-03
      -1.07263736e-02 5.07850852e-03 -5.38582262e-03 1.07607869e-02
      -6.65203575e-03 -6.31265901e-03 1.94646828e-02 3.74386995e-03
      7.12334644e-03 -1.16996653e-02 4.09308122e-04 -7.84017239e-03
      2.57268753e-02 -1.71429958e-04 4.02399339e-03 8.40683095e-03
      5.75482380e-03 -4.85593220e-03 -1.34915970e-02 -1.62101537e-02</_>
    <_>
      1.76376939e-01 4.78485197e-01 -5.32189049e-02 7.06993118e-02
      2.43362840e-02 -2.96165179e-02 -1.08934328e-01 -7.86398053e-02
      1.11276634e-01 1.90611724e-02 2.90992111e-02 1.04549453e-02
      -4.35573421e-02 -1.67976250e-03 1.17539810e-02 2.49939878e-02
      -7.14614093e-02 3.23214754e-02 6.38110051e-03 -4.35213894e-02
      -6.60383105e-02 -2.78761648e-02 -8.30999855e-03 5.94107769e-02
      -6.91507831e-02 1.00372978e-01 5.14741279e-02 6.32077781e-03
      9.62816738e-03 -2.55283359e-02 4.69336249e-02 -3.63374432e-03
      -1.07910885e-02 2.07409319e-02 -3.26814167e-02 2.78605409e-02
      3.11239110e-03 -3.22979912e-02 1.99284535e-02 -2.76612397e-02
      -3.15927379e-02 -3.20347138e-02 2.73552500e-02 -3.81763256e-03
      -1.51804443e-02 9.39667318e-03 2.15781163e-02 -6.44160295e-03
      -4.84232903e-02 2.99627706e-03 -5.51290065e-03 1.52222449e-02
      -1.64897833e-02 1.16666686e-02 -2.07907576e-02 1.93473063e-02
      -5.77306608e-03 -2.69042458e-02 1.48452353e-02 1.43615287e-02
      1.95876509e-02 1.04784798e-02 -2.35764589e-03 1.61395650e-02
      -1.69539519e-04 7.54900835e-03 1.77518353e-02 -8.50204658e-03
      -6.78199949e-03 6.73799450e-03 -1.46703431e-02 8.18797760e-03
      -1.41905770e-02 4.34735091e-03 -2.26715137e-03 -4.11293842e-03
      1.12060839e-02 -1.57465711e-02 2.20948551e-03 -1.17844874e-02
      -1.71488076e-02 -3.00199771e-03 -6.32844691e-04 -2.65237633e-02
      1.63849033e-02 1.42182186e-02 1.92316864e-02 -1.24817039e-03
      1.68336311e-03 -6.25010161e-03 8.67433101e-03 4.74642031e-03
      1.22423694e-02 1.28108580e-02 1.65616523e-03 6.25435170e-03
      -6.88604219e-03 8.11833516e-03 2.44329101e-03 1.21158483e-02
      6.18037255e-03 4.27320227e-03 -5.93075575e-03 8.47648177e-03
      -8.42997618e-03 -5.33670885e-04 -2.15391126e-02 -1.46688847e-02
      -3.44377407e-03 -3.57345049e-03 5.47038035e-05 3.33972136e-03</_>
    <_>
      1.21541694e-01 -5.19104041e-02 1.39694795e-01 -9.95570645e-02
      6.85656443e-02 2.06489027e-01 -2.05090605e-02 -1.20132700e-01
      1.19103696e-02 9.04621929e-03 -1.25016728e-02 -5.78292124e-02
      2.17853766e-02 -2.44284980e-02 -1.10738864e-02 1.41329123e-02
      1.06283668e-02 -1.73249263e-02 -4.21338007e-02 5.42498054e-03
      7.16894120e-02 1.97045668e-03 3.69796678e-02 3.08386143e-03
      1.17501644e-02 -4.24948521e-03 -1.16343005e-02 -1.76224560e-02
      -9.06034838e-04 6.32110704e-03 -2.34174617e-02 4.55721561e-03
      2.17784084e-02 2.72191372e-02 -1.22536654e-02 -7.23507628e-03
      1.95024833e-02 -4.57016705e-03 -4.41903248e-03 -7.69143284e-04
      -1.35571472e-02 5.69205079e-03 -8.02401453e-03 6.09013485e-03
      -2.21225172e-02 2.60426644e-02 9.06935893e-03 -4.53713816e-03
      -1.90809369e-02 -2.70790770e-03 2.13347003e-02 1.28247077e-02
      -8.96459538e-03 -2.22718786e-03 -2.72291433e-02 -1.38125960e-02
      -1.05728842e-02 1.74305625e-02 -7.37844734e-03 4.37227823e-03
      1.05793169e-02 9.28412657e-03 7.21455645e-03 8.81103333e-03
      -1.07982568e-02 2.93648848e-03 2.55457754e-03 -2.16271263e-03
      -1.52303616e-03 9.84190730e-04 1.99774443e-03 -9.57168452e-03
      7.26286462e-03 -8.17288121e-04 -2.21105671e-04 6.83644321e-03
      -2.21657543e-03 -4.67748847e-03 2.50763702e-03 -1.64514687e-02
      -1.20136689e-03 -9.97195486e-04 -8.20878521e-03 -2.36203731e-03
      -3.53376078e-03 2.72371643e-03 1.53950969e-04 -6.32373802e-03
      -5.82095748e-03 3.52037651e-03 1.59628328e-03 -1.65696081e-03
      -6.28309278e-03 -6.46630209e-03 1.52010843e-03 1.53013645e-02
      5.08080889e-03 1.12837944e-02 -6.38614921e-03 1.01752044e-03
      -3.43742268e-03 -2.13210261e-03 -5.93113294e-03 6.69733342e-03
      -3.36710177e-03 -9.94693255e-04 -1.20495714e-03 6.72688056e-03
      1.00262221e-02 -1.00147231e-02 3.13505472e-04 8.01865943e-03</_>
    <_>
      1.35626599e-01 -2.58096308e-02 -5.97472303e-02 -1.24974153e-03
      -1.07737608e-01 1.88710883e-01 -6.33087903e-02 -1.71635821e-01
      1.20955454e-02 -8.47435277e-03 5.51965982e-02 -9.12688300e-03
      -3.38230957e-03 -4.40194942e-02 -4.42909375e-02 -8.96771846e-04
      8.03435314e-03 6.56236857e-02 6.75491989e-02 -1.37701407e-02
      -1.22371949e-02 -2.51325946e-02 3.34957056e-02 3.85313062e-03
      4.29867879e-02 1.26548195e-02 1.33649474e-02 -1.25742685e-02
      -6.67859195e-03 5.92176877e-02 -1.53413275e-02 4.28869249e-03
      -1.06499519e-03 1.52598005e-02 -5.11795981e-03 -2.20676512e-02
      3.28870676e-03 -2.84392713e-03 2.80712824e-03 -7.92198628e-03
      -1.66762173e-02 4.62010736e-04 9.44475830e-03 5.56681165e-03
      1.34560373e-02 2.46164799e-02 3.63746767e-05 -5.48356492e-03
      5.27766766e-03 -9.10937693e-03 1.24740321e-02 1.50677534e-02
      -2.12542769e-02 2.32521025e-03 -1.74078960e-02 -6.79904828e-03
      -1.08861374e-02 -2.55171843e-02 3.34962346e-02 -4.50373394e-03
      -1.30860228e-02 -7.64401117e-03 -8.44365545e-03 -3.07633029e-03
      -1.54123856e-02 -1.09035540e-02 -6.10405300e-03 -5.13439113e-03
      -1.72394887e-02 2.52181068e-02 -6.01945538e-03 -3.49490233e-02
      -6.73144415e-04 -2.24118959e-02 -1.00418637e-02 -2.97513930e-03
      -2.29258817e-02 4.05696919e-03 2.44229212e-02 -2.71440065e-03
      5.90994908e-03 5.47734043e-03 1.33010210e-03 -2.25392519e-03
      -8.03010631e-03 -6.80798013e-03 -9.50726774e-03 1.44572118e-02
      2.82763317e-03 1.01911346e-03 -1.16739199e-02 -6.41543244e-04
      -1.35541745e-02 2.82385224e-03 -6.69586798e-03 5.08649088e-03
      -4.49217996e-03 2.13525980e-03 -1.80748012e-02 1.20208983e-03
      1.39082083e-04 -3.46944761e-03 1.20296271e-03 5.95301506e-04
      9.85523034e-03 -7.44775590e-03 -6.24644896e-03 -1.31984968e-02
      -6.05486427e-03 -6.83790538e-03 -6.04631286e-03 -3.48348403e-03</_>
    <_>
      1.86352775e-01 -8.93248320e-02 -9.43342373e-02 -1.56522498e-01
      -3.56201343e-02 2.74406284e-01 -5.04206121e-02 -7.01993108e-02
      4.52595875e-02 2.86049806e-02 -8.69768932e-02 -8.44859406e-02
      3.59913036e-02 -3.74600962e-02 -5.45222200e-02 4.83026146e-04
      -3.22996937e-02 -1.41524961e-02 -1.99166164e-02 -3.19037028e-02
      -3.30413412e-03 -9.79034603e-03 7.31584653e-02 -3.33372280e-02
      -5.51385432e-02 -2.13072319e-02 1.71338711e-02 -2.43667122e-02
      3.35358828e-02 -1.39338644e-02 -2.74954527e-03 6.42092805e-03
      1.97561141e-02 3.49113299e-03 -1.08026648e-02 -4.22046706e-02
      1.10365069e-02 -3.47768096e-03 -1.08398655e-02 -3.05307773e-03
      -7.08495406e-03 -5.26545104e-03 2.70020198e-02 2.74955016e-03
      -5.41144423e-03 6.42382260e-03 -2.08818279e-02 1.55057972e-02
      -1.95784681e-02 1.62998401e-02 -1.76513325e-02 8.91931877e-02
      7.99813494e-03 -4.95975837e-03 -2.42861062e-02 -1.66233163e-02
      -2.64813611e-03 3.49422768e-02 3.97235435e-03 1.17161172e-03
      1.49249751e-02 -1.06840516e-02 -2.79624783e-03 -1.14197508e-02
      2.09820718e-02 4.55193222e-03 -7.79136131e-03 3.08449008e-02
      -2.62051797e-03 -1.80280220e-03 -5.91253396e-03 -7.49617175e-04
      1.33262910e-02 1.19959209e-02 -2.79082563e-02 1.54984631e-02
      -5.76489698e-03 -2.20159837e-03 2.44999002e-03 9.34339501e-03
      -2.11651344e-03 -1.81675013e-02 -5.98095451e-03 8.43348727e-03
      -9.70892550e-04 -5.55756781e-03 -1.40920877e-02 -1.13433078e-02
      2.29465841e-05 8.61139968e-03 3.73294763e-03 3.15274869e-04
      -2.37912089e-02 -1.56239532e-02 4.82290564e-03 -7.75803253e-03
      -4.18490870e-03 4.63649072e-03 -6.08483050e-03 5.15564159e-03
      1.18796024e-02 -5.26673719e-03 1.00261988e-02 -5.43626724e-03
      -4.86283982e-03 3.08972364e-03 -4.32007946e-03 -2.92699988e-04
      3.01339501e-03 -1.72217544e-02 1.83102756e-03 -1.49143944e-02</_>
    <_>
      -4.79523450e-01 -3.77905592e-02 -1.20011598e-01 -1.25212476e-01
      7.61080012e-02 8.29975232e-02 -9.74031910e-02 5.50506078e-02
      -4.28184643e-02 -1.68603007e-02 -1.59825440e-02 -4.59694937e-02
      3.27566527e-02 2.61605978e-02 1.86993349e-02 3.90696898e-02
      -3.58407982e-02 -2.78321244e-02 -4.14778590e-02 1.72358435e-02
      1.16416160e-02 5.11863157e-02 -3.54980677e-02 1.59724820e-02
      1.01748640e-02 -1.55138271e-02 3.75551619e-02 5.21962205e-03
      2.58481945e-03 -3.44078382e-03 -1.68774147e-02 -1.13827307e-02
      1.50853563e-02 -1.06174452e-02 -1.34622604e-02 -4.39122356e-02
      -4.45725620e-02 2.18488872e-02 6.24181330e-03 -6.17488613e-03
      -2.05440670e-02 -1.21810827e-02 -5.16470615e-03 5.71480207e-03
      -7.08854571e-03 1.93282086e-02 1.90229323e-02 -2.52411584e-03
      3.31557542e-02 1.48421647e-02 -3.60679999e-02 -2.09400021e-02
      1.02011198e-02 -6.18329458e-03 -1.62461475e-02 2.21771710e-02
      -9.16587282e-03 -1.91274635e-03 -1.11195790e-04 -2.31768144e-03
      -1.69453658e-02 -2.08539348e-02 -1.02737043e-02 9.47348773e-03
      -2.17694230e-02 2.79411692e-02 -7.75390165e-03 1.28942737e-02
      8.71670060e-03 1.92524921e-02 1.65983550e-02 2.61567514e-02
      -1.66117772e-02 -9.47252288e-03 -5.69666363e-03 -8.01065005e-03
      2.12732367e-02 3.29038850e-03 -2.12369091e-03 -1.47706512e-02
      1.32502662e-02 7.30373710e-03 -1.53901026e-04 -2.26213899e-03
      1.83463134e-02 -8.52931384e-03 -1.61386952e-02 1.03617040e-02
      4.42605279e-03 -5.53423911e-03 5.01345051e-03 -1.27985161e-02
      -3.39184399e-03 3.43170390e-03 4.61481884e-03 9.84514039e-03
      -1.06257461e-02 -1.15305558e-02 -8.01720843e-03 -4.48902184e-03
      8.10504984e-03 -1.39764650e-02 4.57777904e-04 1.78854878e-03
      -1.10555405e-03 -7.56931026e-04 -1.17538441e-02 8.63455795e-03
      2.19051423e-03 -3.83347552e-03 -5.72896050e-03 1.00690210e-02</_>
    <_>
      -5.00204623e-01 -1.47941843e-01 -1.00749202e-01 -8.22601691e-02
      4.24156524e-02 5.76967634e-02 -5.49733527e-02 1.01832569e-01
      2.16904227e-02 2.89938092e-01 9.44315866e-02 1.56574193e-02
      -3.05702575e-02 -1.68633498e-02 7.30315298e-02 -7.89810717e-02
      2.71607898e-02 -5.90778627e-02 -4.18320857e-02 -3.27265039e-02
      1.05549721e-02 5.06593361e-02 5.44611663e-02 -2.00451575e-02
      -7.11658373e-02 5.36971912e-03 -2.23283507e-02 3.77125330e-02
      3.55426110e-02 1.14659276e-02 1.57708451e-02 -4.49801907e-02
      -1.98688824e-02 9.75265447e-03 3.73575389e-02 -2.30671391e-02
      -6.05599256e-03 -1.07018952e-03 -5.63205918e-03 2.86941472e-02
      6.95264339e-02 1.30410353e-02 -3.48402164e-03 -4.85430658e-02
      -7.26212608e-03 8.67828820e-03 -1.85472108e-02 -1.62683688e-02
      2.42238883e-02 2.77515198e-03 -3.60609367e-02 2.82878964e-03
      3.51340100e-02 -1.99723952e-02 -1.41979260e-02 1.68721024e-02
      -3.54430987e-03 -9.75524914e-03 4.45806608e-02 7.02037767e-04
      2.48536896e-02 3.33181047e-03 4.23535295e-02 8.84176418e-03
      2.55846023e-03 6.90606283e-03 -1.06200716e-02 -4.57674591e-03
      3.42336087e-03 7.42205000e-03 6.65236311e-03 1.50439190e-02
      -1.08713433e-02 -3.79930506e-03 -1.50010139e-02 -4.14845673e-03
      -1.10999765e-02 2.40606931e-03 9.13694128e-03 -4.83805640e-03
      -1.67067461e-02 2.03910675e-02 2.47486681e-03 1.56329572e-02
      -9.17059742e-03 2.61392184e-02 -3.09944190e-02 -1.95449609e-02
      -8.01337417e-03 2.86053848e-02 9.22937819e-04 2.39127092e-02
      1.46887964e-03 1.09307200e-03 1.97569164e-03 2.68081925e-03
      7.09390687e-03 -1.41509138e-02 -4.40918794e-03 1.14243291e-02
      8.93616024e-03 2.73387507e-02 9.43708699e-04 4.45687398e-03
      7.01831980e-03 -3.79688921e-03 3.19076376e-03 -2.88434215e-02
      1.50424158e-02 -2.93551153e-03 -2.75615556e-03 -5.79496613e-03</_>
    <_>
      -4.17169660e-01 -9.33954343e-02 1.09912924e-01 1.14970496e-02
      -2.83301212e-02 -2.66724788e-02 -8.17084743e-04 2.17997357e-02
      6.07877262e-02 3.44113111e-02 3.27241570e-02 5.49815707e-02
      1.79011514e-03 -4.31162268e-02 4.29690480e-02 -3.41354660e-03
      3.09368167e-02 5.07222190e-02 -2.54316311e-02 -1.42815160e-02
      -1.25753824e-02 -1.07579818e-02 -1.53185874e-02 -7.34432321e-03
      -1.02051403e-02 -3.04314811e-02 -9.06019472e-03 -1.62563827e-02
      -3.02145816e-02 1.12757999e-02 -1.65795870e-02 -1.64246932e-02
      1.53551223e-02 -3.02233733e-03 8.29265732e-03 3.49443359e-03
      9.85945109e-03 1.00117945e-03 -5.81265800e-03 -1.20885577e-02
      -2.09806897e-02 -2.97651393e-03 -1.30882266e-03 1.17650656e-02
      1.57976605e-03 -2.33472437e-02 4.12908150e-03 1.46252792e-02
      9.89298709e-03 1.84386335e-02 4.52873437e-03 3.31361429e-03
      2.01709680e-02 -8.82752985e-03 7.61743030e-03 4.61255107e-03
      -9.85721033e-03 -2.47513950e-02 -3.78930330e-04 2.14164574e-02
      -1.72029361e-02 1.79353706e-03 9.22660169e-04 2.39521116e-02
      -7.35133607e-03 3.85980075e-03 -2.22496558e-02 9.49527975e-03
      -2.99140182e-03 9.62091028e-04 1.08623495e-02 -1.57157313e-02
      -1.63621809e-02 1.38231497e-02 -6.98045455e-03 3.16048265e-02
      2.30045378e-04 -6.89997943e-03 -8.62649269e-03 3.53219965e-03
      4.54408473e-05 1.28061268e-02 -9.92896967e-03 -7.17196148e-03
      1.77239422e-02 -1.38625281e-03 -7.54207605e-03 1.18592419e-02
      8.71068332e-03 -1.86127089e-02 6.66368194e-03 -1.33246034e-02
      8.35202448e-03 6.84166607e-03 3.62864020e-03 5.16550848e-03
      1.26355560e-02 2.14156210e-02 8.36147275e-03 5.95277827e-03
      1.79762188e-02 -4.65934369e-04 9.16982463e-05 -1.51882787e-05
      -1.21046966e-02 -1.51941567e-04 4.09788126e-03 -3.01679922e-03
      -8.24364368e-03 -8.62649642e-03 -4.80660517e-03 2.15435512e-02</_>
    <_>
      -5.46561480e-02 -1.12659514e-01 1.45376042e-01 -6.33311039e-03
      2.95655340e-01 7.07516596e-02 -1.17103327e-02 -1.12084560e-01
      1.38609717e-02 2.07030103e-02 2.67677475e-03 1.85030047e-02
      -4.91384743e-03 -5.10856770e-02 -5.96653745e-02 6.94318935e-02
      -8.10043979e-03 -2.30846405e-02 1.66454688e-02 4.43634111e-03
      -2.68340707e-02 -3.64069268e-02 1.28007727e-02 -3.90877016e-02
      7.69277057e-03 2.25857254e-02 4.81293350e-03 2.19835248e-02
      -4.32044528e-02 -1.86932227e-03 3.81440483e-03 1.28683597e-02
      2.01489758e-02 -3.02073546e-02 -9.88153927e-03 -1.75602287e-02
      -2.30959039e-02 -1.91907007e-02 -5.61480410e-03 9.42919496e-03
      3.25754061e-02 -3.25172581e-02 5.55772521e-03 6.66672015e-04
      -9.31415241e-03 6.00120611e-03 1.13259945e-02 1.63459091e-03
      -1.52325574e-02 -2.36824974e-02 2.74395687e-03 -1.29280053e-02
      -2.08528694e-02 -1.60359293e-02 -2.28975504e-03 1.40992608e-02
      1.19300475e-02 -3.33167389e-02 -1.18741440e-02 7.14645162e-03
      1.49643384e-02 3.55642987e-03 -1.75377596e-02 6.10240223e-03
      6.61580707e-04 -2.04647309e-03 7.73429754e-04 -2.46065273e-03
      5.30101266e-03 3.21443367e-04 6.39034947e-03 3.45502538e-03
      -5.63991116e-03 -5.50594879e-03 -5.94454678e-03 8.77763890e-03
      -1.86502538e-03 -2.11376371e-03 -1.82560422e-02 8.87490169e-04
      -6.36195252e-03 -7.72678852e-03 8.70070420e-03 5.11929253e-03
      9.31344554e-03 -1.44453836e-03 -2.57315952e-03 2.11124308e-02
      -5.75887179e-03 -1.98192848e-03 1.87226827e-03 -1.48557443e-02
      -7.47590140e-03 -5.52244345e-03 -8.62393621e-03 -7.03718979e-03
      -1.20406912e-03 -3.59938038e-03 2.80978461e-03 2.61375448e-03
      -4.80512390e-03 -3.35081684e-04 1.67047896e-03 -5.17181866e-03
      2.60156044e-03 1.64038241e-02 1.13816196e-02 -1.63399912e-02
      9.58109449e-04 2.27787439e-03 -2.20529560e-04 -1.12254387e-02</_>
    <_>
      1.27323821e-01 -4.26896960e-02 4.88208681e-02 8.47871900e-02
      7.79347569e-02 7.23946393e-02 -7.74120633e-03 -2.24526878e-02
      -1.08504761e-02 -1.00766448e-02 8.10417831e-02 3.27995196e-02
      3.78499413e-03 1.73148084e-02 -6.42265305e-02 -2.09634826e-02
      -4.11662236e-02 2.07402417e-03 8.50792415e-03 1.58591010e-02
      -2.32673576e-03 -3.00854240e-02 2.12672749e-03 3.60247083e-02
      -3.48803662e-02 1.03923576e-02 2.55913027e-02 -1.16534149e-02
      -8.70964210e-03 3.25989500e-02 2.21813675e-02 1.45570114e-02
      -6.14518998e-03 -9.29601863e-03 7.88843259e-03 -1.68736465e-02
      -1.82399396e-02 1.31629240e-02 2.25736629e-02 -2.71541881e-03
      2.45769136e-02 -3.13938782e-02 2.04925649e-02 -8.40687286e-03
      -9.04851651e-04 -1.50483297e-02 1.37780504e-02 -9.60768573e-03
      2.01885439e-02 7.79564213e-03 -2.74912687e-03 1.27597712e-02
      -6.16142526e-03 1.13077918e-02 -1.70473568e-02 1.11060552e-02
      9.55013745e-03 -1.35209234e-02 -1.18474532e-02 2.15074848e-04
      -3.32701486e-03 1.46963494e-03 8.47501494e-03 -2.52361782e-03
      -5.19554224e-03 5.92682278e-04 -2.65937764e-03 1.14014260e-02
      9.80035402e-03 1.99540239e-03 1.16788018e-02 4.49343678e-03
      2.15180404e-03 -6.23430079e-03 -7.97826704e-03 6.25670701e-03
      6.06148737e-03 1.71760861e-02 -8.06395337e-03 -3.35725117e-03
      4.93632024e-03 2.81400658e-04 3.77300405e-03 1.38912844e-02
      -5.25560789e-03 1.08177518e-03 4.47979430e-03 1.04100804e-03
      7.44384539e-04 -8.15455429e-03 1.21687353e-02 -1.39435688e-02
      -4.88428678e-03 1.52422325e-03 7.83887133e-03 -4.86660982e-03
      -1.52956741e-03 6.01991406e-03 2.95562670e-03 -6.08327147e-03
      4.18944750e-03 -3.92390531e-04 8.91294796e-03 9.80928540e-03
      6.76836167e-03 3.84261715e-04 -3.11779650e-03 6.54739933e-03
      7.64437066e-03 2.83098174e-03 -1.64732221e-03 4.00857907e-03</_>
    <_>
      4.46304858e-01 7.30516836e-02 5.64349294e-02 6.66889101e-02
      -7.99099207e-02 -5.08226193e-02 -8.37475210e-02 -1.70074496e-02
      -4.04288387e-03 4.21883650e-02 -5.58862388e-02 -3.47270072e-02
      -1.93903167e-02 -1.63736474e-02 2.94283759e-02 2.24651340e-02
      -1.31621314e-02 1.77530982e-02 2.50024684e-02 -1.64960474e-02
      -1.79910078e-03 -2.59471815e-02 2.93037686e-02 2.42005493e-02
      -2.82087084e-02 9.34764184e-03 -3.43461595e-02 -2.74947118e-02
      2.74118185e-02 6.27963990e-03 -3.81103270e-02 -9.22150631e-03
      -2.04633512e-02 3.19323018e-02 -1.46662770e-02 -4.44542244e-03
      -7.50118634e-04 -3.11029032e-02 1.82806849e-02 -5.23867533e-02
      3.27233225e-04 6.52867323e-03 -1.33061651e-02 1.95812061e-03
      2.41159461e-02 -1.49948597e-02 1.54243186e-02 7.50427181e-03
      -1.92761663e-02 -3.46958861e-02 1.86165944e-02 -2.01305170e-02
      -6.39142375e-03 2.18400881e-02 7.82897044e-03 1.07782604e-02
      4.86419816e-03 1.12309670e-02 -1.67362355e-02 1.30571309e-03
      -3.12131364e-03 -1.10420343e-02 -1.41186574e-02 -2.82715983e-03
      2.57701846e-03 -4.74366825e-03 6.38325326e-03 -9.10662208e-03
      1.75649878e-02 4.53389483e-03 -4.92464099e-03 -1.71767008e-02
      9.94496606e-03 1.07692638e-02 3.34270392e-03 8.50580726e-03
      4.19177144e-04 6.92216260e-03 4.76247491e-03 -8.09238851e-03
      7.79590663e-03 -7.59627146e-04 -7.94229563e-04 7.26881390e-03
      -1.19821373e-02 -9.93142836e-03 -3.95465456e-03 6.47312845e-04
      1.12315267e-02 -5.96427638e-03 -1.11334038e-03 5.98081015e-03
      5.21909678e-03 -8.39116808e-04 -8.42673762e-06 9.23048146e-03
      2.82768207e-03 -3.45567358e-03 6.97383843e-03 -2.40095542e-03
      5.00557292e-03 1.71042702e-04 5.38351526e-03 1.26187997e-02
      -8.73275392e-04 5.02677227e-04 -8.63878243e-03 -4.92283422e-03
      -9.72469989e-03 -9.72087216e-03 4.55983868e-03 1.76528841e-03</_>
    <_>
      -3.38292211e-01 -1.24998428e-01 -2.12957757e-03 -3.67107652e-02
      1.34155661e-01 -3.08293793e-02 -6.21042363e-02 2.23414432e-02
      3.65646719e-03 -9.30568874e-02 3.66407819e-02 -4.00676727e-02
      7.30506852e-02 9.21404883e-02 3.89990141e-03 3.80307026e-02
      -6.01182040e-03 2.86475718e-02 -1.73635241e-02 -5.34272008e-02
      1.66554321e-02 -4.49384674e-02 3.98919508e-02 -7.21208453e-02
      3.41114067e-02 -2.47377623e-02 1.90937724e-02 2.48046312e-02
      6.78036781e-03 4.80867624e-02 5.25593273e-02 1.04705486e-02
      1.30126560e-02 6.94512296e-03 1.62938703e-02 3.98073010e-02
      -4.60997317e-03 -1.74003616e-02 1.09921284e-02 -2.50705448e-03
      1.42142549e-02 -1.35612702e-02 -6.46697637e-03 -1.57230105e-02
      6.48379978e-03 -3.22788619e-02 2.06269957e-02 1.20328953e-02
      3.04910503e-02 -9.63858142e-03 8.75653420e-03 -1.31432153e-02
      2.11463459e-02 -2.54008528e-02 -3.52583379e-02 -1.54861063e-02
      1.93559043e-02 -1.31020490e-02 2.80597564e-02 1.42442770e-02
      -6.36023656e-03 1.03319483e-03 2.45763417e-02 1.71448244e-03
      1.54060600e-02 -1.32653797e-02 2.17955001e-03 -1.45691494e-02
      4.16091410e-03 -4.07594955e-03 -7.94280414e-03 9.08597093e-03
      -8.74816254e-03 2.11187135e-02 -9.30024125e-03 -6.75157597e-03
      -3.51060065e-04 -6.61973283e-03 3.08440113e-03 3.48539394e-03
      2.48871953e-03 -7.99225830e-03 1.87920164e-02 8.36558465e-04
      1.02814892e-02 -1.50848962e-02 3.85572831e-03 -8.39035679e-03
      1.63114723e-02 -7.73981400e-03 6.56093517e-03 -3.90508398e-03
      -3.13847922e-02 -4.11731889e-03 2.32100636e-02 -3.53515521e-02
      -3.49983275e-02 -2.36341543e-03 -1.51722450e-02 -1.75734982e-02
      2.66132373e-02 1.29082554e-03 -3.35339122e-02 3.80184874e-02
      -1.45077715e-02 -8.35228432e-03 -9.90570895e-03 1.25085367e-02
      -2.23538745e-02 3.58685292e-03 -7.00775534e-03 7.31556909e-04</_>
    <_>
      -1.41625091e-01 -2.29087844e-02 1.92190096e-01 7.36789033e-02
      1.94534868e-01 -1.01853959e-01 4.55974136e-03 -5.05866706e-02
      2.03870516e-02 -5.35580330e-02 1.04198363e-02 4.07943036e-03
      -6.70376346e-02 -3.73955816e-02 3.39967385e-02 7.00082853e-02
      -1.74979065e-02 -2.31307056e-02 -2.66369991e-02 3.85299549e-02
      -4.06811871e-02 -2.45900098e-02 -6.38444023e-03 -1.17849978e-02
      -4.71139252e-02 3.76416445e-02 1.66758187e-02 -7.55581353e-03
      -3.21720280e-02 -5.07575599e-03 -5.41637912e-02 1.03040664e-02
      -3.19659971e-02 4.09269892e-03 -4.29166202e-03 -3.55049483e-02
      6.63561933e-03 -2.53187562e-03 7.22204708e-03 -3.02930214e-02
      1.60918161e-02 -3.37497853e-02 1.90284383e-02 -8.51137284e-03
      2.26760516e-03 -3.74918361e-03 -8.07145028e-04 -4.62746434e-03
      4.06332649e-02 -5.18361200e-03 -2.34793760e-02 -1.95080824e-02
      3.11075337e-02 -1.33871185e-02 3.59884067e-03 -2.54156459e-02
      4.67120949e-03 -3.72498675e-04 -1.67375244e-02 -2.05186438e-02
      -9.13341180e-04 -1.04039675e-02 6.54636475e-04 3.14431731e-03
      -5.83952293e-03 -8.09828751e-03 -1.89573858e-02 4.90815705e-03
      2.46830634e-03 -3.61474510e-03 5.97946672e-03 8.30059033e-03
      1.11065693e-02 4.56972420e-03 5.38328150e-03 -1.30615411e-02
      -4.00620420e-03 -2.57674581e-03 2.72854930e-03 3.95356864e-03
      -1.01852491e-02 6.87515270e-03 -7.40532530e-03 -1.07667865e-02
      -6.99392287e-03 4.53578355e-03 5.73174981e-03 -5.11372741e-03
      2.98972521e-03 -1.79578213e-03 -3.77383502e-03 4.15242882e-03
      8.97524413e-03 -3.49838613e-03 -9.91144311e-03 -3.64205893e-03
      5.96374413e-03 9.88522195e-04 -9.55858454e-03 2.15367228e-03
      -2.08155927e-03 3.09827528e-03 -2.32619606e-03 -2.09458154e-02
      8.20306409e-03 1.66608002e-02 1.84418391e-02 -1.21801831e-02
      1.06071662e-02 8.53463728e-03 7.93748349e-03 1.16493553e-04</_>
    <_>
      -4.74419206e-01 -2.08206959e-02 -1.76131055e-01 -9.81587768e-02
      -8.98629650e-02 8.57664198e-02 -2.16090418e-02 5.67393713e-02
      -7.34491423e-02 2.53281812e-03 -6.66072220e-02 9.08632427e-02
      -1.12636350e-02 2.91488729e-02 3.51223014e-02 3.77338901e-02
      -3.74464206e-02 -8.18097144e-02 4.91012400e-03 -1.40318945e-02
      -2.36716922e-02 1.20352851e-02 4.23893034e-02 2.84423400e-02
      1.25352200e-02 1.03948675e-02 -9.17769596e-03 -3.10841724e-02
      -2.15616357e-02 -2.62855403e-02 -2.51418650e-02 2.55325547e-04
      2.40545012e-02 -6.27441285e-03 -1.17238285e-02 -3.09691690e-02
      2.22923676e-03 4.21813540e-02 2.63236323e-03 -3.14634368e-02
      -1.76250041e-02 -1.55741153e-02 1.01424810e-02 2.23303102e-02
      -4.02947655e-03 6.11287216e-03 -8.37370940e-03 -2.29441077e-02
      1.75581942e-03 -6.68792613e-03 -3.15659819e-03 1.31140761e-02
      9.07084532e-03 6.09614374e-03 -3.26557420e-02 -1.74398255e-02
      -1.66247296e-03 -8.62862356e-03 -1.61067806e-02 1.12828016e-02
      2.17668489e-02 -1.68798529e-02 -3.17539051e-02 -6.34472398e-03
      1.37759186e-03 6.27965340e-03 4.07311600e-03 -3.80973052e-03
      -1.58041064e-02 -2.09775418e-02 8.80299974e-03 2.53234785e-02
      3.30233648e-02 -8.95456783e-03 -2.80935038e-03 -2.24303063e-02
      6.04493497e-03 2.91829486e-03 -2.74412837e-02 -1.66161712e-02
      2.03176774e-02 9.01893899e-03 -2.11292244e-02 2.76793316e-02
      3.36693367e-03 2.15768837e-03 -4.15972015e-03 -5.41988807e-03
      2.64098099e-03 -8.16748012e-03 -6.36190452e-05 -1.04755312e-02
      -1.29283601e-02 7.39536947e-03 1.83641550e-03 -4.11943626e-03
      -3.53507046e-03 -1.27941053e-02 1.09986365e-02 5.80273988e-03
      1.31502720e-02 5.85060846e-03 1.52072601e-03 -1.71613339e-02
      -4.75501642e-03 -3.21861636e-03 -2.02527619e-03 1.78351684e-03
      2.88181996e-04 2.71986634e-03 -2.57118009e-02 7.01908814e-03</_>
    <_>
      -5.26270270e-01 6.77319095e-02 -2.06155881e-01 -1.22943008e-02
      7.42377192e-02 1.09508308e-02 4.08739522e-02 8.68445188e-02
      -6.01215735e-02 -1.40662372e-01 2.05124505e-02 -6.73339069e-02
      9.75330360e-03 -1.04716934e-01 -3.67138945e-02 -8.00363626e-03
      5.97360320e-02 -7.94016570e-02 -2.49774624e-02 5.49256504e-02
      -2.17476413e-02 3.34713981e-02 5.64586779e-04 2.69909436e-03
      1.43313734e-02 5.02364524e-02 -2.09060889e-02 -5.66243008e-02
      2.21964438e-03 1.68033447e-02 -2.51310859e-02 -9.03697591e-03
      2.98097054e-03 -1.33462658e-03 3.67980972e-02 4.41228785e-03
      -1.91293489e-02 -1.98648209e-04 6.27237186e-03 1.08348085e-02
      -1.61685646e-02 -1.68373901e-02 6.13940926e-03 -5.60450926e-03
      1.74114667e-02 9.53960000e-04 1.44284749e-02 6.60693645e-03
      1.28761027e-02 1.98693313e-02 1.36648025e-02 -1.14541291e-03
      -6.29389752e-03 -8.20561126e-03 -3.11033055e-03 -1.61158144e-02
      -2.82126432e-03 1.13560436e-02 -2.62339413e-03 4.31812741e-03
      2.44437973e-03 -7.02270493e-03 -4.10206476e-03 -1.75614432e-02
      -7.80554535e-03 -2.17918102e-02 4.54929611e-03 1.96843054e-02
      3.82747850e-03 -2.05476731e-02 -1.92861464e-02 -7.23100407e-03
      4.49711690e-03 -1.09812282e-02 -1.47813270e-02 2.85864230e-02
      3.65372514e-04 -4.26703366e-03 -1.12134377e-02 -1.88785121e-02
      -1.53005337e-02 1.83279421e-02 -2.16238406e-02 7.25011760e-03
      -2.04831809e-02 1.86215043e-02 -3.58757451e-02 -4.06687868e-05
      2.42836494e-02 -2.11742260e-02 1.85528342e-02 5.96049940e-03
      -2.90041380e-02 4.64903936e-03 9.84408800e-03 -1.09841609e-02
      8.22344515e-03 -1.19602820e-02 7.91598856e-03 -6.34621503e-03
      -2.12447941e-02 2.05289517e-02 -1.02981897e-02 -3.37301753e-03
      1.01610888e-02 3.97774391e-03 9.68127046e-03 1.18195284e-02
      -1.13269910e-02 1.00304792e-02 -7.22741429e-03 -4.25207103e-03</_>
    <_>
      -4.57811505e-01 -3.32283638e-02 -4.39126417e-02 -3.24833877e-02
      1.10456109e-01 -6.74318224e-02 5.38856676e-03 3.90430577e-02
      -5.90535514e-02 -7.96768367e-02 6.67836592e-02 -1.30230084e-01
      8.34645405e-02 4.93824631e-02 -2.64941882e-02 3.28425467e-02
      -1.09398970e-03 -1.44830742e-03 1.74394418e-02 2.05403427e-03
      3.94303054e-02 -2.16631405e-02 -1.86692383e-02 -1.26403477e-02
      1.54269608e-02 1.31840529e-02 -1.06904060e-02 -2.42842343e-02
      4.19122912e-02 -2.19648555e-02 1.49837155e-02 3.25730117e-03
      2.87210308e-02 8.42055120e-03 -2.45256126e-02 7.15169823e-03
      -1.57937426e-02 -5.21116483e-04 -1.13461036e-02 -3.98056069e-03
      1.99096650e-03 2.05267314e-02 -3.05125825e-02 1.29530588e-02
      2.75733750e-02 6.54977703e-05 -2.63788947e-03 1.33890510e-02
      -7.59087736e-03 2.13728775e-03 -2.77460250e-03 4.57284926e-03
      -3.24781891e-03 -8.47381167e-03 -1.32017117e-02 7.37954210e-03
      -1.27244256e-02 -2.64270767e-03 -6.50897156e-03 -1.35838671e-03
      -8.35975725e-03 1.95135747e-03 1.22010754e-02 -2.85231625e-03
      1.64611619e-02 1.72197382e-04 3.13390559e-03 -1.15496492e-04
      5.84303448e-03 -1.46450978e-02 1.39187155e-02 2.65662256e-03
      -4.18393902e-04 1.21846504e-03 -8.58074520e-03 1.61089897e-02
      -1.41999079e-02 -5.97611954e-03 -3.77665134e-03 1.00201713e-02
      2.00767368e-02 -7.21324235e-03 -5.09894127e-03 -8.70434102e-03
      -5.26838144e-03 -4.57620341e-03 -1.48534088e-03 1.93546955e-02
      -1.49139166e-02 1.75282790e-03 -4.66161611e-04 1.90687124e-02
      1.93499923e-02 1.14920549e-02 3.09739690e-02 -8.61460227e-04
      -1.59036275e-02 -1.28987515e-02 -1.38339298e-02 3.32102436e-03
      1.26417996e-02 -2.46165344e-03 7.21322931e-03 -2.06211419e-03
      -2.11774115e-03 -6.16737036e-03 6.89041009e-03 -6.97580958e-03
      4.57912544e-03 6.66093174e-03 3.99085926e-03 3.39331455e-03</_>
    <_>
      -2.74133444e-01 -8.80110487e-02 7.00682253e-02 -1.31169617e-01
      -2.63087898e-02 1.45879120e-01 -1.42499851e-02 2.08736286e-02
      2.45448519e-02 4.41049077e-02 -4.47060838e-02 -7.49858394e-02
      1.72157828e-02 -9.53481346e-03 2.85914307e-03 -4.12870198e-02
      -2.84799933e-02 -1.07423207e-02 -1.39977131e-02 2.38179155e-02
      2.97613479e-02 5.75907528e-02 -4.19356860e-02 4.15790506e-04
      -3.87323499e-02 -2.74606352e-03 9.90591850e-03 2.75351107e-02
      -4.21681628e-02 2.59506423e-02 -2.09627091e-03 1.96673274e-02
      -1.17857549e-02 8.11772794e-03 1.52577767e-02 -6.15789555e-04
      -1.85049383e-03 1.86042544e-02 2.65245568e-02 -2.71442868e-02
      2.46614814e-02 -4.04863805e-02 3.39382002e-03 4.10683593e-03
      -2.08228417e-02 -9.96406935e-03 2.59407349e-02 8.54866672e-03
      -2.94857435e-02 -1.51603734e-02 -1.45442951e-02 -3.89641128e-03
      -1.61706619e-02 4.79052868e-03 -2.49311590e-04 -8.68987199e-03
      -1.92026068e-02 7.42796715e-03 -1.89650599e-02 -7.11732917e-03
      -6.81214081e-03 -1.12395482e-02 -7.56756449e-03 1.05949081e-02
      -1.67689361e-02 4.98275971e-03 -1.07551357e-02 2.55874754e-03
      -2.09772587e-02 2.74244510e-03 -1.71958674e-02 6.83888467e-03
      5.79343224e-03 3.74475814e-04 4.59220959e-03 -4.03006328e-03
      -1.30711105e-02 -4.50599147e-03 4.10351623e-03 -1.58630777e-02
      6.86898315e-03 3.72662209e-03 -3.87207046e-03 1.15314787e-02
      -1.35572385e-02 9.94244218e-03 -3.96585604e-03 -3.74417100e-03
      7.05872988e-03 1.41542768e-02 -2.93560117e-03 -7.35672470e-03
      -2.23838985e-02 -6.31167879e-03 -9.23220720e-03 3.23101226e-03
      7.01334886e-03 -1.36905781e-03 7.41843460e-03 -1.03410678e-02
      1.84626989e-02 -7.67853903e-03 -4.90741711e-03 4.70445724e-03
      -9.90659092e-03 -6.74664369e-03 1.00368820e-02 2.59169424e-03
      -5.78132877e-03 1.28015839e-02 5.19627100e-03 1.11743715e-02</_>
    <_>
      -4.67576772e-01 -8.92845243e-02 3.99632342e-02 -4.67584096e-02
      6.83620349e-02 -7.44694993e-02 3.45239346e-03 5.21030761e-02
      4.49508503e-02 1.37895439e-02 1.17340878e-01 -6.97138831e-02
      6.36534989e-02 -1.95520162e-03 -3.84914018e-02 4.71351109e-02
      -2.42547598e-02 6.92496076e-03 1.23749608e-02 -3.81765775e-02
      -3.17232683e-02 1.29936663e-02 3.20180282e-02 -2.14316957e-02
      -2.90519092e-02 -3.16172726e-02 -2.67399214e-02 2.58921590e-02
      2.79393811e-02 -3.94893289e-02 1.10267522e-02 -2.48699896e-02
      2.85212081e-02 -5.00561716e-03 -7.48943537e-03 -7.96393398e-03
      4.81131859e-02 1.14069264e-02 1.26223927e-02 -7.60706188e-03
      1.00557152e-02 -1.69553570e-02 -1.70903578e-02 1.91607345e-02
      1.72773900e-03 6.57832436e-03 -3.12917004e-03 4.34128102e-03
      -7.05421763e-03 -9.85263963e-04 -1.46813858e-02 2.09556744e-02
      -2.22172141e-02 -1.51962535e-02 -1.06910216e-02 3.11374292e-02
      -2.08195299e-02 9.34977084e-03 -6.76929066e-03 5.32013411e-03
      -3.92429065e-03 2.57440173e-04 1.92187931e-02 8.36974289e-03
      1.24572953e-02 5.82559640e-03 -1.03504509e-02 -9.71330795e-03
      3.24783311e-03 9.63286124e-03 1.79211833e-02 1.55493272e-02
      -2.90422216e-02 2.65333075e-02 1.00175988e-04 -1.59400154e-03
      -1.02553582e-02 1.91488955e-02 7.93406181e-03 -2.34890822e-02
      3.17487912e-03 -1.26411486e-02 -8.80403630e-03 -7.00452365e-03
      -7.03309197e-04 -1.53659303e-02 -1.05510643e-02 1.77961625e-02
      -1.67093147e-02 -6.56244019e-03 2.48046662e-03 1.73031688e-02
      -3.73873091e-03 2.63298163e-03 -1.11258533e-02 -9.15105920e-03
      5.30930795e-03 -1.98375317e-03 6.14408345e-04 2.19788291e-02
      4.91953827e-03 5.71954483e-03 6.07399549e-03 -7.04542501e-03
      -8.12574872e-04 6.82370458e-03 -8.79150722e-03 -9.85498820e-03
      7.37894094e-03 1.13794850e-02 -1.03779342e-02 -6.60002977e-03</_>
    <_>
      -2.81000704e-01 -8.52832273e-02 1.90555364e-01 -9.29435492e-02
      -1.10518441e-01 3.08003370e-02 -4.94541340e-02 8.07701945e-02
      -7.15185795e-03 -3.73366475e-02 2.44135465e-02 1.91388614e-02
      3.32955681e-02 2.99928728e-02 -1.67687889e-02 7.64885359e-03
      -3.33695449e-02 -2.49216240e-02 -4.75595929e-02 -2.01485585e-02
      4.62892232e-03 -9.17120278e-03 4.57518660e-02 -3.56357321e-02
      -2.22797263e-02 -1.40187563e-02 5.11666853e-03 1.59707299e-04
      1.00051211e-02 1.65740456e-02 1.81832872e-02 -3.29781417e-03
      1.69193149e-02 -1.45480188e-03 -1.55677749e-02 -1.27671380e-02
      -2.45079324e-02 1.25468401e-02 -1.40002910e-02 -1.23697435e-02
      2.43870895e-02 -4.12046444e-03 2.74930615e-02 -1.88896917e-02
      1.11910151e-02 -3.89667205e-03 1.34346727e-02 -3.60142952e-03
      -1.61374919e-02 2.24583577e-02 -1.16432998e-02 -5.22490637e-03
      6.18156511e-03 -1.27521018e-02 2.02959571e-02 -9.53417839e-05
      -1.06435139e-02 -4.06094221e-03 -3.86038166e-03 -3.15830298e-03
      -2.72319512e-03 1.16943093e-02 9.78917442e-03 2.36251466e-02
      -4.60810913e-03 -1.46584542e-04 1.85201429e-02 9.63064656e-03
      -5.64674288e-03 -7.05799880e-03 -8.81161820e-03 -4.29559592e-03
      4.03984636e-03 -7.67022185e-03 -5.18454798e-03 -1.00366529e-02
      3.64745664e-03 -5.23427734e-03 -4.02775098e-04 3.31954868e-03
      -7.16760475e-03 8.50126613e-03 -1.89439650e-03 -2.76593328e-03
      -5.92956925e-03 -2.41037775e-02 -4.22300445e-03 -1.40967721e-03
      -7.43934279e-03 -6.12591917e-04 -2.74116662e-03 -1.38350646e-03
      4.02046042e-03 1.31108593e-02 -5.56092104e-03 -1.49670793e-02
      -1.99564220e-03 2.06050146e-02 7.82284606e-03 5.13985008e-03
      -1.99157447e-02 -4.25785547e-03 -2.63313111e-03 -1.29845561e-02
      -3.20693434e-05 -2.02843314e-03 7.92202074e-03 1.15482071e-02
      4.83480003e-03 1.47758902e-03 1.42506128e-02 7.32734974e-04</_>
    <_>
      -4.54715669e-01 -6.46703765e-02 -1.20164074e-01 -2.19053328e-02
      1.16053089e-01 -2.28607915e-02 2.08435338e-02 2.40703057e-02
      4.05143872e-02 5.88781014e-02 8.12970176e-02 -3.35602798e-02
      2.89557260e-02 -4.13236842e-02 5.30200591e-03 -2.15313211e-02
      6.50298898e-04 1.64998621e-02 1.81748085e-02 -2.33755279e-02
      4.24003676e-02 4.61677043e-03 1.46744894e-02 1.56530757e-02
      -4.67531290e-03 -7.18941400e-03 -4.17993357e-03 1.48496646e-02
      -7.55563332e-03 -2.38107983e-02 7.57980905e-03 1.15732662e-02
      3.83461895e-03 4.11634753e-03 3.97394644e-03 4.46219137e-03
      -5.37439855e-03 6.61499705e-03 1.00622876e-02 -1.10455221e-02
      1.07011460e-02 -2.20247507e-02 7.21390173e-03 -2.15686951e-03
      -1.29177840e-02 2.98274271e-02 -1.78661291e-02 -4.03246433e-02
      -1.10105816e-02 -1.75444630e-03 -2.06626523e-02 -1.03123765e-02
      -1.04007497e-02 1.52897593e-02 -1.70156918e-02 2.56629102e-03
      -3.67169478e-03 2.10770816e-02 1.62237771e-02 -5.10106655e-03
      6.42674218e-04 5.72370505e-03 5.91759942e-03 9.14379209e-03
      -1.28725832e-02 -4.04841639e-02 3.49055454e-02 -1.38898771e-02
      1.42858587e-02 -1.39483176e-02 -1.81242879e-02 1.59810465e-02
      2.51621404e-03 5.71980933e-03 -9.10347234e-03 3.67936934e-03
      5.09018265e-03 5.66714909e-03 3.14258039e-04 4.62139584e-03
      -7.18217064e-03 8.31412990e-03 -1.15571795e-02 -5.49373776e-03
      -2.60522822e-03 6.89364923e-03 -1.57749075e-02 3.76182143e-03
      -6.04834361e-03 8.24535079e-03 -1.10170329e-02 -7.49540934e-03
      1.24435285e-02 2.42917496e-03 8.03313311e-03 8.09039455e-03
      -1.83853861e-02 -1.59633923e-02 2.17704419e-02 5.62789384e-03
      -1.37358084e-02 1.63764192e-03 -3.22206803e-02 -2.05512326e-02
      6.12426223e-03 2.11065123e-03 -1.57428812e-03 1.00810742e-02
      -5.64562902e-03 -1.29407085e-02 -5.72930975e-03 -6.50956621e-03</_>
    <_>
      -4.33370054e-01 -6.42613322e-02 8.87404978e-02 3.28062131e-04
      1.06633209e-01 -1.11648701e-01 -1.73173174e-02 1.93297900e-02
      -3.73749615e-04 -2.55616512e-02 1.22145161e-01 -7.26642162e-02
      5.02537675e-02 -6.00581430e-03 -1.47020491e-02 4.18033190e-02
      3.90784396e-03 -3.89436143e-03 -1.57899689e-02 3.04421689e-03
      2.02681664e-02 8.09276942e-03 3.52498107e-02 -1.43933585e-02
      1.39994193e-02 -3.19408961e-02 -3.98697220e-02 3.48869711e-03
      4.05271724e-02 -6.13329560e-03 -1.87675201e-03 -4.20037434e-02
      2.85578128e-02 3.22244572e-03 -2.43943557e-02 5.30826568e-04
      -2.05210485e-02 7.83150457e-03 -8.36630410e-04 -3.19248275e-03
      2.31081285e-02 -1.02936244e-02 -1.16012301e-02 1.40682897e-02
      3.39073362e-03 1.38427587e-02 2.94970367e-02 1.77327096e-02
      1.66021269e-02 -5.26466453e-03 -4.72635068e-02 7.71695934e-03
      -7.58428033e-03 -1.93857886e-02 5.21886954e-03 1.23867439e-02
      -2.41446905e-02 9.53372847e-03 -4.92958911e-03 -1.55828882e-03
      -3.28657473e-03 7.06823776e-05 -8.17404222e-03 -2.54873768e-03
      -1.13744312e-03 -1.71937852e-03 1.28877070e-02 2.53860950e-02
      5.69492904e-03 1.61496270e-02 2.65733898e-02 1.03308298e-02
      -5.00116870e-03 2.32334435e-03 4.37967479e-03 -9.37077031e-03
      -1.42288366e-02 -6.15627039e-04 -4.41618264e-03 -1.44554526e-02
      1.44904926e-02 -1.18072247e-02 -7.00024422e-03 -8.94486252e-03
      6.59503648e-03 -7.32465740e-03 1.99562940e-03 -6.35210751e-03
      -5.87507943e-03 -5.08049689e-03 1.62346754e-02 6.77441619e-03
      -1.41455019e-02 2.45673116e-03 1.17726801e-02 2.57643452e-03
