<?xml version="1.0"?>
<opencv_storage>
<opencv_ml_svm>
  <format>3</format>
  <svmType>C_SVC</svmType>
  <kernel>
    <type>RBF</type>
    <gamma>5.3830000000000000e+00</gamma></kernel>
  <C>2.6699999999999999e+00</C>
  <term_criteria><epsilon>1.1920928955078125e-07</epsilon>
    <iterations>1000</iterations></term_criteria>
  <var_count>256</var_count>
  <class_count>2</class_count>
  <class_labels type_id="opencv-matrix">
    <rows>2</rows>
    <cols>1</cols>
    <dt>i</dt>
    <data>
      0 1</data></class_labels>
  <sv_total>1562</sv_total>
  <support_vectors>
    <_>
      3.89999989e-03 6.63999990e-02 0. 0. 0. 0. 3.89999989e-03
      2.73000002e-02 0. 0. 0. 0. 0. 0. 0. 0. 3.89999989e-03
      1.16999997e-02 0. 0. 0. 0. 0. 0. 0. 0. 0. 0. 1.95000004e-02 0.
      2.33999994e-02 3.51999998e-02 0. 0. 0. 0. 0. 0. 0. 0. 0. 0. 0. 0.
      0. 0. 0. 0. 0. 0. 0. 0. 0. 0. 0. 0. 0. 0. 0. 0. 0. 0. 0. 0.
      3.89999989e-03 0. 0. 0. 0. 0. 0. 0. 0. 0. 0. 0. 0. 0. 0. 0. 0. 0.
      0. 0. 0. 0. 0. 0. 0. 0. 0. 0. 0. 0. 0. 0. 1.55999996e-02 0. 0. 0.
      0. 0. 0. 0. 0. 0. 0. 0. 3.89999989e-03 0. 0. 0. 2.73000002e-02 0.
      0. 0. 0. 0. 0. 0. 0. 0. 0. 0. 3.89999989e-03 0. 1.55999996e-02 0.
      3.89999989e-03 0. 0. 0. 0. 0. 0. 0. 0. 0. 0. 0. 0. 0. 0. 0. 0. 0.
      0. 0. 0. 0. 0. 0. 0. 0. 0. 0. 0. 0. 0. 0. 0. 0. 0. 0. 0. 0. 0. 0.
      0. 0. 0. 0. 0. 0. 0. 0. 0. 0. 0. 0. 0. 0. 0. 0. 0. 0. 0. 0. 0. 0.
      0. 0. 0. 5.07999994e-02 0. 1.16999997e-02 0. 0. 0. 1.95000004e-02
      0. 0. 0. 0. 0. 0. 0. 0. 0. 0. 0. 0. 0. 0. 0. 0. 0. 0. 0. 0. 0. 0.
      0. 3.89999989e-03 7.79999979e-03 2.10899994e-01 0. 3.89999989e-03
      0. 0. 0. 3.89999989e-03 0. 0. 0. 0. 0. 3.89999989e-03 0.
      1.95000004e-02 2.73000002e-02 2.50000000e-01 0. 1.55999996e-02 0.
      0. 0. 0. 0. 0. 0. 0. 0. 3.89999989e-03 1.55999996e-02
      8.20000023e-02</_>
    <_>
      0. 3.89999989e-03 0. 0. 0. 0. 0. 1.16999997e-02 0. 0. 0. 0. 0. 0.
      0. 0. 2.33999994e-02 9.38000008e-02 0. 0. 0. 0. 0. 0. 0.
      3.89999989e-03 0. 0. 1.55999996e-02 0. 0. 8.59000012e-02 0. 0. 0.
      0. 0. 0. 0. 0. 0. 0. 0. 0. 0. 0. 0. 0. 0. 0. 0. 0. 0. 0. 0. 0. 0.
      0. 0. 0. 0. 0. 0. 0. 0. 0. 0. 0. 0. 0. 0. 0. 0. 0. 0. 0. 0. 0. 0.
      0. 0. 0. 0. 0. 0. 0. 0. 0. 0. 0. 0. 0. 0. 0. 0. 0. 0. 0. 0. 0. 0.
      0. 0. 0. 0. 0. 0. 0. 0. 0. 0. 0. 4.30000015e-02 3.89999989e-03 0.
      0. 0. 0. 0. 0. 0. 0. 0. 0. 5.07999994e-02 3.89999989e-03
      1.55999996e-02 0. 0. 0. 0. 0. 0. 0. 0. 0. 0. 0. 0. 0. 0. 0. 0. 0.
      0. 0. 0. 0. 0. 0. 0. 0. 0. 0. 0. 0. 0. 0. 0. 0. 0. 0. 0. 0. 0. 0.
      0. 0. 0. 0. 0. 0. 0. 0. 0. 0. 0. 0. 0. 0. 0. 0. 0. 0. 0. 0. 0. 0.
      0. 0. 0. 0. 0. 1.55999996e-02 0. 0. 0. 0. 0. 3.11999992e-02 0. 0.
      0. 0. 0. 0. 0. 0. 0. 0. 0. 0. 0. 0. 0. 0. 0. 0. 0. 0. 0. 0. 0. 0.
      0. 0. 0. 0. 0. 0. 0. 0. 0. 0. 0. 0. 0. 0. 0. 0. 0. 1.44500002e-01
      0. 0. 0. 0. 0. 0. 0. 1.95000004e-02 0. 0. 1.95000004e-02
      3.89999989e-03 0. 4.10200000e-01</_>
    <_>
      0. 0. 0. 0. 1.55999996e-02 0. 0. 2.33999994e-02 0. 0. 0. 0. 0. 0.
      0. 0. 0. 0. 0. 0. 0. 0. 0. 0. 0. 0. 0. 0. 1.55999996e-02 0. 0.
      4.30000015e-02 0. 0. 0. 0. 0. 0. 0. 0. 0. 0. 0. 0. 0. 0. 0. 0. 0.
      0. 0. 0. 0. 0. 0. 0. 0. 0. 0. 0. 3.89999989e-03 0. 0.
      3.89999989e-03 1.55999996e-02 0. 0. 0. 3.90999988e-02 0. 0.
      3.89999989e-03 0. 0. 0. 0. 0. 0. 0. 0. 0. 0. 0. 0. 0. 0. 0. 0. 0.
      0. 0. 0. 0. 0. 0. 0. 0. 0. 0. 0. 0. 0. 0. 3.89999989e-03 0. 0. 0.
      0. 0. 0. 0. 0. 1.16999997e-02 0. 0. 0. 3.89999989e-03 0. 0. 0. 0.
      0. 0. 0. 8.59000012e-02 0. 3.89999989e-03 3.89999989e-03 0. 0. 0.
      0. 0. 0. 0. 0. 0. 0. 0. 0. 0. 0. 0. 0. 0. 0. 0. 0. 0. 0. 0. 0. 0.
      0. 0. 0. 0. 0. 0. 7.79999979e-03 0. 0. 0. 0. 0. 0. 0. 0. 0. 0. 0.
      0. 0. 0. 0. 0. 0. 0. 0. 0. 0. 0. 0. 0. 0. 0. 0. 0. 0. 0. 0. 0. 0.
      5.46999983e-02 0. 0. 0. 0. 0. 1.40599996e-01 0. 0. 0. 0. 0. 0. 0.
      7.79999979e-03 0. 0. 0. 0. 0. 0. 0. 0. 0. 0. 0. 0. 0. 0. 0. 0. 0.
      0. 0. 0. 0. 0. 0. 3.89999989e-03 0. 0. 0. 0. 0. 0. 0. 0. 0.
      3.51999998e-02 0. 1.16999997e-02 0. 0. 0. 2.33999994e-02 0. 0. 0.
      0. 0. 7.79999979e-03 0. 4.29699987e-01</_>
    <_>
      0. 0. 0. 0. 7.79999979e-03 0. 0. 1.55999996e-02 0. 0. 0. 0. 0. 0.
      0. 0. 0. 0. 0. 0. 0. 0. 0. 0. 0. 0. 0. 0. 2.33999994e-02 0. 0.
      3.11999992e-02 0. 0. 0. 0. 0. 0. 0. 0. 0. 0. 0. 0. 0. 0. 0. 0. 0.
      0. 0. 0. 0. 0. 0. 0. 0. 0. 0. 0. 3.89999989e-03 0. 0. 0.
      7.79999979e-03 0. 0. 0. 4.69000004e-02 0. 0. 0. 0. 0. 0. 0. 0. 0.
      0. 0. 0. 0. 0. 0. 0. 0. 0. 0. 0. 0. 0. 0. 3.89999989e-03 0. 0. 0.
      0. 0. 0. 0. 0. 0. 0. 0. 0. 0. 0. 0. 0. 0. 0. 0. 2.73000002e-02 0.
      0. 0. 3.89999989e-03 0. 0. 0. 0. 0. 0. 0. 2.10899994e-01 0.
      3.89999989e-03 0. 0. 0. 0. 0. 0. 0. 0. 0. 0. 0. 0. 0. 0. 0. 0. 0.
      0. 0. 0. 0. 0. 0. 0. 0. 0. 0. 0. 0. 0. 0. 0. 0. 0. 0. 0. 0. 0. 0.
      0. 0. 0. 0. 0. 0. 0. 0. 0. 0. 0. 0. 0. 0. 0. 0. 0. 0. 0. 0. 0. 0.
      0. 0. 0. 0. 0. 1.55999996e-02 0. 0. 0. 0. 0. 9.38000008e-02 0. 0.
      0. 0. 0. 0. 0. 0. 0. 0. 0. 0. 0. 0. 0. 0. 0. 0. 0. 0. 0. 0. 0. 0.
      0. 0. 0. 0. 0. 0. 0. 0. 0. 0. 0. 0. 0. 0. 0. 0. 0. 3.90999988e-02
      0. 0. 0. 0. 0. 0. 0. 3.89999989e-03 0. 3.89999989e-03
      3.89999989e-03 0. 0. 4.53099996e-01</_>
    <_>
      7.79999979e-03 2.33999994e-02 0. 7.79999979e-03 3.89999989e-03 0.
      0. 5.07999994e-02 0. 0. 0. 0. 0. 0. 0. 0. 0. 3.89999989e-03 0.
      3.89999989e-03 0. 0. 0. 3.89999989e-03 0. 0. 0. 0. 3.89999989e-03
      0. 0. 1.16999997e-02 0. 0. 0. 0. 0. 0. 0. 0. 0. 0. 0. 0.
      3.89999989e-03 0. 0. 0. 0. 0. 0. 0. 0. 0. 0. 0. 0. 0. 0. 0. 0. 0.
      0. 0. 7.79999979e-03 0. 0. 0. 3.89999989e-03 0. 0. 0. 0. 0. 0. 0.
      0. 0. 0. 0. 0. 0. 0. 0. 0. 0. 0. 0. 0. 0. 0. 0. 3.89999989e-03 0.
      0. 0. 3.89999989e-03 0. 0. 0. 0. 0. 0. 0. 0. 0. 0. 0. 0. 0. 0. 0.
      7.79999979e-03 0. 0. 0. 0. 0. 0. 0. 1.16999997e-02 0. 0. 0.
      5.07999994e-02 0. 0. 0. 0. 0. 0. 3.11999992e-02 0. 0. 0.
      8.20000023e-02 0. 0. 0. 0. 0. 0. 0. 3.89999989e-03 0. 0. 0. 0. 0.
      0. 0. 0. 0. 0. 0. 0. 0. 0. 0. 3.89999989e-03 0. 0. 0. 0. 0. 0. 0.
      0. 0. 0. 0. 0. 0. 0. 0. 0. 0. 0. 0. 0. 0. 0. 0. 0. 0. 0. 0. 0. 0.
      0. 0. 0. 0. 7.02999979e-02 0. 8.20000023e-02 0. 0. 0.
      3.43800008e-01 0. 0. 0. 0. 0. 0. 0. 2.33999994e-02 0. 0. 0. 0. 0.
      0. 0. 0. 0. 0. 0. 0. 0. 0. 0. 3.89999989e-03 0. 0. 0.
      1.16999997e-02 3.89999989e-03 0. 0. 2.33999994e-02 0. 0. 0. 0. 0.
      0. 0. 1.16999997e-02 0. 1.95000004e-02 0. 3.89999989e-03 0. 0. 0.
      0. 0. 0. 0. 0. 0. 0. 0. 6.63999990e-02</_>
    <_>
      2.73000002e-02 3.89999989e-03 0. 7.79999979e-03 3.11999992e-02
      3.89999989e-03 1.16999997e-02 0. 0. 0. 0. 0. 3.89999989e-03 0.
      3.89999989e-03 0. 1.95000004e-02 0. 0. 0. 0. 0. 0. 0.
      1.95000004e-02 3.89999989e-03 0. 3.89999989e-03 4.69000004e-02 0.
      1.95000004e-02 1.16999997e-02 0. 0. 0. 0. 0. 0. 0. 0. 0. 0. 0. 0.
      0. 0. 0. 0. 1.95000004e-02 0. 0. 0. 7.79999979e-03 0. 0. 0.
      1.16999997e-02 7.79999979e-03 0. 0. 1.01599999e-01 0.
      1.95000004e-02 3.89999989e-03 3.11999992e-02 0. 3.89999989e-03 0.
      0. 0. 0. 0. 0. 0. 0. 0. 3.89999989e-03 0. 0. 0. 3.89999989e-03 0.
      0. 0. 0. 0. 0. 0. 0. 0. 0. 0. 7.79999979e-03 0. 0. 0.
      7.79999979e-03 0. 0. 0. 0. 0. 0. 0. 0. 0. 0. 0. 7.79999979e-03 0.
      0. 0. 5.86000010e-02 0. 0. 0. 3.89999989e-03 0. 0. 0.
      6.63999990e-02 0. 0. 0. 1.01599999e-01 0. 3.89999989e-03
      3.89999989e-03 0. 0. 0. 7.79999979e-03 0. 0. 0. 3.89999989e-03 0.
      0. 0. 0. 0. 0. 0. 0. 0. 0. 0. 3.89999989e-03 0. 0. 0. 0. 0. 0. 0.
      0. 0. 0. 0. 0. 0. 0. 0. 0. 0. 0. 0. 0. 0. 0. 0. 0. 0. 0. 0. 0. 0.
      0. 0. 0. 0. 0. 0. 0. 0. 0. 0. 0. 0. 0. 0. 1.16999997e-02
      1.16999997e-02 2.73000002e-02 0. 3.11999992e-02 0. 0. 0.
      2.73000002e-02 0. 0. 0. 3.89999989e-03 0. 0. 0. 7.79999979e-03 0.
      0. 0. 0. 0. 0. 0. 0. 0. 0. 0. 0. 0. 0. 0. 3.89999989e-03 0.
      7.79999979e-03 0. 7.79999979e-03 0. 0. 0. 0. 0. 0. 0. 0. 0. 0. 0.
      0. 1.55999996e-02 1.95000004e-02 0. 1.55999996e-02 0. 0. 0. 0.
      2.73000002e-02 7.79999979e-03 0. 1.16999997e-02 7.79999979e-03
      7.79999979e-03 0. 3.51999998e-02</_>
    <_>
      1.95000004e-02 0. 0. 0. 8.98000002e-02 0. 2.33999994e-02
      3.90999988e-02 0. 0. 0. 0. 3.89999989e-03 0. 3.11999992e-02
      1.17200002e-01 0. 1.16999997e-02 0. 0. 0. 0. 0. 0. 0.
      3.89999989e-03 0. 0. 1.55999996e-02 0. 1.95000004e-02
      1.32799998e-01 0. 0. 0. 0. 0. 0. 0. 0. 0. 0. 0. 0. 0. 0. 0. 0.
      7.79999979e-03 3.89999989e-03 0. 0. 0. 0. 0. 0. 0. 0. 0. 0.
      3.90999988e-02 0. 2.73000002e-02 1.95000004e-02 3.51999998e-02 0.
      0. 0. 3.89999989e-03 0. 0. 0. 0. 0. 0. 0. 0. 0. 0. 0. 0. 0. 0. 0.
      0. 0. 0. 0. 0. 0. 0. 0. 0. 0. 0. 0. 0. 0. 0. 0. 0. 0. 0. 0. 0. 0.
      0. 0. 0. 0. 0. 0. 7.79999979e-03 0. 0. 0. 0. 0. 0. 0.
      1.16999997e-02 0. 0. 0. 7.79999979e-03 0. 0. 0. 0. 7.79999979e-03
      0. 1.55999996e-02 0. 0. 0. 6.25000000e-02 0. 0. 0. 0. 0. 0. 0.
      6.63999990e-02 0. 3.89999989e-03 0. 0. 0. 0. 0. 0. 0. 0. 0. 0. 0.
      0. 0. 3.51999998e-02 0. 0. 0. 0. 0. 0. 0. 0. 0. 0. 0. 0. 0. 0. 0.
      0. 0. 0. 0. 0. 0. 0. 0. 0. 0. 3.89999989e-03 0. 0. 0. 0. 0.
      1.16999997e-02 3.89999989e-03 1.55999996e-02 0. 1.95000004e-02 0.
      0. 3.89999989e-03 0. 0. 0. 0. 0. 0. 0. 0. 0. 0. 0. 0. 0. 0. 0. 0.
      0. 0. 0. 0. 0. 0. 0. 0. 0. 3.89999989e-03 3.89999989e-03 0.
      1.16999997e-02 0. 0. 0. 3.89999989e-03 0. 0. 0. 0. 0. 0. 0.
      3.89999989e-03 3.89999989e-03 2.33999994e-02 0. 0. 0. 0. 0. 0.
      3.89999989e-03 0. 0. 3.89999989e-03 0. 0. 0. 1.55999996e-02</_>
    <_>
      1.95000004e-02 7.79999979e-03 0. 7.79999979e-03 1.16999997e-02 0.
      1.95000004e-02 4.30000015e-02 0. 0. 0. 0. 3.11999992e-02 0.
      1.55999996e-02 3.51999998e-02 1.16999997e-02 0. 0. 0. 0. 0. 0. 0.
      3.89999989e-03 0. 0. 3.89999989e-03 5.86000010e-02 0.
      4.69000004e-02 4.30000015e-02 0. 3.89999989e-03 0. 0. 0. 0. 0. 0.
      0. 0. 0. 0. 0. 0. 0. 0. 7.79999979e-03 0. 0. 0. 0. 0. 0. 0.
      1.55999996e-02 0. 0. 0. 1.55999996e-02 0. 1.55999996e-02
      1.55999996e-02 2.73000002e-02 0. 0. 0. 1.55999996e-02 0. 0. 0. 0.
      0. 0. 0. 0. 0. 3.89999989e-03 0. 0. 0. 0. 0. 0. 0. 0. 0. 0. 0. 0.
      0. 0. 0. 0. 0. 1.16999997e-02 0. 0. 0. 3.89999989e-03 0.
      3.89999989e-03 0. 0. 0. 0. 0. 0. 0. 0. 0. 2.33999994e-02 0. 0. 0.
      3.89999989e-03 0. 0. 0. 3.51999998e-02 0. 0. 0. 2.33999994e-02 0.
      7.79999979e-03 7.79999979e-03 0. 3.89999989e-03 0. 1.16999997e-02
      0. 0. 0. 4.69000004e-02 0. 0. 0. 0. 0. 0. 0. 2.33999994e-02 0.
      3.89999989e-03 0. 0. 0. 0. 0. 0. 0. 0. 0. 3.89999989e-03 0. 0. 0.
      1.55999996e-02 0. 0. 0. 0. 0. 0. 0. 3.89999989e-03 0. 0. 0. 0. 0.
      0. 0. 0. 0. 0. 0. 0. 0. 0. 0. 0. 0. 0. 0. 0. 0. 7.79999979e-03 0.
      3.89999989e-03 7.79999979e-03 3.90999988e-02 0. 4.69000004e-02
      3.89999989e-03 0. 0. 1.95000004e-02 0. 0. 0. 0. 0. 0. 0. 0.
      3.89999989e-03 0. 0. 0. 3.89999989e-03 0. 0. 0. 0. 0. 0. 0. 0. 0.
      0. 0. 3.89999989e-03 3.89999989e-03 0. 7.79999979e-03 0.
      3.89999989e-03 0. 1.55999996e-02 0. 0. 0. 0. 0. 0. 0.
      3.89999989e-03 1.55999996e-02 1.55999996e-02 0. 0. 0. 0. 0.
      3.89999989e-03 7.79999979e-03 3.89999989e-03 0. 1.16999997e-02
      7.79999979e-03 0. 3.89999989e-03 3.90999988e-02</_>
    <_>
      2.73000002e-02 1.16999997e-02 3.89999989e-03 1.16999997e-02
      3.89999989e-03 7.79999979e-03 1.55999996e-02 2.73000002e-02 0. 0.
      0. 0. 2.33999994e-02 0. 2.73000002e-02 9.38000008e-02
      2.73000002e-02 7.79999979e-03 0. 0. 0. 0. 0. 0. 1.16999997e-02
      7.79999979e-03 0. 0. 1.55999996e-02 0. 8.59000012e-02
      7.02999979e-02 3.89999989e-03 0. 0. 0. 0. 0. 0. 0. 0. 0. 0. 0. 0.
      0. 0. 0. 0. 0. 0. 0. 0. 0. 0. 0. 1.16999997e-02 0. 0. 0.
      7.79999979e-03 0. 2.33999994e-02 1.16999997e-02 1.16999997e-02 0.
      0. 0. 0. 0. 0. 0. 0. 0. 0. 0. 0. 0. 0. 0. 0. 0. 0. 0. 0. 0. 0. 0.
      0. 0. 0. 0. 0. 0. 0. 0. 1.55999996e-02 0. 0. 0. 0. 0. 0. 0. 0. 0.
      0. 0. 0. 0. 0. 0. 5.46999983e-02 3.89999989e-03 0. 0. 0. 0. 0. 0.
      3.51999998e-02 3.89999989e-03 0. 0. 1.95000004e-02 0.
      7.79999979e-03 0. 0. 3.89999989e-03 0. 7.79999979e-03
      3.89999989e-03 0. 0. 3.89999989e-03 0. 0. 0. 0. 0. 0. 0.
      7.79999979e-03 0. 0. 0. 0. 0. 0. 0. 0. 0. 0. 0. 3.89999989e-03 0.
      0. 3.89999989e-03 0. 0. 0. 0. 0. 0. 0. 0. 0. 0. 0. 0. 0. 0. 0. 0.
      0. 3.89999989e-03 0. 0. 0. 0. 0. 0. 0. 0. 0. 0. 0. 0. 0. 0. 0.
      1.55999996e-02 2.33999994e-02 0. 1.16999997e-02 0. 0. 0.
      1.16999997e-02 0. 0. 0. 0. 0. 0. 0. 7.79999979e-03 3.89999989e-03
      3.89999989e-03 0. 0. 0. 0. 0. 0. 0. 0. 0. 0. 0. 0. 0. 0.
      1.16999997e-02 1.16999997e-02 0. 1.16999997e-02 0. 0. 0.
      3.89999989e-03 0. 0. 0. 0. 0. 0. 0. 3.89999989e-03 4.30000015e-02
      1.55999996e-02 0. 3.89999989e-03 0. 0. 0. 3.89999989e-03
      2.33999994e-02 7.79999979e-03 0. 7.79999979e-03 3.89999989e-03 0.
      1.16999997e-02 2.73000002e-02</_>
    <_>
      5.07999994e-02 7.79999979e-03 0. 3.89999989e-03 1.16999997e-02 0.
      1.16999997e-02 2.73000002e-02 0. 0. 0. 0. 1.55999996e-02 0.
      2.33999994e-02 3.11999992e-02 2.33999994e-02 3.89999989e-03 0.
      7.79999979e-03 3.89999989e-03 0. 0. 0. 3.89999989e-03
      3.89999989e-03 0. 0. 5.46999983e-02 0. 3.51999998e-02
      3.90999988e-02 0. 0. 0. 3.89999989e-03 0. 0. 0. 0. 0. 0. 0. 0. 0.
      0. 0. 0. 2.73000002e-02 0. 0. 0. 0. 0. 0. 0. 1.95000004e-02 0. 0.
      0. 5.07999994e-02 0. 2.33999994e-02 0. 2.33999994e-02 0. 0. 0. 0.
      0. 0. 0. 0. 0. 0. 0. 0. 0. 0. 3.89999989e-03 0. 0. 0. 0. 0. 0. 0.
      0. 3.89999989e-03 0. 0. 0. 0. 0. 0. 0. 3.89999989e-03 0. 0. 0. 0.
      0. 0. 0. 0. 0. 0. 0. 3.89999989e-03 0. 0. 3.89999989e-03
      4.30000015e-02 0. 0. 0. 0. 0. 0. 0. 3.90999988e-02 0. 0.
      3.89999989e-03 3.11999992e-02 0. 7.79999979e-03 0. 0.
      1.16999997e-02 0. 0. 0. 0. 0. 7.79999979e-03 0. 0. 0. 0. 0. 0. 0.
      0. 0. 0. 0. 0. 0. 0. 0. 0. 0. 0. 0. 3.89999989e-03 0. 0. 0.
      3.89999989e-03 0. 0. 0. 0. 0. 0. 0. 0. 0. 0. 0. 0. 0. 0. 0. 0. 0.
      0. 0. 0. 0. 0. 0. 0. 0. 3.89999989e-03 0. 0. 0. 0. 0.
      7.79999979e-03 3.89999989e-03 2.73000002e-02 3.89999989e-03
      1.95000004e-02 0. 0. 0. 1.16999997e-02 0. 0. 0. 3.89999989e-03 0.
      0. 3.89999989e-03 0. 0. 0. 0. 0. 0. 0. 0. 0. 0. 0. 0. 0. 0. 0.
      3.89999989e-03 0. 2.33999994e-02 1.16999997e-02 0. 0.
      3.89999989e-03 0. 0. 0. 0. 3.89999989e-03 0. 0. 3.89999989e-03 0.
      3.89999989e-03 3.89999989e-03 3.90999988e-02 2.73000002e-02 0.
      1.16999997e-02 0. 0. 0. 0. 1.16999997e-02 1.55999996e-02 0.
      1.16999997e-02 7.79999979e-03 3.89999989e-03 1.16999997e-02
      3.51999998e-02</_>
    <_>
      1.16999997e-02 1.95000004e-02 0. 0. 7.79999979e-03 0. 0.
      1.95000004e-02 0. 0. 0. 0. 0. 0. 0. 0. 1.55999996e-02
      1.95000004e-02 0. 0. 0. 0. 0. 0. 3.89999989e-03 0. 0. 0.
      1.95000004e-02 3.89999989e-03 0. 4.69000004e-02 0. 0. 0. 0. 0. 0.
      0. 0. 0. 0. 0. 0. 0. 0. 0. 0. 0. 0. 0. 0. 0. 0. 0. 0. 0. 0. 0. 0.
      0. 0. 0. 3.89999989e-03 1.16999997e-02 3.89999989e-03 0. 0.
      3.89999989e-03 0. 0. 3.89999989e-03 0. 0. 0. 0. 0. 0. 0. 0. 0. 0.
      0. 0. 0. 0. 0. 0. 0. 0. 0. 0. 3.89999989e-03 0. 0. 0.
      7.79999979e-03 0. 0. 0. 3.89999989e-03 0. 0. 0. 0. 0. 0. 0. 0. 0.
      0. 0. 5.07999994e-02 0. 3.89999989e-03 0. 0. 0. 0. 0.
      7.79999979e-03 0. 0. 0. 6.63999990e-02 0. 3.89999989e-03
      3.89999989e-03 0. 0. 0. 0. 0. 0. 0. 0. 0. 0. 0. 0. 0. 0. 0. 0. 0.
      3.89999989e-03 0. 0. 0. 0. 0. 0. 0. 0. 0. 0. 0. 3.89999989e-03 0.
      0. 0. 0. 0. 0. 0. 0. 0. 0. 0. 0. 0. 0. 0. 0. 0. 0. 0. 0. 0. 0. 0.
      0. 0. 0. 0. 0. 0. 0. 0. 0. 0. 0. 0. 2.73000002e-02 0.
      3.89999989e-03 0. 3.89999989e-03 0. 6.25000000e-02 0. 0. 0. 0. 0.
      0. 0. 0. 0. 0. 0. 3.89999989e-03 0. 0. 0. 0. 0. 0. 0. 0. 0. 0. 0.
      3.89999989e-03 0. 0. 0. 0. 0. 0. 3.89999989e-03 3.89999989e-03 0.
      0. 0. 0. 0. 0. 0. 1.55999996e-02 1.55999996e-02 9.38000008e-02 0.
      3.89999989e-03 3.89999989e-03 0. 0. 0. 0. 1.16999997e-02 0. 0.
      7.79999979e-03 7.79999979e-03 7.79999979e-03 3.63299996e-01</_>
    <_>
      1.55999996e-02 3.89999989e-03 0. 0. 7.79999979e-03 0. 0.
      1.55999996e-02 0. 0. 0. 0. 0. 0. 0. 0. 2.33999994e-02
      7.79999979e-03 0. 0. 0. 0. 0. 3.89999989e-03 3.89999989e-03 0. 0.
      0. 1.16999997e-02 1.16999997e-02 0. 6.63999990e-02 0. 0. 0. 0. 0.
      0. 0. 0. 0. 0. 0. 0. 0. 0. 0. 0. 0. 0. 0. 0. 0. 0. 0. 0. 0. 0. 0.
      0. 1.16999997e-02 0. 0. 1.16999997e-02 3.11999992e-02 0. 0. 0.
      2.33999994e-02 3.89999989e-03 0. 0. 0. 0. 0. 0. 3.89999989e-03 0.
      0. 0. 0. 0. 0. 0. 0. 0. 0. 0. 0. 0. 0. 0. 0. 0. 0. 0. 0. 0. 0. 0.
      0. 0. 0. 0. 0. 0. 0. 0. 0. 0. 0. 0. 3.11999992e-02 3.89999989e-03
      0. 0. 7.79999979e-03 0. 0. 0. 7.79999979e-03 0. 0. 0.
      8.20000023e-02 7.79999979e-03 1.16999997e-02 3.89999989e-03 0.
      3.89999989e-03 0. 0. 0. 0. 0. 0. 0. 0. 0. 0. 0. 0. 0. 0. 0. 0. 0.
      0. 0. 0. 0. 3.89999989e-03 0. 0. 0. 0. 0. 0. 0. 7.79999979e-03 0.
      0. 0. 0. 0. 0. 0. 0. 0. 0. 0. 0. 0. 0. 0. 0. 0. 0. 0. 0. 0. 0. 0.
      0. 0. 0. 0. 0. 0. 0. 0. 0. 3.89999989e-03 7.79999979e-03 0. 0.
      3.89999989e-03 7.79999979e-03 0. 3.51999998e-02 0. 0. 0. 0. 0. 0.
      0. 1.16999997e-02 0. 0. 0. 0. 0. 0. 0. 0. 0. 0. 0. 0. 0. 0. 0.
      1.16999997e-02 0. 0. 0. 0. 0. 0. 0. 0. 0. 0. 0. 0. 0. 0. 0. 0. 0.
      6.25000000e-02 0. 0. 0. 0. 0. 3.89999989e-03 1.16999997e-02
      7.79999979e-03 0. 0. 0. 1.95000004e-02 0. 3.82800013e-01</_>
    <_>
      1.95000004e-02 2.33999994e-02 0. 3.89999989e-03 2.73000002e-02
      3.89999989e-03 0. 3.51999998e-02 0. 0. 0. 0. 3.89999989e-03 0. 0.
      1.55999996e-02 1.55999996e-02 1.95000004e-02 0. 7.79999979e-03
      3.89999989e-03 0. 0. 7.79999979e-03 3.89999989e-03 0. 0. 0.
      7.79999979e-03 3.89999989e-03 1.55999996e-02 7.81000033e-02 0. 0.
      0. 0. 0. 0. 0. 0. 0. 0. 0. 0. 0. 0. 0. 0. 3.89999989e-03 0. 0. 0.
      0. 0. 0. 0. 0. 0. 0. 0. 0. 0. 0. 3.89999989e-03 2.33999994e-02 0.
      0. 0. 1.55999996e-02 0. 0. 0. 0. 0. 0. 0. 7.79999979e-03 0. 0. 0.
      3.89999989e-03 0. 0. 0. 7.79999979e-03 0. 0. 0. 0. 0. 0. 0.
      7.79999979e-03 0. 3.89999989e-03 0. 0. 0. 0. 0. 3.89999989e-03 0.
      0. 0. 0. 0. 0. 0. 0. 0. 0. 0. 3.89999989e-03 1.16999997e-02 0. 0.
      7.79999979e-03 0. 0. 0. 3.89999989e-03 0. 0. 0. 2.73000002e-02
      3.89999989e-03 3.89999989e-03 3.89999989e-03 0. 3.89999989e-03 0.
      0. 0. 0. 0. 0. 0. 0. 0. 0. 0. 0. 0. 0. 0. 0. 0. 0. 0. 0. 0. 0. 0.
      0. 0. 0. 0. 0. 0. 1.16999997e-02 0. 0. 0. 0. 0. 0. 0. 0. 0. 0. 0.
      0. 0. 0. 0. 0. 0. 3.89999989e-03 0. 0. 0. 0. 0. 0. 0. 0. 0. 0. 0.
      0. 0. 0. 7.79999979e-03 1.55999996e-02 0. 0. 0. 3.89999989e-03 0.
      3.51999998e-02 0. 0. 0. 0. 0. 0. 0. 7.79999979e-03 0.
      3.89999989e-03 0. 0. 0. 0. 0. 0. 0. 0. 0. 0. 0. 0. 0.
      1.95000004e-02 0. 0. 0. 3.89999989e-03 0. 0. 0. 7.79999979e-03 0.
      0. 0. 0. 0. 0. 0. 7.79999979e-03 7.79999979e-03 3.11999992e-02 0.
      3.89999989e-03 0. 0. 0. 3.89999989e-03 0. 3.89999989e-03 0. 0.
      7.79999979e-03 7.79999979e-03 3.89999989e-03 3.51599991e-01</_>
    <_>
      3.89999989e-03 1.16999997e-02 0. 0. 7.79999979e-03 0.
      3.89999989e-03 3.90999988e-02 0. 0. 0. 0. 0. 0. 3.89999989e-03 0.
      7.79999979e-03 3.51999998e-02 0. 0. 0. 0. 0. 3.89999989e-03 0. 0.
      0. 0. 2.33999994e-02 0. 0. 6.63999990e-02 0. 0. 0. 0. 0. 0. 0. 0.
      0. 0. 0. 0. 0. 0. 0. 0. 0. 3.89999989e-03 0. 0. 0. 0. 0. 0. 0. 0.
      0. 0. 3.89999989e-03 0. 0. 0. 1.55999996e-02 0. 0. 0.
      7.79999979e-03 0. 0. 0. 0. 0. 0. 0. 0. 0. 0. 0. 3.89999989e-03 0.
      0. 0. 0. 0. 0. 0. 0. 0. 0. 0. 0. 0. 0. 0. 0. 0. 0. 0.
      7.79999979e-03 0. 0. 0. 0. 0. 0. 0. 0. 0. 0. 0. 3.11999992e-02
      3.89999989e-03 0. 0. 0. 0. 0. 0. 0. 0. 0. 0. 2.73000002e-02 0.
      3.89999989e-03 7.79999979e-03 0. 0. 0. 0. 0. 0. 0. 0. 0. 0. 0. 0.
      0. 0. 0. 0. 0. 0. 0. 0. 0. 0. 0. 0. 0. 0. 0. 0. 0. 0. 0. 0. 0. 0.
      0. 0. 0. 0. 0. 0. 0. 0. 0. 0. 0. 0. 0. 0. 0. 0. 0. 0. 0. 0. 0. 0.
      0. 0. 0. 0. 0. 0. 0. 0. 0. 3.90999988e-02 0. 7.79999979e-03 0. 0.
      0. 3.90999988e-02 0. 0. 0. 0. 0. 0. 0. 3.89999989e-03 0.
      3.89999989e-03 0. 0. 0. 0. 0. 0. 0. 0. 0. 0. 0. 0. 0.
      1.95000004e-02 0. 0. 0. 3.89999989e-03 0. 0. 0. 7.79999979e-03 0.
      0. 0. 0. 0. 0. 0. 0. 0. 8.98000002e-02 0. 7.79999979e-03
      3.89999989e-03 3.89999989e-03 0. 1.55999996e-02 0. 0. 0. 0. 0.
      1.95000004e-02 0. 4.10200000e-01</_>
    <_>
      7.79999979e-03 7.79999979e-03 0. 0. 0. 0. 0. 1.95000004e-02 0. 0.
      0. 0. 0. 0. 0. 0. 3.11999992e-02 3.11999992e-02 0. 0.
      7.79999979e-03 0. 0. 0. 0. 0. 0. 0. 3.89999989e-03 1.55999996e-02
      0. 3.51999998e-02 0. 0. 0. 0. 0. 0. 0. 0. 0. 0. 0. 0. 0. 0. 0. 0.
      3.89999989e-03 0. 0. 0. 3.89999989e-03 0. 0. 0. 3.89999989e-03 0.
      0. 0. 3.89999989e-03 0. 0. 0. 7.79999979e-03 7.79999979e-03 0. 0.
      3.89999989e-03 0. 0. 0. 0. 0. 0. 0. 0. 0. 0. 0. 0. 0. 0. 0. 0. 0.
      0. 0. 0. 0. 0. 0. 3.89999989e-03 0. 0. 0. 3.89999989e-03 0. 0. 0.
      3.89999989e-03 0. 0. 0. 0. 0. 0. 0. 0. 0. 0. 0. 5.86000010e-02
      3.89999989e-03 0. 0. 3.89999989e-03 0. 0. 0. 3.89999989e-03 0. 0.
      0. 6.63999990e-02 3.89999989e-03 3.89999989e-03 0. 0. 0. 0. 0. 0.
      0. 0. 0. 0. 0. 0. 0. 0. 0. 0. 0. 0. 0. 0. 0. 0. 0. 0. 0. 0. 0. 0.
      0. 0. 0. 0. 0. 0. 0. 0. 0. 0. 0. 0. 0. 0. 0. 0. 0. 0. 0. 0. 0. 0.
      0. 0. 0. 0. 0. 0. 0. 0. 0. 0. 0. 0. 0. 0. 0. 0. 2.33999994e-02 0.
      0. 3.89999989e-03 3.89999989e-03 0. 3.51999998e-02 0. 0. 0. 0. 0.
      0. 0. 0. 0. 3.89999989e-03 0. 0. 0. 0. 0. 0. 0. 0. 0. 0. 0. 0. 0.
      7.79999979e-03 0. 0. 0. 0. 0. 0. 0. 3.89999989e-03 0. 0. 0. 0. 0.
      0. 0. 0. 0. 1.21100001e-01 0. 3.89999989e-03 0. 0. 0.
      3.89999989e-03 3.89999989e-03 7.79999979e-03 0. 0. 1.95000004e-02
      2.73000002e-02 7.79999979e-03 3.71100008e-01</_>
    <_>
      3.89999989e-03 7.79999979e-03 0. 0. 3.89999989e-03 0. 0.
      1.95000004e-02 0. 0. 0. 0. 0. 0. 0. 0. 1.16999997e-02
      5.46999983e-02 0. 0. 0. 0. 0. 0. 0. 0. 0. 0. 3.90999988e-02 0. 0.
      2.73000002e-02 0. 0. 0. 0. 0. 0. 0. 0. 0. 0. 0. 0. 0. 0. 0. 0. 0.
      0. 0. 0. 0. 0. 0. 0. 0. 3.89999989e-03 0. 0. 0. 0. 0.
      3.89999989e-03 7.79999979e-03 0. 0. 0. 2.73000002e-02 0. 0.
      3.89999989e-03 0. 0. 0. 0. 0. 0. 0. 0. 3.89999989e-03 0. 0. 0. 0.
      0. 0. 0. 0. 0. 0. 0. 0. 0. 0. 0. 0. 0. 0. 0. 0. 0. 0. 0. 0. 0. 0.
      0. 0. 0. 0. 0. 3.51999998e-02 1.16999997e-02 0. 0. 3.89999989e-03
      0. 0. 0. 7.79999979e-03 0. 0. 0. 6.63999990e-02 0. 3.89999989e-03
      1.55999996e-02 0. 0. 0. 0. 0. 0. 0. 3.89999989e-03 0. 0. 0. 0. 0.
      0. 0. 0. 0. 0. 0. 0. 0. 0. 0. 0. 0. 0. 0. 0. 0. 0. 0. 0. 0. 0. 0.
      0. 0. 0. 0. 0. 0. 0. 0. 0. 0. 0. 0. 0. 0. 0. 0. 0. 0. 0. 0. 0. 0.
      0. 0. 0. 0. 0. 0. 0. 0. 1.16999997e-02 0. 0. 3.89999989e-03
      3.89999989e-03 0. 1.95000004e-02 0. 0. 0. 0. 0. 0. 0.
      3.89999989e-03 0. 7.79999979e-03 0. 0. 0. 0. 0. 0. 0. 0. 0. 0. 0.
      0. 0. 7.79999979e-03 0. 0. 0. 0. 0. 0. 0. 0. 0. 0. 0. 0. 0. 0. 0.
      0. 0. 8.20000023e-02 0. 0. 0. 0. 0. 7.79999979e-03 0. 0. 0. 0.
      1.16999997e-02 1.55999996e-02 0. 4.56999987e-01</_>
    <_>
      1.55999996e-02 3.11999992e-02 0. 0. 1.55999996e-02 1.16999997e-02
      0. 5.07999994e-02 0. 0. 0. 0. 1.55999996e-02 0. 3.89999989e-03
      6.25000000e-02 1.16999997e-02 1.55999996e-02 0. 3.89999989e-03 0.
      0. 0. 0. 0. 0. 0. 0. 2.73000002e-02 3.89999989e-03 7.79999979e-03
      7.41999969e-02 0. 0. 0. 0. 0. 0. 0. 0. 0. 0. 0. 0. 0. 0. 0. 0. 0.
      3.89999989e-03 0. 0. 0. 0. 0. 0. 0. 0. 0. 0. 3.89999989e-03 0. 0.
      3.89999989e-03 3.89999989e-03 0. 0. 0. 1.55999996e-02 0. 0.
      3.89999989e-03 0. 0. 0. 0. 3.89999989e-03 0. 0. 0. 7.79999979e-03
      0. 0. 0. 0. 0. 0. 0. 0. 0. 0. 0. 0. 0. 0. 3.89999989e-03 0. 0. 0.
      0. 0. 0. 0. 0. 0. 0. 0. 0. 0. 0. 0. 0. 1.16999997e-02 0. 0. 0. 0.
      0. 0. 0. 0. 0. 0. 0. 1.95000004e-02 0. 0. 1.55999996e-02 0.
      1.55999996e-02 0. 0. 0. 0. 0. 7.79999979e-03 0. 0. 0. 0. 0. 0. 0.
      2.33999994e-02 0. 7.79999979e-03 0. 0. 0. 0. 0. 3.89999989e-03 0.
      0. 0. 0. 0. 0. 0. 3.51999998e-02 0. 0. 0. 0. 0. 0. 0. 0. 0. 0. 0.
      0. 0. 0. 0. 0. 0. 0. 0. 0. 0. 0. 0. 0. 0. 0. 0. 0. 0. 0. 0. 0. 0.
      7.79999979e-03 0. 0. 0. 7.79999979e-03 0. 4.69000004e-02 0. 0. 0.
      0. 0. 0. 0. 0. 7.79999979e-03 0. 0. 0. 0. 0. 0. 0. 0. 0. 0. 0. 0.
      0. 0. 3.51999998e-02 0. 0. 0. 0. 0. 0. 0. 0. 0. 0. 0. 0. 0. 0. 0.
      0. 0. 3.89999989e-03 0. 0. 0. 0. 0. 0. 0. 0. 0. 0. 0. 0. 0.
      3.47700000e-01</_>
    <_>
      1.16999997e-02 1.95000004e-02 0. 0. 1.16999997e-02 0. 0.
      3.89999989e-03 0. 0. 0. 0. 0. 3.89999989e-03 0. 3.89999989e-03
      1.16999997e-02 1.16999997e-02 0. 0. 0. 0. 0. 7.79999979e-03 0.
      3.89999989e-03 0. 0. 1.16999997e-02 0. 3.89999989e-03
      2.33999994e-02 0. 0. 0. 0. 0. 0. 0. 3.89999989e-03 0. 0. 0. 0. 0.
      0. 0. 0. 0. 0. 0. 0. 0. 0. 0. 0. 0. 0. 0. 0. 0. 0. 0.
      7.79999979e-03 2.33999994e-02 0. 0. 0. 1.95000004e-02 0. 0. 0. 0.
      0. 0. 0. 0. 0. 0. 0. 0. 0. 0. 0. 0. 0. 0. 0. 0. 0. 0. 0. 0. 0. 0.
      0. 0. 0. 0. 0. 0. 0. 0. 0. 0. 0. 0. 0. 0. 0. 0. 0. 2.33999994e-02
      0. 0. 3.89999989e-03 0. 0. 0. 0. 3.89999989e-03 0. 0. 0.
      1.95000004e-02 0. 3.89999989e-03 7.79999979e-03 0. 0. 0. 0. 0. 0.
      0. 0. 0. 0. 0. 0. 0. 0. 0. 0. 0. 0. 0. 0. 0. 0. 0. 0. 0. 0. 0. 0.
      0. 0. 0. 3.89999989e-03 0. 0. 0. 0. 0. 0. 0. 0. 0. 0. 0. 0. 0. 0.
      0. 0. 0. 0. 0. 0. 0. 0. 0. 0. 0. 0. 0. 0. 0. 0. 0. 0. 0.
      1.95000004e-02 0. 0. 0. 3.89999989e-03 0. 5.86000010e-02 0. 0. 0.
      0. 0. 0. 0. 3.89999989e-03 0. 3.89999989e-03 0. 0. 0. 0. 0. 0. 0.
      0. 0. 0. 0. 0. 0. 7.79999979e-03 0. 3.89999989e-03 0. 0. 0. 0. 0.
      0. 0. 0. 0. 0. 0. 0. 0. 3.89999989e-03 3.89999989e-03
      1.40599996e-01 0. 3.89999989e-03 0. 0. 0. 1.55999996e-02 0. 0. 0.
      0. 0. 1.95000004e-02 7.79999979e-03 4.53099996e-01</_>
    <_>
      4.30000015e-02 7.79999979e-03 3.89999989e-03 3.89999989e-03
      3.11999992e-02 7.79999979e-03 3.89999989e-03 7.79999979e-03 0. 0.
      0. 0. 0. 0. 0. 0. 7.79999979e-03 0. 0. 0. 7.79999979e-03 0. 0. 0.
      3.89999989e-03 0. 0. 0. 2.73000002e-02 0. 3.89999989e-03
      1.16999997e-02 0. 0. 0. 0. 0. 0. 0. 0. 0. 0. 0. 0. 0. 0. 0. 0.
      7.79999979e-03 3.89999989e-03 0. 0. 0. 0. 0. 3.89999989e-03
      1.95000004e-02 0. 0. 0. 7.81000033e-02 0. 1.16999997e-02
      3.89999989e-03 5.46999983e-02 0. 0. 0. 7.79999979e-03
      3.89999989e-03 0. 3.89999989e-03 0. 0. 0. 0. 3.89999989e-03 0. 0.
      0. 0. 0. 0. 0. 0. 0. 0. 0. 0. 0. 0. 0. 7.79999979e-03 0. 0. 0.
      3.89999989e-03 3.89999989e-03 0. 0. 0. 0. 0. 0. 0. 0. 0. 0. 0. 0.
      0. 0. 1.55999996e-02 0. 0. 0. 7.79999979e-03 0. 3.89999989e-03 0.
      2.73000002e-02 0. 0. 0. 3.90999988e-02 0. 7.79999979e-03
      7.79999979e-03 0. 7.79999979e-03 0. 1.16999997e-02 0. 0. 0.
      1.95000004e-02 0. 0. 0. 0. 0. 0. 0. 0. 0. 0. 0. 0. 0. 0. 0. 0. 0.
      0. 0. 0. 0. 0. 0. 7.79999979e-03 0. 0. 0. 0. 0. 0. 0. 0. 0. 0. 0.
      0. 0. 0. 0. 0. 0. 3.89999989e-03 0. 3.89999989e-03 0. 0. 0. 0. 0.
      0. 0. 3.89999989e-03 0. 3.89999989e-03 0. 1.16999997e-02
      1.16999997e-02 4.69000004e-02 0. 3.90999988e-02 1.16999997e-02 0.
      0. 2.73000002e-02 0. 0. 0. 0. 0. 0. 0. 0. 0. 0. 0. 0.
      3.89999989e-03 0. 0. 0. 3.89999989e-03 0. 0. 3.89999989e-03 0. 0.
      0. 0. 1.16999997e-02 1.95000004e-02 0. 3.51999998e-02 0. 0. 0.
      7.79999979e-03 0. 0. 0. 0. 0. 0. 0. 0. 1.55999996e-02
      5.07999994e-02 0. 2.33999994e-02 0. 0. 0. 0. 1.95000004e-02
      2.33999994e-02 0. 3.89999989e-03 7.79999979e-03 3.89999989e-03
      3.89999989e-03 5.07999994e-02</_>
    <_>
      7.79999979e-03 7.79999979e-03 0. 0. 2.73000002e-02 0. 0.
      3.11999992e-02 0. 0. 0. 0. 3.89999989e-03 0. 0. 0. 1.55999996e-02
      7.79999979e-03 0. 0. 0. 0. 0. 3.89999989e-03 3.89999989e-03 0. 0.
      0. 4.69000004e-02 1.16999997e-02 7.79999979e-03 3.11999992e-02 0.
      0. 0. 0. 0. 0. 0. 0. 0. 0. 0. 0. 0. 0. 0. 0. 3.89999989e-03 0. 0.
      0. 0. 0. 0. 0. 7.79999979e-03 0. 0. 0. 1.55999996e-02 0.
      3.89999989e-03 0. 1.95000004e-02 0. 0. 0. 7.79999979e-03 0. 0. 0.
      0. 0. 0. 0. 0. 0. 0. 0. 0. 0. 0. 0. 0. 0. 0. 0. 0. 0. 0. 0.
      3.89999989e-03 0. 0. 3.89999989e-03 0. 0. 0. 0. 0. 0. 0. 0. 0. 0.
      0. 0. 0. 0. 0. 0. 3.11999992e-02 3.89999989e-03 0. 0.
      3.89999989e-03 0. 0. 3.89999989e-03 3.89999989e-03 0. 0. 0.
      1.40599996e-01 0. 3.89999989e-03 1.95000004e-02 0. 0. 0. 0. 0. 0.
      0. 7.79999979e-03 0. 0. 0. 0. 0. 0. 0. 0. 0. 3.89999989e-03 0. 0.
      0. 0. 0. 0. 0. 0. 0. 0. 0. 0. 0. 7.79999979e-03 0. 0. 0. 0. 0. 0.
      0. 0. 0. 0. 0. 0. 0. 0. 0. 0. 0. 0. 0. 0. 0. 0. 0. 0. 0. 0. 0. 0.
      0. 0. 0. 3.89999989e-03 0. 2.33999994e-02 0. 7.79999979e-03 0. 0.
      0. 9.38000008e-02 0. 0. 0. 0. 0. 0. 0. 0. 0. 0. 0. 0. 0. 0. 0. 0.
      0. 0. 0. 0. 0. 0. 0. 3.89999989e-03 0. 3.89999989e-03 0. 0. 0. 0.
      0. 0. 0. 0. 0. 0. 0. 0. 0. 3.89999989e-03 3.89999989e-03
      6.63999990e-02 0. 7.79999979e-03 0. 0. 0. 3.89999989e-03 0. 0. 0.
      0. 3.89999989e-03 1.55999996e-02 0. 2.53899992e-01</_>
    <_>
      7.79999979e-03 0. 0. 0. 2.73000002e-02 0. 0. 1.16999997e-02 0. 0.
      0. 0. 0. 0. 0. 0. 0. 0. 0. 0. 0. 0. 0. 0. 3.89999989e-03 0. 0. 0.
      1.95000004e-02 0. 0. 5.86000010e-02 0. 0. 0. 0. 0. 0. 0. 0. 0. 0.
      0. 0. 0. 0. 0. 0. 0. 0. 0. 0. 0. 0. 0. 0. 7.79999979e-03 0. 0. 0.
      1.55999996e-02 0. 0. 0. 1.55999996e-02 0. 0. 0. 6.25000000e-02 0.
      3.89999989e-03 1.16999997e-02 0. 0. 0. 0. 0. 0. 0. 0. 0. 0. 0. 0.
      0. 0. 0. 0. 0. 0. 0. 0. 0. 0. 0. 0. 0. 0. 0. 0. 0. 0. 0. 0. 0. 0.
      0. 0. 0. 0. 0. 0. 2.33999994e-02 0. 0. 0. 7.79999979e-03 0. 0. 0.
      7.79999979e-03 0. 0. 0. 1.21100001e-01 0. 1.16999997e-02
      3.89999989e-03 0. 0. 0. 0. 0. 0. 0. 0. 0. 0. 0. 0. 0. 0. 0. 0. 0.
      0. 0. 0. 0. 0. 0. 0. 0. 0. 0. 0. 0. 0. 0. 1.16999997e-02 0. 0. 0.
      0. 0. 0. 0. 0. 0. 0. 0. 0. 0. 0. 0. 0. 0. 0. 0. 0. 0. 0. 0. 0. 0.
      0. 0. 0. 0. 0. 0. 1.55999996e-02 0. 2.73000002e-02 0. 0. 0. 0. 0.
      7.81000033e-02 0. 0. 0. 0. 0. 0. 0. 3.89999989e-03 0. 0. 0. 0. 0.
      0. 0. 0. 0. 0. 0. 0. 0. 0. 0. 0. 0. 0. 0. 0. 0. 0. 0. 0. 0. 0. 0.
      0. 0. 0. 0. 0. 0. 7.81000033e-02 0. 3.89999989e-03 0. 0. 0.
      3.89999989e-03 0. 0. 0. 0. 3.89999989e-03 1.16999997e-02 0.
      3.39800000e-01</_>
    <_>
      2.33999994e-02 1.95000004e-02 0. 3.89999989e-03 2.73000002e-02
      3.89999989e-03 1.16999997e-02 5.86000010e-02 0. 0. 0. 0.
      7.79999979e-03 3.89999989e-03 3.89999989e-03 3.90999988e-02
      2.33999994e-02 0. 0. 0. 0. 0. 0. 3.89999989e-03 1.16999997e-02 0.
      0. 0. 1.16999997e-02 0. 0. 1.95000004e-02 0. 0. 0. 0. 0. 0. 0. 0.
      0. 0. 0. 0. 0. 0. 0. 0. 3.89999989e-03 0. 0. 0. 0. 0. 0. 0.
      1.16999997e-02 0. 0. 0. 3.89999989e-03 0. 3.89999989e-03
      2.33999994e-02 3.11999992e-02 3.89999989e-03 0. 0. 1.16999997e-02
      3.89999989e-03 0. 0. 0. 0. 0. 0. 0. 0. 0. 0. 7.79999979e-03 0. 0.
      0. 0. 0. 0. 0. 0. 0. 0. 0. 3.89999989e-03 0. 0. 0. 7.79999979e-03
      3.89999989e-03 0. 0. 0. 0. 0. 0. 0. 0. 0. 0. 0. 0. 0. 0.
      5.07999994e-02 0. 0. 0. 0. 0. 0. 3.89999989e-03 1.67999998e-01 0.
      3.89999989e-03 0. 5.46999983e-02 0. 1.16999997e-02 1.55999996e-02
      3.89999989e-03 3.89999989e-03 0. 0. 0. 0. 0. 1.01599999e-01 0.
      3.89999989e-03 0. 0. 0. 3.89999989e-03 0. 4.30000015e-02 0. 0. 0.
      0. 0. 0. 0. 0. 0. 0. 0. 0. 0. 0. 0. 7.79999979e-03 0. 0. 0. 0. 0.
      0. 0. 0. 0. 0. 0. 0. 0. 0. 0. 0. 0. 0. 0. 0. 0. 0. 0. 0. 0. 0. 0.
      0. 0. 0. 0. 1.16999997e-02 0. 0. 0. 0. 0. 0. 0. 0. 0. 0. 0.
      3.89999989e-03 3.89999989e-03 3.89999989e-03 0. 0. 0. 0. 0. 0. 0.
      0. 0. 0. 0. 0. 0. 0. 3.89999989e-03 0. 0. 3.89999989e-03 0.
      7.79999979e-03 0. 3.89999989e-03 0. 0. 0. 0. 0. 0. 0. 0. 0. 0. 0.
      7.79999979e-03 3.11999992e-02 7.79999979e-03 0. 0. 0. 0. 0. 0.
      1.55999996e-02 0. 0. 0. 0. 0. 3.89999989e-03 1.95000004e-02</_>
    <_>
      3.11999992e-02 2.33999994e-02 0. 3.89999989e-03 2.73000002e-02 0.
      0. 5.46999983e-02 3.89999989e-03 0. 0. 0. 1.16999997e-02 0.
      7.79999979e-03 3.11999992e-02 2.73000002e-02 1.16999997e-02 0. 0.
      3.89999989e-03 0. 0. 0. 1.55999996e-02 0. 0. 0. 4.69000004e-02 0.
      4.69000004e-02 3.11999992e-02 3.89999989e-03 0. 0. 0. 0. 0. 0. 0.
      0. 0. 0. 0. 0. 0. 0. 0. 7.79999979e-03 0. 0. 0. 0. 0. 0. 0. 0. 0.
      0. 0. 2.33999994e-02 0. 2.73000002e-02 1.16999997e-02
      1.16999997e-02 0. 0. 0. 0. 0. 3.89999989e-03 0. 0. 0. 0. 0. 0. 0.
      0. 0. 0. 0. 0. 0. 0. 0. 0. 0. 0. 0. 0. 0. 7.79999979e-03 0. 0. 0.
      0. 0. 0. 0. 0. 0. 0. 7.79999979e-03 0. 0. 0. 0. 0. 0. 0. 0.
      3.11999992e-02 0. 0. 0. 3.89999989e-03 0. 0. 0. 2.73000002e-02 0.
      0. 0. 4.30000015e-02 0. 3.89999989e-03 7.79999979e-03 0.
      2.73000002e-02 0. 1.16999997e-02 0. 0. 0. 5.86000010e-02 0. 0. 0.
      0. 0. 0. 0. 2.33999994e-02 0. 0. 0. 0. 0. 0. 0. 0. 0. 0. 0. 0. 0.
      3.89999989e-03 0. 0. 0. 0. 0. 0. 0. 0. 0. 0. 0. 0. 0. 0. 0. 0. 0.
      0. 0. 0. 0. 3.89999989e-03 0. 0. 0. 0. 0. 0. 0. 3.89999989e-03 0.
      0. 0. 7.79999979e-03 0. 1.95000004e-02 0. 1.95000004e-02 0.
      3.89999989e-03 3.89999989e-03 3.90999988e-02 0. 0. 0. 0. 0. 0. 0.
      7.79999979e-03 0. 3.89999989e-03 0. 3.89999989e-03 0. 0. 0. 0. 0.
      0. 0. 0. 0. 0. 0. 3.89999989e-03 3.89999989e-03 0. 0.
      3.89999989e-03 3.89999989e-03 0. 0. 3.89999989e-03 0. 0. 0. 0. 0.
      0. 0. 1.16999997e-02 7.79999979e-03 7.79999979e-03 3.89999989e-03
      3.89999989e-03 0. 0. 3.89999989e-03 3.89999989e-03 1.55999996e-02
      3.89999989e-03 0. 3.89999989e-03 1.16999997e-02 1.16999997e-02
      7.79999979e-03 3.90999988e-02</_>
    <_>
      4.30000015e-02 1.95000004e-02 3.89999989e-03 1.55999996e-02
      3.90999988e-02 3.89999989e-03 2.33999994e-02 4.30000015e-02
      3.89999989e-03 0. 0. 0. 0. 0. 1.55999996e-02 1.95000004e-02
      7.79999979e-03 0. 3.89999989e-03 0. 7.79999979e-03 0.
      3.89999989e-03 0. 7.79999979e-03 0. 0. 0. 2.33999994e-02 0.
      1.55999996e-02 1.95000004e-02 0. 0. 0. 0. 0. 0. 0. 0. 0. 0. 0. 0.
      0. 0. 0. 0. 2.33999994e-02 0. 0. 0. 0. 0. 0. 0. 3.89999989e-03 0.
      0. 0. 1.55999996e-02 0. 3.89999989e-03 3.89999989e-03
      7.79999979e-03 3.89999989e-03 0. 0. 1.16999997e-02 0. 0.
      3.89999989e-03 0. 0. 0. 0. 3.89999989e-03 0. 0. 0. 0. 0. 0. 0. 0.
      0. 0. 0. 0. 0. 0. 0. 0. 3.89999989e-03 0. 0. 3.89999989e-03 0. 0.
      0. 0. 0. 0. 0. 0. 0. 0. 0. 0. 0. 0. 0. 1.55999996e-02 0. 0. 0. 0.
      0. 0. 0. 1.55999996e-02 0. 0. 0. 2.73000002e-02 0. 0. 0. 0.
      3.89999989e-03 0. 1.16999997e-02 0. 0. 0. 3.51999998e-02 0. 0. 0.
      3.89999989e-03 0. 0. 0. 1.55999996e-02 0. 0. 0. 0. 0. 0. 0. 0. 0.
      3.89999989e-03 0. 0. 0. 0. 0. 1.16999997e-02 0. 0. 0. 0. 0. 0. 0.
      0. 0. 0. 0. 0. 0. 0. 0. 0. 0. 0. 0. 0. 0. 0. 0. 0. 0. 0. 0. 0.
      3.89999989e-03 3.89999989e-03 0. 2.33999994e-02 7.79999979e-03
      3.11999992e-02 0. 1.52300000e-01 0. 0. 0. 7.81000033e-02 0. 0. 0.
      7.79999979e-03 0. 0. 0. 1.16999997e-02 0. 0. 0. 0. 0. 0. 0.
      3.89999989e-03 0. 3.89999989e-03 0. 0. 0. 0. 0. 1.55999996e-02 0.
      1.16999997e-02 0. 7.79999979e-03 0. 0. 0. 3.89999989e-03 0. 0. 0.
      0. 0. 0. 0. 3.89999989e-03 3.89999989e-03 7.79999979e-03 0.
      3.89999989e-03 0. 0. 0. 7.79999979e-03 3.89999989e-03 0. 0.
      7.79999979e-03 3.89999989e-03 3.89999989e-03 0. 3.11999992e-02</_>
    <_>
      7.79999979e-03 1.55999996e-02 0. 0. 0. 7.79999979e-03
      3.89999989e-03 2.33999994e-02 0. 0. 0. 0. 0. 0. 0. 3.89999989e-03
      1.16999997e-02 0. 0. 0. 0. 0. 0. 3.89999989e-03 3.89999989e-03 0.
      0. 3.89999989e-03 1.55999996e-02 7.79999979e-03 0. 5.46999983e-02
      0. 0. 0. 0. 0. 0. 0. 0. 0. 0. 0. 0. 0. 0. 0. 0. 0. 0. 0. 0. 0. 0.
      0. 0. 0. 0. 0. 0. 3.89999989e-03 0. 0. 3.89999989e-03
      1.16999997e-02 0. 0. 0. 1.16999997e-02 0. 0. 0. 0. 0. 0. 0. 0. 0.
      0. 0. 0. 0. 0. 0. 0. 0. 0. 0. 0. 0. 0. 0. 0. 0. 0. 0. 0. 0. 0. 0.
      0. 0. 0. 0. 0. 0. 0. 0. 0. 0. 0. 0. 1.16999997e-02 3.89999989e-03
      0. 0. 0. 0. 0. 0. 3.89999989e-03 0. 0. 0. 1.01599999e-01 0. 0.
      1.55999996e-02 0. 0. 0. 0. 0. 0. 0. 0. 0. 0. 0. 0. 0. 0. 0. 0. 0.
      0. 0. 0. 0. 0. 0. 0. 0. 0. 0. 0. 0. 0. 0. 7.79999979e-03 0. 0. 0.
      0. 0. 0. 0. 0. 0. 0. 0. 0. 0. 0. 0. 0. 0. 0. 0. 0. 0. 0. 0. 0. 0.
      0. 0. 0. 0. 0. 0. 0. 3.89999989e-03 5.46999983e-02 0. 0. 0.
      3.89999989e-03 0. 1.56200007e-01 0. 0. 0. 0. 0. 0. 0. 0. 0.
      1.16999997e-02 0. 3.89999989e-03 0. 0. 0. 0. 0. 0. 0. 0. 0. 0. 0.
      3.89999989e-03 3.89999989e-03 0. 0. 0. 0. 0. 0. 1.16999997e-02 0.
      0. 0. 0. 0. 0. 0. 0. 0. 3.51999998e-02 0. 1.55999996e-02 0. 0. 0.
      2.73000002e-02 0. 0. 0. 0. 3.89999989e-03 3.89999989e-03 0.
      3.20300013e-01</_>
    <_>
      1.16999997e-02 0. 0. 0. 2.33999994e-02 0. 0. 3.11999992e-02 0. 0.
      0. 0. 3.89999989e-03 0. 0. 3.89999989e-03 0. 0. 0. 0. 0. 0. 0. 0.
      0. 0. 0. 0. 1.55999996e-02 0. 3.89999989e-03 4.69000004e-02 0. 0.
      0. 0. 0. 0. 0. 0. 0. 0. 0. 0. 0. 0. 0. 0. 3.89999989e-03 0. 0. 0.
      0. 0. 0. 0. 3.89999989e-03 0. 0. 0. 3.89999989e-03 0. 0.
      3.89999989e-03 3.11999992e-02 0. 0. 0. 5.07999994e-02 0. 0. 0. 0.
      0. 0. 0. 0. 0. 3.89999989e-03 0. 0. 0. 0. 0. 0. 0. 0. 0. 0. 0. 0.
      0. 0. 0. 0. 0. 0. 0. 0. 0. 7.79999979e-03 0. 0. 0. 0. 0. 0. 0. 0.
      0. 0. 0. 3.11999992e-02 0. 0. 0. 0. 0. 0. 0. 3.89999989e-03 0. 0.
      0. 5.07999994e-02 0. 3.89999989e-03 7.79999979e-03 0. 0. 0.
      7.79999979e-03 0. 0. 0. 1.55999996e-02 0. 0. 0. 0. 0. 0. 0. 0. 0.
      0. 0. 0. 0. 0. 0. 0. 0. 0. 0. 0. 3.89999989e-03 3.89999989e-03 0.
      0. 0. 0. 0. 0. 0. 0. 0. 0. 0. 0. 0. 0. 0. 0. 0. 0. 0. 0. 0. 0. 0.
      0. 0. 0. 0. 0. 0. 3.89999989e-03 0. 0. 0. 7.79999979e-03 0.
      2.33999994e-02 0. 1.55999996e-02 0. 0. 0. 7.81000033e-02 0. 0. 0.
      0. 0. 0. 0. 0. 0. 0. 0. 0. 0. 0. 0. 0. 0. 0. 0. 0. 0. 0. 0.
      3.89999989e-03 3.89999989e-03 3.89999989e-03 0. 0. 0. 0. 0.
      1.16999997e-02 0. 0. 0. 0. 0. 0. 0. 0. 0. 5.46999983e-02 0.
      7.79999979e-03 0. 0. 0. 0. 0. 0. 0. 1.16999997e-02 1.16999997e-02
      1.55999996e-02 0. 3.67199987e-01</_>
    <_>
      3.51999998e-02 2.33999994e-02 0. 3.51999998e-02 1.95000004e-02 0.
      3.89999989e-03 6.25000000e-02 0. 0. 0. 0. 7.79999979e-03 0.
      1.55999996e-02 4.69000004e-02 7.79999979e-03 3.89999989e-03 0. 0.
      3.89999989e-03 0. 3.89999989e-03 1.16999997e-02 3.89999989e-03
      3.89999989e-03 0. 0. 5.07999994e-02 3.89999989e-03 4.69000004e-02
      2.73000002e-02 0. 0. 0. 0. 0. 0. 0. 0. 0. 0. 0. 0. 0. 0. 0. 0.
      1.16999997e-02 0. 0. 0. 0. 0. 3.89999989e-03 0. 3.89999989e-03 0.
      0. 0. 3.90999988e-02 0. 2.73000002e-02 0. 3.89999989e-03
      3.89999989e-03 0. 0. 3.89999989e-03 0. 0. 3.89999989e-03 0. 0. 0.
      0. 0. 0. 3.89999989e-03 3.89999989e-03 0. 0. 0. 0. 0. 0. 0. 0.
      3.89999989e-03 0. 0. 0. 0. 0. 0. 0. 7.79999979e-03 0. 0. 0. 0. 0.
      0. 0. 0. 0. 0. 0. 0. 0. 0. 0. 7.79999979e-03 0. 0. 3.89999989e-03
      3.89999989e-03 0. 0. 0. 3.89999989e-03 0. 0. 0. 2.33999994e-02 0.
      3.89999989e-03 0. 0. 1.55999996e-02 0. 1.16999997e-02
      3.89999989e-03 0. 0. 1.95000004e-02 0. 0. 0. 0. 0. 0. 0.
      3.11999992e-02 0. 0. 0. 0. 0. 0. 0. 0. 0. 0. 0. 0. 0. 0. 0.
      1.55999996e-02 0. 0. 0. 0. 0. 0. 0. 0. 0. 0. 0. 0. 0. 0. 0. 0. 0.
      0. 0. 0. 0. 0. 0. 0. 0. 0. 0. 0. 0. 0. 0. 3.89999989e-03 0.
      3.90999988e-02 0. 1.95000004e-02 0. 0. 0. 4.30000015e-02 0. 0. 0.
      3.89999989e-03 0. 0. 0. 4.69000004e-02 0. 3.89999989e-03 0. 0. 0.
      0. 0. 3.89999989e-03 0. 3.89999989e-03 0. 0. 0. 0. 0.
      3.89999989e-03 0. 2.73000002e-02 0. 1.55999996e-02 0. 0. 0.
      1.16999997e-02 0. 0. 0. 0. 0. 0. 0. 1.16999997e-02 3.89999989e-03
      7.79999979e-03 0. 3.89999989e-03 0. 0. 0. 0. 3.89999989e-03 0. 0.
      0. 7.79999979e-03 3.89999989e-03 3.89999989e-03 4.30000015e-02</_>
    <_>
      3.89999989e-03 7.79999979e-03 0. 3.89999989e-03 1.55999996e-02
      3.89999989e-03 0. 3.90999988e-02 0. 0. 0. 0. 0. 0. 0. 0.
      3.89999989e-03 3.89999989e-03 0. 0. 3.89999989e-03 0. 0.
      3.89999989e-03 0. 0. 0. 0. 1.16999997e-02 0. 0. 7.02999979e-02 0.
      0. 0. 0. 0. 0. 0. 0. 0. 0. 0. 0. 0. 0. 0. 0. 3.89999989e-03 0. 0.
      0. 0. 0. 0. 0. 0. 0. 0. 0. 0. 0. 0. 0. 1.55999996e-02 0. 0. 0.
      4.69000004e-02 3.89999989e-03 0. 3.89999989e-03 0. 0. 0. 0. 0. 0.
      0. 0. 0. 0. 0. 0. 3.89999989e-03 0. 0. 0. 0. 0. 0. 0.
      3.89999989e-03 0. 0. 0. 0. 0. 0. 0. 0. 0. 0. 0. 0. 0. 0. 0. 0. 0.
      0. 0. 7.79999979e-03 0. 0. 0. 0. 0. 0. 0. 0. 0. 0. 0.
      5.07999994e-02 0. 0. 3.89999989e-03 0. 0. 0. 0. 0. 0. 0.
      7.79999979e-03 0. 0. 0. 0. 0. 0. 0. 3.89999989e-03 0. 0. 0. 0. 0.
      0. 0. 0. 0. 0. 0. 0. 0. 0. 0. 3.89999989e-03 0. 0. 0. 0. 0. 0. 0.
      0. 0. 0. 0. 0. 0. 0. 0. 0. 0. 0. 0. 0. 0. 0. 0. 0. 0. 0. 0. 0. 0.
      0. 0. 0. 0. 3.90999988e-02 0. 3.89999989e-03 0. 0. 0.
      1.32799998e-01 0. 0. 0. 0. 0. 0. 0. 7.79999979e-03 0. 0. 0. 0. 0.
      0. 0. 0. 0. 0. 0. 0. 0. 0. 0. 1.16999997e-02 0. 0. 0.
      3.89999989e-03 0. 0. 0. 1.16999997e-02 0. 0. 0. 0. 0. 0. 0.
      3.89999989e-03 0. 5.86000010e-02 0. 3.89999989e-03 0. 0. 0.
      1.55999996e-02 0. 0. 0. 0. 0. 0. 0. 3.75000000e-01</_>
    <_>
      1.16999997e-02 0. 0. 0. 7.79999979e-03 0. 0. 7.79999979e-03 0. 0.
      0. 0. 0. 0. 0. 0. 3.89999989e-03 3.89999989e-03 0. 0. 0.
      3.89999989e-03 0. 0. 0. 0. 0. 0. 1.16999997e-02 0. 0.
      5.86000010e-02 0. 0. 0. 0. 0. 0. 0. 0. 0. 0. 0. 0. 0. 0. 0. 0. 0.
      0. 0. 0. 0. 0. 0. 0. 0. 0. 0. 0. 0. 0. 0. 0. 1.95000004e-02 0. 0.
      0. 7.41999969e-02 0. 0. 0. 0. 0. 0. 0. 0. 0. 0. 0. 0. 0. 0. 0. 0.
      0. 0. 0. 0. 0. 0. 0. 0. 0. 0. 0. 0. 0. 0. 0. 0. 0. 0. 0. 0. 0. 0.
      0. 0. 0. 0. 0. 1.95000004e-02 3.89999989e-03 0. 0. 3.89999989e-03
      0. 0. 0. 3.89999989e-03 0. 0. 0. 1.25000000e-01 0. 3.89999989e-03
      0. 0. 0. 0. 0. 0. 0. 0. 0. 0. 0. 0. 0. 0. 0. 0. 0. 0. 0. 0. 0. 0.
      0. 0. 0. 0. 0. 0. 0. 0. 0. 0. 0. 0. 0. 0. 0. 0. 0. 0. 0. 0. 0. 0.
      0. 0. 0. 0. 0. 0. 0. 0. 0. 0. 0. 0. 0. 0. 0. 0. 0. 0. 0. 0.
      3.89999989e-03 0. 1.55999996e-02 0. 0. 0. 0. 0. 8.59000012e-02 0.
      0. 0. 0. 0. 0. 0. 0. 0. 0. 0. 0. 0. 0. 0. 0. 0. 0. 0. 0. 0. 0. 0.
      0. 0. 3.89999989e-03 0. 0. 0. 0. 0. 3.89999989e-03 0. 0. 0. 0. 0.
      0. 0. 0. 7.79999979e-03 5.86000010e-02 0. 1.16999997e-02 0. 0. 0.
      0. 0. 7.79999979e-03 0. 0. 7.79999979e-03 1.16999997e-02 0.
      4.18000013e-01</_>
    <_>
      2.73000002e-02 1.55999996e-02 0. 0. 2.33999994e-02 0.
      3.89999989e-03 3.89999989e-03 0. 0. 0. 0. 2.33999994e-02 0.
      3.89999989e-03 1.16999997e-02 1.95000004e-02 7.79999979e-03 0. 0.
      0. 0. 0. 0. 1.95000004e-02 0. 3.89999989e-03 0. 3.90999988e-02 0.
      7.41999969e-02 2.33999994e-02 3.89999989e-03 0. 0. 0. 0. 0. 0. 0.
      0. 0. 0. 0. 0. 0. 0. 0. 3.11999992e-02 0. 0. 0. 0. 0. 0. 0.
      3.11999992e-02 0. 0. 0. 6.25000000e-02 0. 7.79999979e-03
      3.89999989e-03 1.16999997e-02 3.89999989e-03 0. 0. 3.89999989e-03
      0. 3.89999989e-03 0. 0. 0. 0. 0. 3.89999989e-03 0. 0.
      3.89999989e-03 0. 0. 0. 0. 0. 0. 0. 0. 3.89999989e-03 0. 0. 0.
      3.89999989e-03 0. 0. 0. 3.11999992e-02 0. 0. 0. 0. 0. 0. 0. 0. 0.
      0. 0. 0. 0. 0. 0. 3.90999988e-02 3.89999989e-03 0. 0. 0. 0. 0. 0.
      9.38000008e-02 0. 3.89999989e-03 3.89999989e-03 6.25000000e-02 0.
      3.89999989e-03 3.89999989e-03 0. 0. 0. 0. 0. 3.89999989e-03 0. 0.
      0. 0. 0. 0. 0. 0. 0. 0. 0. 0. 0. 0. 0. 0. 0. 0. 0. 0. 0. 0. 0. 0.
      0. 7.79999979e-03 0. 0. 0. 0. 0. 0. 0. 0. 0. 0. 0. 0. 0. 0. 0. 0.
      0. 3.89999989e-03 0. 0. 0. 0. 0. 0. 0. 0. 0. 0. 0. 0. 0.
      3.89999989e-03 3.89999989e-03 7.79999979e-03 0. 0. 0. 0. 0.
      1.55999996e-02 0. 0. 0. 0. 3.89999989e-03 0. 0. 0. 0. 0. 0. 0. 0.
      0. 0. 0. 0. 0. 0. 0. 0. 0. 0. 3.89999989e-03 1.16999997e-02
      7.79999979e-03 0. 0. 0. 3.89999989e-03 3.89999989e-03 0. 0. 0. 0.
      0. 3.89999989e-03 0. 3.89999989e-03 3.89999989e-03 3.51999998e-02
      4.69000004e-02 0. 0. 0. 0. 0. 0. 1.16999997e-02 2.33999994e-02 0.
      3.89999989e-03 7.79999979e-03 7.79999979e-03 1.16999997e-02
      3.11999992e-02</_>
    <_>
      1.55999996e-02 1.55999996e-02 0. 7.79999979e-03 1.55999996e-02 0.
      3.89999989e-03 5.46999983e-02 0. 0. 0. 0. 3.89999989e-03 0.
      3.89999989e-03 1.16999997e-02 2.33999994e-02 2.73000002e-02 0. 0.
      0. 0. 0. 0. 0. 3.89999989e-03 0. 0. 0. 0. 7.79999979e-03
      6.25000000e-02 0. 0. 0. 0. 0. 0. 0. 0. 0. 0. 0. 0. 0. 0. 0. 0.
      1.16999997e-02 0. 0. 0. 0. 0. 0. 0. 0. 0. 0. 0. 3.89999989e-03 0.
      3.89999989e-03 0. 1.55999996e-02 0. 0. 0. 0. 0. 0. 7.79999979e-03
      0. 0. 0. 0. 3.89999989e-03 0. 0. 3.89999989e-03 0. 0. 0. 0. 0. 0.
      0. 0. 0. 0. 0. 0. 3.89999989e-03 0. 0. 0. 1.16999997e-02
      3.89999989e-03 0. 0. 7.79999979e-03 0. 0. 0. 0. 0. 0. 0. 0. 0. 0.
      0. 3.51999998e-02 0. 0. 0. 0. 0. 0. 0. 7.79999979e-03 0. 0. 0.
      1.16999997e-02 0. 0. 1.16999997e-02 0. 1.55999996e-02 0. 0. 0. 0.
      0. 7.79999979e-03 0. 0. 0. 0. 0. 0. 0. 2.73000002e-02 0. 0. 0. 0.
      0. 0. 0. 0. 0. 0. 0. 0. 0. 0. 0. 0. 0. 0. 0. 0. 0. 0. 0. 0. 0. 0.
      0. 0. 0. 0. 0. 0. 3.89999989e-03 0. 0. 0. 0. 0. 0. 0. 0. 0. 0. 0.
      0. 0. 0. 3.89999989e-03 1.16999997e-02 3.51999998e-02 0.
      2.33999994e-02 0. 0. 0. 1.95000004e-02 0. 0. 0. 0. 0. 0. 0.
      7.79999979e-03 0. 7.79999979e-03 0. 0. 0. 0. 0. 0. 0.
      3.89999989e-03 0. 0. 0. 0. 0. 2.33999994e-02 3.11999992e-02
      1.95000004e-02 0. 1.95000004e-02 0. 0. 0. 7.79999979e-03 0. 0. 0.
      0. 0. 0. 0. 3.89999989e-03 9.76999998e-02 1.13300003e-01 0.
      2.33999994e-02 0. 3.89999989e-03 0. 1.16999997e-02 1.55999996e-02
      1.16999997e-02 0. 0. 1.16999997e-02 0. 0. 3.51999998e-02</_>
    <_>
      3.90999988e-02 2.73000002e-02 0. 1.55999996e-02 1.16999997e-02 0.
      1.16999997e-02 1.16999997e-02 0. 0. 0. 0. 3.89999989e-03 0.
      3.89999989e-03 7.79999979e-03 3.11999992e-02 7.79999979e-03 0. 0.
      7.79999979e-03 0. 0. 0. 3.89999989e-03 3.89999989e-03 0.
      7.79999979e-03 7.79999979e-03 0. 2.73000002e-02 1.95000004e-02 0.
      0. 0. 0. 0. 0. 0. 0. 0. 0. 0. 0. 0. 0. 0. 3.89999989e-03
      1.55999996e-02 0. 0. 0. 0. 0. 0. 0. 0. 0. 0. 0. 1.16999997e-02 0.
      7.79999979e-03 0. 1.95000004e-02 3.89999989e-03 0. 0.
      3.89999989e-03 0. 3.89999989e-03 0. 0. 0. 0. 0. 0. 0. 0. 0. 0. 0.
      0. 0. 0. 0. 0. 0. 0. 0. 0. 0. 0. 0. 0. 0. 1.55999996e-02 0. 0. 0.
      0. 0. 0. 3.89999989e-03 0. 0. 0. 0. 0. 0. 0. 0. 2.33999994e-02
      3.89999989e-03 0. 0. 0. 0. 0. 0. 0. 0. 0. 0. 1.55999996e-02 0. 0.
      0. 0. 1.16999997e-02 0. 1.55999996e-02 0. 0. 0. 3.89999989e-03 0.
      0. 0. 0. 0. 0. 0. 1.16999997e-02 0. 0. 0. 3.89999989e-03 0. 0. 0.
      0. 0. 0. 0. 0. 0. 0. 0. 3.89999989e-03 0. 0. 0. 0. 0. 0. 0. 0. 0.
      0. 0. 0. 0. 0. 0. 0. 0. 0. 0. 0. 0. 0. 0. 0. 0. 0. 0. 0. 0. 0. 0.
      0. 3.89999989e-03 4.69000004e-02 0. 3.11999992e-02 3.89999989e-03
      0. 0. 1.95000004e-02 0. 0. 0. 0. 0. 0. 3.89999989e-03
      3.89999989e-03 0. 0. 0. 0. 0. 0. 0. 0. 0. 0. 0. 0. 0. 0. 0.
      3.89999989e-03 6.25000000e-02 1.01599999e-01 0. 2.33999994e-02
      7.79999979e-03 0. 0. 1.16999997e-02 0. 3.89999989e-03 0. 0. 0. 0.
      0. 2.33999994e-02 3.11999992e-02 7.81000033e-02 0. 1.55999996e-02
      3.89999989e-03 0. 0. 0. 1.16999997e-02 7.79999979e-03 0.
      1.55999996e-02 1.95000004e-02 7.79999979e-03 7.79999979e-03
      1.55999996e-02</_>
    <_>
      6.63999990e-02 2.73000002e-02 0. 7.79999979e-03 2.33999994e-02
      3.89999989e-03 3.89999989e-03 1.95000004e-02 0. 0. 0. 0.
      7.79999979e-03 3.89999989e-03 3.89999989e-03 1.55999996e-02
      2.33999994e-02 0. 0. 3.89999989e-03 0. 3.89999989e-03 0. 0.
      3.89999989e-03 0. 0. 3.89999989e-03 1.55999996e-02 0.
      1.16999997e-02 1.95000004e-02 0. 0. 0. 0. 0. 0. 0. 0. 0. 0. 0. 0.
      0. 0. 0. 0. 1.16999997e-02 0. 0. 3.89999989e-03 0. 0. 0. 0. 0. 0.
      0. 0. 0. 0. 7.79999979e-03 3.89999989e-03 1.95000004e-02 0.
      3.89999989e-03 0. 0. 0. 0. 0. 0. 0. 0. 0. 0. 0. 0. 3.89999989e-03
      3.89999989e-03 0. 0. 0. 0. 0. 0. 0. 0. 0. 0. 0. 0. 0. 0. 0.
      1.16999997e-02 0. 0. 0. 3.89999989e-03 0. 0. 0. 0. 0. 0. 0. 0. 0.
      3.89999989e-03 0. 6.25000000e-02 0. 0. 0. 0. 0. 0. 0.
      3.89999989e-03 0. 0. 0. 1.16999997e-02 0. 3.89999989e-03 0.
      3.89999989e-03 1.55999996e-02 0. 3.89999989e-03 0. 0. 0. 0. 0. 0.
      0. 0. 0. 0. 0. 0. 0. 3.89999989e-03 0. 0. 0. 0. 0. 0.
      3.89999989e-03 0. 0. 0. 0. 0. 0. 3.89999989e-03 0. 0. 0. 0. 0. 0.
      0. 0. 0. 0. 0. 0. 0. 0. 0. 0. 0. 0. 0. 3.89999989e-03 0. 0. 0. 0.
      0. 0. 0. 0. 0. 0. 0. 3.89999989e-03 0. 5.86000010e-02 0.
      7.79999979e-03 0. 0. 0. 3.11999992e-02 0. 0. 0. 0. 0. 0. 0.
      1.16999997e-02 7.79999979e-03 0. 0. 0. 0. 0. 0. 0. 0. 0. 0. 0. 0.
      0. 0. 0. 4.69000004e-02 3.90999988e-02 3.89999989e-03
      1.95000004e-02 3.89999989e-03 3.89999989e-03 0. 3.89999989e-03 0.
      0. 0. 0. 0. 0. 3.89999989e-03 1.16999997e-02 8.59000012e-02
      5.46999983e-02 0. 1.95000004e-02 0. 3.89999989e-03 0. 0.
      1.55999996e-02 1.16999997e-02 0. 1.55999996e-02 1.16999997e-02
      3.89999989e-03 1.55999996e-02 3.51999998e-02</_>
    <_>
      4.69000004e-02 7.79999979e-03 0. 7.79999979e-03 7.79999979e-03 0.
      3.89999989e-03 3.89999989e-03 3.89999989e-03 0. 0. 0.
      7.79999979e-03 0. 0. 0. 1.55999996e-02 3.89999989e-03 0. 0. 0. 0.
      0. 0. 1.55999996e-02 3.89999989e-03 0. 7.79999979e-03
      3.89999989e-03 3.89999989e-03 0. 3.89999989e-03 0. 0. 0. 0. 0. 0.
      0. 0. 0. 0. 0. 0. 0. 0. 0. 0. 7.79999979e-03 0. 0. 0. 0. 0. 0. 0.
      2.33999994e-02 0. 0. 0. 1.16999997e-02 0. 3.89999989e-03
      3.89999989e-03 3.51999998e-02 3.89999989e-03 0. 0. 7.79999979e-03
      0. 3.89999989e-03 0. 0. 0. 0. 0. 0. 0. 0. 0. 0. 0. 0. 0. 0. 0. 0.
      0. 0. 0. 0. 0. 0. 0. 0. 0. 7.79999979e-03 0. 0. 0. 7.79999979e-03
      0. 0. 0. 0. 0. 0. 0. 3.89999989e-03 0. 0. 0. 7.02999979e-02
      3.89999989e-03 0. 0. 3.89999989e-03 0. 0. 0. 2.73000002e-02
      3.89999989e-03 0. 0. 2.33999994e-02 0. 7.79999979e-03 0. 0.
      7.79999979e-03 0. 3.89999989e-03 0. 0. 0. 1.55999996e-02 0. 0. 0.
      0. 0. 0. 0. 0. 0. 3.89999989e-03 0. 0. 0. 0. 0. 0. 0. 0. 0. 0. 0.
      0. 0. 3.89999989e-03 0. 0. 0. 0. 0. 0. 0. 0. 0. 0. 0. 0. 0. 0. 0.
      0. 0. 7.79999979e-03 0. 0. 0. 0. 0. 0. 3.89999989e-03 0. 0.
      3.89999989e-03 0. 0. 0. 1.16999997e-02 3.90999988e-02
      1.55999996e-02 0. 0. 0. 3.89999989e-03 0. 0. 0. 0. 0. 0. 0. 0. 0.
      3.89999989e-03 0. 3.89999989e-03 0. 0. 0. 0. 0. 0. 0. 0. 0. 0. 0.
      0. 0. 0. 3.90999988e-02 1.95000004e-02 0. 1.95000004e-02
      3.89999989e-03 0. 0. 7.79999979e-03 0. 0. 0. 0. 0. 0. 0.
      7.79999979e-03 1.25000000e-01 1.01599999e-01 0. 7.79999979e-03 0.
      0. 0. 0. 3.11999992e-02 1.95000004e-02 0. 1.95000004e-02
      3.89999989e-03 7.79999979e-03 7.79999979e-03 3.90999988e-02</_>
    <_>
      2.73000002e-02 3.89999989e-03 0. 0. 4.30000015e-02 3.89999989e-03
      1.55999996e-02 1.95000004e-02 0. 0. 0. 0. 3.89999989e-03 0.
      3.89999989e-03 0. 1.95000004e-02 0. 0. 0. 0. 0. 0. 0.
      1.55999996e-02 0. 0. 3.89999989e-03 5.46999983e-02 0.
      1.95000004e-02 3.11999992e-02 0. 0. 0. 0. 0. 0. 0. 0. 0. 0. 0. 0.
      0. 0. 0. 0. 1.16999997e-02 0. 0. 0. 0. 0. 0. 0. 1.95000004e-02 0.
      0. 0. 4.69000004e-02 0. 1.55999996e-02 2.73000002e-02
      5.46999983e-02 3.89999989e-03 0. 0. 2.73000002e-02 3.89999989e-03
      7.79999979e-03 0. 0. 0. 0. 0. 7.79999979e-03 0. 0. 0.
      3.89999989e-03 0. 0. 0. 0. 0. 0. 0. 0. 0. 0. 0. 1.16999997e-02 0.
      0. 0. 7.79999979e-03 0. 0. 3.89999989e-03 3.89999989e-03 0. 0. 0.
      0. 0. 0. 0. 0. 0. 0. 0. 2.33999994e-02 7.79999979e-03 0. 0.
      3.89999989e-03 0. 0. 0. 4.69000004e-02 0. 0. 0. 5.86000010e-02 0.
      1.16999997e-02 1.16999997e-02 0. 0. 0. 1.55999996e-02 0. 0. 0.
      1.16999997e-02 0. 0. 0. 0. 0. 0. 0. 0. 0. 0. 0. 0. 0. 0. 0. 0. 0.
      0. 0. 0. 0. 0. 0. 7.79999979e-03 0. 0. 0. 0. 0. 0. 0. 0. 0. 0. 0.
      0. 0. 0. 0. 3.89999989e-03 0. 0. 0. 0. 0. 0. 0. 3.89999989e-03 0.
      0. 0. 3.89999989e-03 0. 3.89999989e-03 0. 2.33999994e-02 0.
      1.55999996e-02 0. 2.73000002e-02 0. 0. 3.89999989e-03
      1.95000004e-02 0. 0. 0. 0. 0. 3.89999989e-03 0. 0. 0. 0. 0. 0. 0.
      0. 0. 0. 0. 0. 0. 0. 0. 0. 0. 0. 0. 3.89999989e-03 0. 0. 0. 0. 0.
      3.89999989e-03 0. 0. 0. 0. 3.89999989e-03 0. 0. 0. 0.
      1.55999996e-02 0. 7.79999979e-03 0. 0. 0. 0. 1.55999996e-02
      1.95000004e-02 0. 1.55999996e-02 1.16999997e-02 3.89999989e-03
      3.89999989e-03 6.25000000e-02</_>
    <_>
      3.51999998e-02 3.90999988e-02 0. 0. 7.79999979e-03 0. 0.
      6.25000000e-02 0. 0. 0. 0. 7.79999979e-03 0. 7.79999979e-03
      3.51999998e-02 1.95000004e-02 7.79999979e-03 0. 1.16999997e-02 0.
      0. 0. 0. 7.79999979e-03 0. 0. 0. 1.95000004e-02 0. 7.79999979e-03
      3.89999989e-03 0. 0. 0. 0. 0. 0. 0. 0. 0. 0. 0. 0. 0. 0. 0. 0. 0.
      3.89999989e-03 0. 0. 0. 0. 0. 0. 0. 0. 0. 0. 2.73000002e-02 0. 0.
      7.79999979e-03 1.55999996e-02 0. 0. 0. 0. 0. 0. 7.79999979e-03 0.
      0. 0. 0. 0. 0. 3.89999989e-03 0. 0. 0. 0. 0. 0. 0. 0. 0. 0. 0. 0.
      0. 0. 0. 0. 0. 7.79999979e-03 0. 0. 0. 3.89999989e-03 0. 0. 0. 0.
      0. 0. 0. 0. 0. 0. 0. 1.95000004e-02 0. 0. 0. 0. 0. 0. 0.
      2.33999994e-02 0. 0. 0. 3.11999992e-02 0. 0. 3.89999989e-03 0.
      2.33999994e-02 0. 1.95000004e-02 0. 0. 0. 6.63999990e-02 0. 0. 0.
      0. 0. 0. 0. 1.55999996e-02 0. 3.89999989e-03 0. 3.89999989e-03 0.
      0. 0. 0. 0. 0. 0. 0. 0. 0. 0. 1.16999997e-02 0. 0. 0. 0. 0. 0. 0.
      0. 0. 0. 0. 0. 0. 0. 0. 0. 0. 0. 0. 0. 0. 0. 0. 0. 0. 0. 0.
      3.89999989e-03 0. 0. 0. 7.79999979e-03 2.33999994e-02
      6.63999990e-02 0. 6.63999990e-02 3.89999989e-03 0. 1.16999997e-02
      2.73000002e-02 0. 0. 0. 0. 0. 0. 3.89999989e-03 2.33999994e-02 0.
      0. 0. 0. 0. 0. 0. 0. 0. 0. 0. 0. 0. 0. 0. 0. 0. 1.16999997e-02 0.
      4.30000015e-02 0. 3.89999989e-03 3.89999989e-03 2.33999994e-02 0.
      0. 0. 0. 0. 0. 0. 7.79999979e-03 1.16999997e-02 7.79999979e-03 0.
      1.16999997e-02 0. 0. 0. 3.89999989e-03 0. 3.89999989e-03 0.
      7.79999979e-03 0. 0. 7.79999979e-03 3.90999988e-02</_>
    <_>
      2.73000002e-02 1.16999997e-02 0. 7.79999979e-03 2.73000002e-02
      7.79999979e-03 3.89999989e-03 4.69000004e-02 0. 0. 0. 0.
      1.16999997e-02 0. 7.79999979e-03 3.11999992e-02 1.16999997e-02
      3.89999989e-03 0. 3.89999989e-03 0. 0. 0. 0. 0. 3.89999989e-03 0.
      0. 1.16999997e-02 0. 0. 3.51999998e-02 3.89999989e-03 0. 0. 0. 0.
      0. 0. 0. 0. 0. 0. 0. 0. 0. 0. 0. 1.16999997e-02 0. 0. 0. 0. 0. 0.
      0. 3.89999989e-03 0. 0. 0. 1.16999997e-02 0. 3.89999989e-03
      3.89999989e-03 2.73000002e-02 7.79999979e-03 0. 3.89999989e-03
      3.89999989e-03 0. 3.89999989e-03 0. 0. 0. 0. 0. 3.89999989e-03 0.
      0. 3.89999989e-03 0. 0. 0. 0. 0. 0. 0. 0. 0. 0. 0. 0. 0. 0.
      3.89999989e-03 0. 1.16999997e-02 0. 0. 0. 3.89999989e-03 0. 0. 0.
      0. 0. 0. 0. 3.89999989e-03 0. 0. 0. 1.55999996e-02 0. 0. 0. 0. 0.
      0. 0. 0. 0. 0. 0. 7.79999979e-03 0. 3.89999989e-03 0. 0.
      2.33999994e-02 0. 2.33999994e-02 0. 0. 0. 6.25000000e-02 0. 0. 0.
      0. 0. 0. 0. 1.16999997e-02 0. 0. 0. 3.89999989e-03 0. 0. 0. 0. 0.
      0. 0. 0. 0. 0. 0. 3.89999989e-03 0. 0. 0. 0. 0. 0. 0. 0. 0. 0. 0.
      0. 0. 0. 0. 0. 0. 0. 0. 0. 0. 0. 0. 0. 0. 3.89999989e-03 0.
      7.79999979e-03 0. 0. 0. 3.89999989e-03 1.16999997e-02
      6.25000000e-02 0. 6.25000000e-02 7.79999979e-03 0. 0.
      5.46999983e-02 0. 0. 0. 0. 0. 0. 0. 1.55999996e-02 0. 0. 0. 0. 0.
      0. 0. 0. 0. 0. 0. 0. 0. 0. 0. 1.16999997e-02 3.89999989e-03
      2.73000002e-02 0. 4.69000004e-02 3.89999989e-03 0. 0.
      2.33999994e-02 0. 0. 0. 0. 0. 0. 0. 0. 7.79999979e-03
      2.33999994e-02 0. 1.16999997e-02 0. 0. 0. 1.16999997e-02
      3.89999989e-03 3.89999989e-03 0. 1.16999997e-02 7.79999979e-03 0.
      0. 4.30000015e-02</_>
    <_>
      3.11999992e-02 1.95000004e-02 0. 3.89999989e-03 2.33999994e-02 0.
      1.16999997e-02 5.86000010e-02 0. 0. 0. 0. 0. 0. 3.89999989e-03 0.
      3.89999989e-03 0. 0. 0. 0. 0. 0. 0. 0. 3.89999989e-03 0. 0.
      2.33999994e-02 0. 7.79999979e-03 7.79999979e-03 0. 0. 0. 0. 0. 0.
      0. 0. 0. 0. 0. 0. 0. 0. 0. 0. 3.89999989e-03 0. 0. 0. 0. 0. 0. 0.
      0. 0. 0. 0. 1.16999997e-02 0. 3.89999989e-03 0. 1.95000004e-02 0.
      0. 0. 7.79999979e-03 0. 0. 3.89999989e-03 0. 0. 0. 0. 0. 0. 0. 0.
      3.89999989e-03 0. 0. 0. 0. 0. 0. 0. 0. 0. 0. 0. 0. 0. 0. 0. 0. 0.
      0. 0. 7.79999979e-03 0. 0. 0. 0. 0. 0. 0. 0. 0. 0. 0.
      1.16999997e-02 0. 0. 0. 0. 0. 0. 3.89999989e-03 3.89999989e-03 0.
      0. 0. 3.89999989e-03 0. 0. 0. 0. 1.55999996e-02 0. 3.11999992e-02
      0. 0. 0. 4.30000015e-02 0. 0. 0. 0. 0. 0. 0. 1.16999997e-02 0.
      1.16999997e-02 0. 0. 0. 0. 0. 3.89999989e-03 3.89999989e-03 0. 0.
      0. 0. 0. 0. 1.55999996e-02 0. 0. 0. 0. 0. 0. 0. 3.89999989e-03 0.
      0. 0. 0. 0. 0. 0. 0. 0. 0. 0. 0. 0. 0. 0. 0. 0. 0. 0. 0. 0. 0. 0.
      3.89999989e-03 1.16999997e-02 7.41999969e-02 0. 1.64100006e-01 0.
      0. 0. 1.05499998e-01 0. 0. 0. 0. 0. 0. 0. 1.95000004e-02 0. 0. 0.
      0. 0. 0. 0. 0. 3.89999989e-03 0. 0. 0. 0. 0. 0. 0. 0.
      1.95000004e-02 0. 2.33999994e-02 7.79999979e-03 0. 0.
      2.73000002e-02 0. 0. 0. 0. 0. 0. 3.89999989e-03 7.79999979e-03
      7.79999979e-03 1.55999996e-02 3.89999989e-03 1.16999997e-02 0. 0.
      0. 1.55999996e-02 3.89999989e-03 0. 0. 1.16999997e-02
      3.89999989e-03 0. 0. 2.73000002e-02</_>
    <_>
      4.30000015e-02 7.79999979e-03 0. 3.89999989e-03 4.30000015e-02
      3.89999989e-03 1.55999996e-02 2.73000002e-02 0. 0. 0. 0. 0. 0.
      7.79999979e-03 2.73000002e-02 7.79999979e-03 3.89999989e-03 0. 0.
      0. 3.89999989e-03 0. 0. 0. 7.79999979e-03 0. 0. 4.69000004e-02 0.
      2.33999994e-02 1.55999996e-02 0. 0. 0. 0. 0. 0. 0. 0. 0. 0. 0. 0.
      0. 0. 0. 0. 1.55999996e-02 0. 0. 0. 0. 0. 0. 0. 1.55999996e-02 0.
      0. 0. 3.51999998e-02 0. 2.33999994e-02 3.89999989e-03
      3.11999992e-02 3.89999989e-03 0. 0. 1.55999996e-02 0.
      3.89999989e-03 3.89999989e-03 0. 0. 0. 0. 0. 0. 3.89999989e-03 0.
      3.89999989e-03 0. 0. 3.89999989e-03 0. 0. 0. 0. 0. 0. 0. 0. 0. 0.
      0. 0. 1.16999997e-02 0. 0. 0. 0. 3.89999989e-03 0. 0. 0. 0. 0. 0.
      0. 0. 0. 0. 2.33999994e-02 0. 0. 3.89999989e-03 0. 0. 0. 0.
      5.07999994e-02 0. 0. 0. 3.51999998e-02 0. 3.89999989e-03 0. 0.
      7.79999979e-03 0. 7.79999979e-03 0. 0. 0. 3.51999998e-02 0. 0. 0.
      0. 0. 3.89999989e-03 0. 0. 0. 0. 0. 7.79999979e-03 0. 0. 0. 0. 0.
      0. 0. 3.89999989e-03 0. 0. 0. 1.16999997e-02 0. 0. 0. 0. 0. 0. 0.
      3.89999989e-03 0. 0. 0. 0. 0. 0. 0. 0. 0. 7.79999979e-03 0. 0. 0.
      0. 0. 0. 0. 0. 0. 0. 3.89999989e-03 0. 0. 1.95000004e-02
      1.16999997e-02 2.73000002e-02 0. 2.33999994e-02 0. 0. 0.
      2.73000002e-02 0. 0. 0. 0. 3.89999989e-03 0. 0. 3.89999989e-03 0.
      0. 0. 0. 0. 0. 0. 0. 0. 0. 0. 0. 3.89999989e-03 0. 0. 0.
      3.89999989e-03 2.33999994e-02 3.89999989e-03 7.79999979e-03 0. 0.
      0. 0. 0. 0. 0. 0. 0. 0. 0. 0. 1.55999996e-02 3.90999988e-02 0.
      7.79999979e-03 3.89999989e-03 0. 0. 0. 1.16999997e-02
      1.16999997e-02 0. 1.16999997e-02 3.89999989e-03 3.89999989e-03
      7.79999979e-03 4.30000015e-02</_>
    <_>
      6.25000000e-02 3.89999989e-03 0. 7.79999979e-03 4.30000015e-02
      3.89999989e-03 0. 3.11999992e-02 0. 0. 0. 0. 1.95000004e-02
      3.89999989e-03 0. 3.89999989e-03 0. 0. 0. 0. 0. 0. 0. 0.
      1.55999996e-02 0. 0. 3.89999989e-03 2.73000002e-02 0. 0.
      3.89999989e-03 0. 0. 0. 0. 3.89999989e-03 0. 0. 3.89999989e-03 0.
      0. 0. 0. 0. 0. 0. 0. 1.95000004e-02 3.89999989e-03 0. 0. 0. 0.
      3.89999989e-03 0. 1.95000004e-02 0. 0. 0. 7.41999969e-02 0. 0. 0.
      5.07999994e-02 0. 3.89999989e-03 7.79999979e-03 1.16999997e-02 0.
      0. 0. 0. 0. 0. 0. 3.89999989e-03 0. 0. 0. 0. 0. 0. 0. 0. 0. 0. 0.
      0. 0. 3.89999989e-03 0. 0. 0. 0. 0. 7.79999979e-03 0. 0. 0. 0. 0.
      3.89999989e-03 0. 0. 0. 0. 0. 0. 0. 0. 0. 2.33999994e-02 0. 0. 0.
      0. 0. 0. 0. 5.07999994e-02 0. 0. 0. 6.25000000e-02 0. 0.
      7.79999979e-03 7.79999979e-03 1.55999996e-02 0. 1.16999997e-02 0.
      0. 0. 2.73000002e-02 0. 0. 0. 0. 0. 0. 0. 0. 0. 0. 0.
      3.89999989e-03 0. 0. 0. 0. 0. 0. 0. 0. 0. 0. 0. 0. 0. 0. 0. 0. 0.
      0. 0. 0. 0. 0. 0. 0. 0. 0. 0. 3.89999989e-03 0. 1.16999997e-02 0.
      0. 0. 0. 0. 0. 0. 0. 0. 3.89999989e-03 3.89999989e-03 0. 0.
      3.90999988e-02 1.95000004e-02 7.79999979e-03 0. 5.46999983e-02 0.
      3.89999989e-03 3.89999989e-03 3.51999998e-02 0. 0. 0. 0. 0. 0. 0.
      3.89999989e-03 0. 0. 0. 3.89999989e-03 0. 0. 0. 0. 0. 0. 0. 0. 0.
      0. 0. 0. 0. 0. 0. 0. 0. 0. 0. 0. 0. 0. 0. 0. 0. 0. 0. 0.
      7.79999979e-03 3.89999989e-03 0. 7.79999979e-03 0. 0. 0.
      3.89999989e-03 7.79999979e-03 3.89999989e-03 0. 4.69000004e-02
      3.89999989e-03 3.89999989e-03 3.89999989e-03 4.69000004e-02</_>
    <_>
      2.33999994e-02 1.55999996e-02 0. 7.79999979e-03 1.55999996e-02 0.
      7.79999979e-03 8.20000023e-02 0. 0. 0. 0. 3.89999989e-03 0.
      7.79999979e-03 3.11999992e-02 7.79999979e-03 3.89999989e-03 0. 0.
      0. 0. 0. 3.89999989e-03 0. 0. 0. 0. 0. 3.89999989e-03
      1.16999997e-02 2.73000002e-02 0. 0. 0. 0. 0. 0. 0. 0. 0. 0. 0. 0.
      0. 0. 0. 0. 0. 0. 0. 0. 0. 0. 0. 0. 3.89999989e-03 0. 0. 0. 0. 0.
      0. 0. 7.79999979e-03 0. 0. 7.79999979e-03 1.16999997e-02 0. 0. 0.
      0. 0. 0. 0. 3.89999989e-03 0. 0. 3.89999989e-03 0. 0. 0. 0. 0. 0.
      0. 0. 0. 0. 0. 0. 0. 0. 0. 0. 3.89999989e-03 0. 0. 0. 0. 0. 0. 0.
      0. 0. 0. 0. 0. 0. 0. 0. 1.16999997e-02 0. 0. 0. 0. 0. 0. 0. 0. 0.
      0. 0. 3.89999989e-03 0. 0. 0. 0. 0. 0. 3.11999992e-02 0. 0. 0.
      1.01599999e-01 0. 0. 0. 0. 0. 0. 0. 2.33999994e-02 0. 0. 0. 0. 0.
      0. 0. 0. 0. 0. 0. 0. 0. 0. 0. 1.95000004e-02 0. 0. 0. 0. 0. 0. 0.
      0. 0. 0. 0. 0. 0. 0. 0. 0. 0. 0. 0. 0. 0. 0. 0. 0. 0. 0. 0. 0. 0.
      0. 0. 3.89999989e-03 0. 7.81000033e-02 0. 6.63999990e-02 0. 0. 0.
      1.40599996e-01 0. 0. 0. 0. 0. 0. 0. 3.11999992e-02 3.89999989e-03
      0. 0. 0. 0. 0. 0. 0. 0. 0. 0. 0. 0. 3.89999989e-03 0.
      2.33999994e-02 0. 1.16999997e-02 0. 1.16999997e-02 0. 0.
      3.89999989e-03 1.95000004e-02 0. 0. 0. 0. 0. 0. 0. 3.89999989e-03
      1.16999997e-02 1.95000004e-02 0. 2.33999994e-02 0. 0. 0.
      1.16999997e-02 0. 0. 0. 1.16999997e-02 3.89999989e-03 0.
      7.79999979e-03 1.95000004e-02</_>
    <_>
      5.46999983e-02 3.11999992e-02 1.16999997e-02 7.79999979e-03
      1.95000004e-02 0. 1.55999996e-02 0. 0. 0. 0. 0. 0. 0. 0.
      3.89999989e-03 3.51999998e-02 0. 0. 0. 0. 0. 0. 0. 4.69000004e-02
      0. 0. 7.79999979e-03 4.30000015e-02 0. 1.95000004e-02 0.
      3.89999989e-03 0. 0. 0. 0. 0. 0. 0. 0. 0. 0. 0. 0. 0. 0. 0.
      3.11999992e-02 3.89999989e-03 0. 0. 0. 0. 0. 0. 2.33999994e-02 0.
      0. 0. 7.02999979e-02 0. 2.33999994e-02 7.79999979e-03
      1.55999996e-02 0. 0. 0. 1.55999996e-02 0. 1.55999996e-02 0. 0. 0.
      0. 0. 3.89999989e-03 0. 0. 0. 0. 0. 0. 0. 0. 0. 0. 0. 0. 0. 0. 0.
      0. 0. 0. 0. 1.55999996e-02 0. 0. 0. 3.89999989e-03 0. 0. 0.
      3.89999989e-03 0. 0. 0. 3.89999989e-03 0. 0. 0. 1.16999997e-02 0.
      0. 0. 0. 0. 0. 0. 3.51999998e-02 0. 0. 0. 7.41999969e-02 0.
      1.95000004e-02 0. 0. 7.79999979e-03 0. 3.89999989e-03 0. 0. 0.
      3.89999989e-03 0. 0. 0. 0. 0. 0. 0. 0. 0. 0. 0. 3.89999989e-03 0.
      0. 0. 0. 0. 0. 0. 0. 3.89999989e-03 0. 0. 3.89999989e-03 0. 0. 0.
      0. 0. 0. 0. 0. 0. 0. 0. 0. 0. 0. 0. 0. 0. 7.79999979e-03 0. 0. 0.
      0. 0. 0. 0. 0. 0. 1.16999997e-02 0. 0. 0. 0. 7.79999979e-03
      2.33999994e-02 0. 2.33999994e-02 0. 0. 0. 1.55999996e-02 0. 0. 0.
      0. 0. 0. 0. 1.16999997e-02 0. 3.89999989e-03 0. 0. 0. 0. 0. 0. 0.
      0. 0. 0. 0. 0. 0. 3.89999989e-03 0. 0. 0. 0. 0. 0. 0.
      3.89999989e-03 0. 0. 0. 0. 0. 0. 0. 1.16999997e-02 3.89999989e-03
      3.89999989e-03 0. 7.79999979e-03 0. 0. 0. 3.89999989e-03
      1.16999997e-02 3.89999989e-03 0. 2.33999994e-02 2.73000002e-02
      3.89999989e-03 1.95000004e-02 5.86000010e-02</_>
    <_>
      1.55999996e-02 2.33999994e-02 3.89999989e-03 3.89999989e-03
      3.89999989e-03 0. 0. 3.90999988e-02 0. 0. 0. 0. 3.89999989e-03 0.
      3.89999989e-03 0. 1.95000004e-02 4.69000004e-02 0. 0. 0. 0. 0.
      1.16999997e-02 0. 3.89999989e-03 0. 0. 1.55999996e-02
      3.89999989e-03 1.16999997e-02 5.46999983e-02 0. 0. 0. 0. 0. 0. 0.
      0. 0. 0. 0. 0. 0. 0. 0. 0. 0. 0. 0. 0. 0. 0. 0. 0. 0. 0. 0. 0. 0.
      0. 3.89999989e-03 3.89999989e-03 3.89999989e-03 0. 0. 0.
      2.73000002e-02 0. 0. 3.89999989e-03 0. 0. 0. 0. 0. 0. 0. 0.
      3.89999989e-03 0. 0. 0. 0. 0. 0. 0. 0. 0. 0. 0. 7.79999979e-03 0.
      0. 0. 3.89999989e-03 0. 0. 0. 3.89999989e-03 0. 0. 0. 0. 0. 0. 0.
      3.89999989e-03 0. 0. 0. 7.79999979e-03 0. 0. 0. 7.79999979e-03 0.
      0. 0. 0. 0. 0. 0. 3.90999988e-02 0. 3.89999989e-03 7.79999979e-03
      0. 3.89999989e-03 0. 0. 0. 0. 0. 0. 0. 0. 0. 0. 0. 0. 0. 0. 0. 0.
      0. 0. 0. 0. 0. 0. 0. 0. 0. 0. 0. 0. 0. 0. 0. 0. 0. 0. 0. 0. 0. 0.
      0. 0. 0. 0. 0. 0. 0. 0. 0. 0. 0. 0. 0. 0. 0. 0. 0. 0. 0. 0. 0. 0.
      0. 0. 3.89999989e-03 3.51999998e-02 0. 0. 0. 3.89999989e-03 0.
      3.51999998e-02 0. 0. 0. 0. 0. 0. 0. 7.79999979e-03 0. 0. 0. 0. 0.
      0. 0. 3.89999989e-03 0. 0. 0. 0. 0. 0. 0. 1.16999997e-02 0. 0. 0.
      0. 0. 0. 0. 1.16999997e-02 0. 0. 0. 0. 0. 0. 0. 0. 0.
      2.33999994e-02 0. 7.79999979e-03 0. 7.79999979e-03 0.
      7.79999979e-03 0. 0. 0. 0. 0. 0. 7.79999979e-03 4.29699987e-01</_>
    <_>
      3.89999989e-03 0. 0. 3.89999989e-03 1.95000004e-02 0. 0.
      3.51999998e-02 0. 0. 0. 0. 0. 0. 3.89999989e-03 0. 0.
      3.11999992e-02 0. 0. 3.89999989e-03 3.89999989e-03 0. 0. 0. 0. 0.
      0. 1.95000004e-02 3.89999989e-03 3.89999989e-03 3.89999989e-03 0.
      0. 0. 0. 0. 0. 0. 0. 0. 0. 0. 0. 0. 0. 0. 0. 0. 0. 0. 0. 0. 0. 0.
      0. 0. 0. 0. 0. 0. 0. 0. 3.89999989e-03 3.11999992e-02 0. 0. 0.
      1.16999997e-02 0. 3.89999989e-03 0. 0. 0. 0. 0. 0. 0. 0. 0. 0. 0.
      0. 0. 0. 0. 0. 0. 0. 0. 0. 0. 0. 0. 0. 0. 0. 0. 0. 0. 0. 0. 0. 0.
      0. 0. 0. 0. 0. 0. 0. 0. 1.95000004e-02 0. 0. 0. 3.89999989e-03 0.
      0. 0. 1.16999997e-02 0. 0. 0. 5.86000010e-02 0. 0. 3.89999989e-03
      0. 3.89999989e-03 0. 0. 0. 0. 0. 3.89999989e-03 0. 0. 0. 0. 0. 0.
      0. 0. 0. 0. 0. 0. 0. 0. 0. 0. 0. 0. 0. 0. 0. 0. 0. 3.89999989e-03
      0. 0. 0. 0. 0. 0. 0. 0. 0. 0. 0. 0. 0. 0. 0. 0. 0. 3.89999989e-03
      0. 0. 0. 0. 0. 0. 0. 0. 0. 0. 0. 0. 0. 3.89999989e-03
      7.79999979e-03 3.11999992e-02 0. 1.16999997e-02 3.89999989e-03 0.
      0. 7.81000033e-02 0. 0. 0. 0. 0. 0. 0. 1.16999997e-02 0. 0. 0. 0.
      0. 0. 0. 0. 0. 0. 0. 0. 0. 0. 0. 7.79999979e-03 3.89999989e-03
      7.79999979e-03 0. 7.79999979e-03 0. 0. 0. 7.79999979e-03 0. 0. 0.
      0. 0. 0. 0. 0. 0. 7.02999979e-02 0. 0. 0. 3.89999989e-03 0.
      3.89999989e-03 7.79999979e-03 3.89999989e-03 0. 3.89999989e-03
      7.79999979e-03 3.89999989e-03 0. 4.10200000e-01</_>
    <_>
      7.79999979e-03 2.73000002e-02 0. 0. 1.55999996e-02 0.
      3.89999989e-03 5.46999983e-02 0. 0. 0. 0. 0. 0. 0. 1.16999997e-02
      1.95000004e-02 5.07999994e-02 0. 0. 0. 0. 0. 0. 0. 0. 0. 0.
      2.33999994e-02 0. 0. 5.86000010e-02 0. 0. 0. 0. 0. 0. 0. 0. 0. 0.
      0. 0. 0. 0. 0. 0. 0. 0. 0. 0. 0. 0. 0. 0. 0. 0. 0. 0.
      1.16999997e-02 0. 3.89999989e-03 3.89999989e-03 7.79999979e-03
      3.89999989e-03 0. 0. 7.79999979e-03 0. 0. 0. 0. 0. 0. 0. 0. 0. 0.
      0. 3.89999989e-03 0. 0. 0. 0. 0. 0. 0. 0. 0. 0. 0. 0. 0. 0. 0. 0.
      3.89999989e-03 0. 0. 0. 0. 0. 3.89999989e-03 0. 0. 0. 0. 0. 0. 0.
      0. 1.16999997e-02 0. 0. 0. 0. 0. 0. 0. 0. 0. 0. 0. 4.30000015e-02
      0. 3.89999989e-03 7.79999979e-03 0. 0. 0. 3.89999989e-03 0. 0. 0.
      3.89999989e-03 0. 0. 0. 0. 0. 0. 0. 0. 0. 0. 0. 0. 0. 0. 0. 0. 0.
      0. 0. 0. 0. 0. 0. 7.79999979e-03 0. 0. 0. 0. 0. 0. 0. 0. 0. 0. 0.
      0. 0. 0. 0. 0. 0. 3.89999989e-03 0. 0. 0. 0. 0. 0. 0. 0. 0. 0. 0.
      0. 0. 0. 0. 1.55999996e-02 0. 3.89999989e-03 0. 0. 0.
      8.98000002e-02 0. 0. 0. 0. 0. 0. 0. 3.89999989e-03 0. 0. 0.
      3.89999989e-03 0. 0. 0. 0. 0. 0. 0. 0. 0. 3.89999989e-03 0.
      3.51999998e-02 0. 3.89999989e-03 0. 0. 0. 0. 0. 3.89999989e-03 0.
      0. 0. 0. 0. 0. 0. 3.89999989e-03 0. 2.33999994e-02 0. 0. 0. 0. 0.
      3.89999989e-03 0. 0. 0. 0. 0. 0. 7.79999979e-03 3.86700004e-01</_>
    <_>
      1.16999997e-02 3.89999989e-03 0. 0. 1.95000004e-02 0.
      7.79999979e-03 1.55999996e-02 0. 0. 0. 0. 0. 0. 3.89999989e-03 0.
      1.16999997e-02 0. 0. 0. 3.89999989e-03 0. 0. 0. 3.89999989e-03
      3.89999989e-03 0. 0. 1.95000004e-02 3.89999989e-03 3.89999989e-03
      5.07999994e-02 0. 0. 0. 0. 0. 0. 0. 0. 0. 0. 0. 0. 0. 0. 0. 0.
      1.55999996e-02 0. 0. 0. 0. 0. 0. 0. 0. 0. 0. 0. 3.89999989e-03 0.
      7.79999979e-03 3.89999989e-03 1.55999996e-02 0. 0. 0.
      7.79999979e-03 0. 0. 7.79999979e-03 0. 0. 0. 0. 0. 0. 0. 0. 0. 0.
      0. 0. 0. 0. 0. 0. 0. 0. 0. 0. 0. 0. 3.89999989e-03 0.
      3.89999989e-03 0. 0. 0. 0. 0. 0. 0. 0. 0. 0. 0. 0. 0. 0. 0.
      3.90999988e-02 0. 3.89999989e-03 0. 0. 0. 0. 0. 3.89999989e-03 0.
      0. 0. 6.25000000e-02 0. 0. 0. 0. 0. 0. 3.89999989e-03 0. 0. 0. 0.
      0. 0. 0. 0. 0. 0. 0. 0. 0. 0. 0. 0. 0. 0. 0. 0. 0. 0. 0. 0. 0. 0.
      0. 3.89999989e-03 0. 0. 0. 0. 0. 0. 0. 0. 0. 0. 0. 0. 0. 0. 0. 0.
      0. 3.89999989e-03 0. 0. 0. 0. 0. 0. 0. 0. 0. 0. 0. 0. 0.
      3.89999989e-03 7.79999979e-03 1.55999996e-02 0. 0. 3.89999989e-03
      0. 0. 5.07999994e-02 0. 0. 0. 0. 0. 3.89999989e-03 0. 0. 0. 0. 0.
      0. 0. 0. 0. 0. 0. 0. 0. 0. 0. 0. 0. 1.95000004e-02 3.89999989e-03
      3.89999989e-03 0. 0. 0. 0. 0. 1.16999997e-02 0. 0. 0. 0. 0. 0. 0.
      0. 3.89999989e-03 5.46999983e-02 0. 7.79999979e-03 0. 0. 0.
      3.89999989e-03 0. 1.16999997e-02 0. 7.79999979e-03 7.79999979e-03
      1.55999996e-02 3.89999989e-03 4.02300000e-01</_>
    <_>
      0. 0. 0. 0. 1.16999997e-02 0. 0. 5.07999994e-02 0. 0. 0. 0. 0. 0.
      0. 7.79999979e-03 0. 0. 0. 0. 0. 0. 0. 0. 0. 0. 0. 0.
      3.11999992e-02 0. 3.89999989e-03 3.89999989e-03 0. 0. 0. 0. 0. 0.
      0. 0. 0. 0. 0. 0. 0. 0. 0. 0. 0. 0. 0. 0. 0. 0. 0. 0. 0. 0. 0. 0.
      3.51999998e-02 0. 0. 7.79999979e-03 2.33999994e-02 0. 0. 0.
      2.33999994e-02 0. 0. 0. 0. 0. 0. 0. 0. 0. 3.89999989e-03 0. 0. 0.
      0. 0. 0. 0. 0. 0. 0. 0. 0. 0. 0. 0. 0. 0. 0. 0. 0. 0.
      3.89999989e-03 0. 0. 0. 0. 0. 0. 0. 0. 0. 0. 0. 4.69000004e-02 0.
      0. 0. 0. 0. 0. 0. 3.90999988e-02 0. 0. 0. 1.71900004e-01 0.
      1.55999996e-02 3.89999989e-03 0. 3.89999989e-03 0. 0. 0. 0. 0.
      8.98000002e-02 0. 0. 0. 0. 0. 0. 0. 7.79999979e-03 0. 0. 0. 0. 0.
      0. 0. 0. 0. 0. 0. 0. 0. 0. 0. 0. 0. 0. 0. 0. 0. 0. 0. 0. 0. 0. 0.
      0. 0. 0. 0. 0. 0. 0. 0. 0. 0. 0. 0. 0. 0. 0. 0. 0. 0. 0. 0.
      3.89999989e-03 0. 3.90999988e-02 0. 3.11999992e-02 0.
      3.89999989e-03 0. 2.10899994e-01 0. 0. 0. 0. 0. 0. 0.
      7.79999979e-03 0. 0. 0. 0. 0. 0. 0. 0. 0. 0. 0. 0. 0.
      3.89999989e-03 0. 3.89999989e-03 0. 0. 0. 3.89999989e-03
      3.89999989e-03 3.89999989e-03 0. 1.16999997e-02 0. 0. 0. 0. 0. 0.
      0. 3.89999989e-03 0. 7.79999979e-03 0. 3.89999989e-03 0. 0. 0. 0.
      3.89999989e-03 0. 0. 7.79999979e-03 1.16999997e-02 7.79999979e-03
      0. 3.90999988e-02</_>
    <_>
      2.33999994e-02 1.16999997e-02 0. 0. 3.89999989e-03 0. 0.
      7.79999979e-03 0. 0. 0. 0. 0. 0. 0. 3.89999989e-03 1.16999997e-02
      1.95000004e-02 0. 0. 0. 0. 0. 0. 0. 0. 0. 0. 2.33999994e-02 0.
      3.89999989e-03 1.05499998e-01 3.89999989e-03 0. 0. 0. 0. 0. 0. 0.
      0. 0. 0. 0. 0. 0. 0. 0. 0. 0. 0. 0. 0. 0. 0. 0. 0. 0. 0. 0. 0. 0.
      0. 3.89999989e-03 7.79999979e-03 0. 0. 0. 0. 0. 0. 0. 0. 0. 0. 0.
      7.79999979e-03 0. 0. 0. 0. 0. 0. 0. 0. 0. 0. 0. 0. 0. 0. 0.
      3.89999989e-03 0. 0. 0. 0. 0. 0. 0. 3.89999989e-03 0. 0. 0. 0. 0.
      0. 0. 0. 0. 0. 0. 1.95000004e-02 0. 0. 0. 0. 0. 0. 0. 0. 0. 0. 0.
      1.95000004e-02 0. 3.89999989e-03 1.55999996e-02 0. 0. 0. 0. 0. 0.
      0. 0. 0. 0. 0. 0. 0. 0. 0. 0. 0. 0. 0. 0. 0. 0. 0. 0. 0. 0. 0. 0.
      0. 0. 0. 3.89999989e-03 0. 0. 0. 0. 0. 0. 0. 0. 0. 0. 0. 0. 0. 0.
      0. 0. 0. 0. 0. 0. 0. 0. 0. 0. 0. 0. 0. 0. 0. 0. 0. 7.79999979e-03
      0. 2.33999994e-02 0. 0. 0. 0. 0. 3.51999998e-02 0. 0. 0. 0. 0. 0.
      0. 0. 0. 0. 0. 0. 0. 0. 0. 0. 0. 0. 0. 0. 0. 0. 0. 3.89999989e-03
      0. 0. 0. 0. 0. 0. 0. 3.89999989e-03 0. 0. 0. 0. 0. 0. 0. 0. 0.
      1.60200000e-01 0. 3.89999989e-03 0. 3.89999989e-03 0.
      3.89999989e-03 0. 3.89999989e-03 0. 3.89999989e-03 7.79999979e-03
      7.79999979e-03 0. 4.21900004e-01</_>
    <_>
      2.33999994e-02 2.33999994e-02 0. 7.79999979e-03 1.55999996e-02 0.
      3.11999992e-02 7.02999979e-02 0. 0. 0. 0. 4.30000015e-02
      7.79999979e-03 3.90999988e-02 1.64100006e-01 1.16999997e-02 0. 0.
      7.79999979e-03 0. 0. 3.89999989e-03 0. 1.16999997e-02
      3.89999989e-03 0. 0. 2.73000002e-02 0. 8.59000012e-02
      8.20000023e-02 0. 0. 0. 0. 0. 0. 0. 0. 0. 0. 0. 0. 0. 0. 0. 0.
      7.79999979e-03 3.89999989e-03 0. 0. 0. 0. 0. 0. 0. 0. 0. 0. 0. 0.
      1.55999996e-02 7.79999979e-03 7.79999979e-03 3.89999989e-03 0. 0.
      0. 0. 3.89999989e-03 0. 0. 0. 0. 0. 0. 0. 0. 0. 0. 0. 0. 0. 0. 0.
      0. 0. 0. 0. 0. 0. 0. 0. 0. 0. 7.79999979e-03 0. 0. 0. 0. 0. 0. 0.
      0. 0. 0. 0. 0. 0. 0. 0. 2.33999994e-02 0. 0. 0. 0. 0. 0. 0. 0. 0.
      0. 0. 3.89999989e-03 0. 0. 7.79999979e-03 0. 3.89999989e-03 0.
      1.55999996e-02 0. 0. 0. 2.73000002e-02 0. 0. 0. 0. 0. 0. 0.
      1.55999996e-02 3.89999989e-03 3.89999989e-03 0. 0. 0. 0. 0. 0. 0.
      0. 0. 3.89999989e-03 0. 0. 0. 2.73000002e-02 0. 0. 0. 0. 0. 0. 0.
      0. 0. 0. 0. 0. 0. 0. 0. 0. 0. 0. 0. 0. 0. 0. 0. 0. 0. 0. 0. 0. 0.
      0. 0. 3.89999989e-03 3.89999989e-03 0. 0. 2.33999994e-02 0. 0. 0.
      2.33999994e-02 0. 3.89999989e-03 0. 0. 0. 0. 0. 1.95000004e-02 0.
      0. 0. 0. 0. 0. 0. 0. 0. 0. 0. 0. 0. 3.89999989e-03 0.
      3.89999989e-03 0. 0. 0. 7.79999979e-03 0. 0. 0. 0. 0. 0. 0. 0. 0.
      0. 0. 3.89999989e-03 0. 1.16999997e-02 0. 3.89999989e-03 0. 0. 0.
      0. 3.89999989e-03 0. 0. 0. 3.89999989e-03 0. 7.79999979e-03
      1.55999996e-02</_>
    <_>
      5.46999983e-02 1.55999996e-02 3.89999989e-03 3.89999989e-03
      3.89999989e-03 0. 1.16999997e-02 7.81000033e-02 0. 3.89999989e-03
      0. 0. 1.55999996e-02 0. 3.11999992e-02 1.25000000e-01
      3.11999992e-02 0. 0. 3.89999989e-03 0. 0. 0. 3.89999989e-03
      1.16999997e-02 0. 0. 3.89999989e-03 1.95000004e-02 0.
      1.05499998e-01 4.69000004e-02 0. 0. 0. 0. 0. 0. 0. 0. 0. 0. 0. 0.
      3.89999989e-03 0. 0. 0. 3.89999989e-03 0. 0. 0. 0. 0. 0. 0. 0. 0.
      0. 0. 3.89999989e-03 0. 0. 0. 0. 3.89999989e-03 0. 0. 0. 0. 0. 0.
      0. 0. 0. 0. 0. 0. 0. 0. 0. 0. 0. 0. 0. 0. 0. 0. 0. 0. 0. 0. 0. 0.
      0. 0. 7.79999979e-03 0. 0. 0. 0. 0. 0. 0. 0. 0. 0. 0.
      3.89999989e-03 0. 0. 0. 1.55999996e-02 0. 0. 0. 0. 0. 0. 0. 0. 0.
      0. 0. 3.89999989e-03 0. 0. 3.89999989e-03 0. 1.55999996e-02 0.
      1.16999997e-02 0. 0. 0. 3.89999989e-03 0. 0. 0. 0. 0. 0. 0.
      3.11999992e-02 0. 0. 0. 3.89999989e-03 0. 0. 0. 0. 0. 0. 0. 0. 0.
      0. 0. 1.16999997e-02 0. 0. 0. 0. 0. 0. 0. 0. 0. 0. 0. 0. 0. 0. 0.
      0. 0. 1.16999997e-02 0. 0. 0. 0. 0. 0. 0. 0. 0. 0. 0. 0. 0.
      3.89999989e-03 1.16999997e-02 1.95000004e-02 0. 7.79999979e-03
      3.89999989e-03 0. 0. 1.55999996e-02 0. 0. 0. 0. 0. 0. 0.
      1.16999997e-02 3.89999989e-03 0. 0. 0. 0. 0. 0. 0. 0. 0. 0. 0. 0.
      0. 0. 3.89999989e-03 7.79999979e-03 4.30000015e-02 0.
      7.79999979e-03 0. 0. 0. 1.55999996e-02 0. 3.89999989e-03 0. 0. 0.
      3.89999989e-03 3.89999989e-03 1.16999997e-02 2.33999994e-02
      2.73000002e-02 0. 0. 0. 0. 0. 3.89999989e-03 0. 3.89999989e-03 0.
      3.89999989e-03 0. 0. 1.16999997e-02 3.11999992e-02</_>
    <_>
      2.33999994e-02 7.79999979e-03 0. 7.79999979e-03 1.55999996e-02 0.
      2.33999994e-02 2.73000002e-02 3.89999989e-03 0. 0. 0.
      7.79999979e-03 0. 0. 3.89999989e-03 4.30000015e-02 7.79999979e-03
      0. 0. 0. 0. 0. 0. 3.89999989e-03 0. 0. 0. 6.25000000e-02 0.
      8.20000023e-02 3.89999989e-03 0. 0. 0. 0. 0. 0. 0. 0. 0. 0. 0. 0.
      0. 0. 0. 0. 0. 3.89999989e-03 0. 0. 3.89999989e-03 0. 0. 0.
      3.89999989e-03 0. 0. 0. 7.02999979e-02 0. 4.30000015e-02
      3.89999989e-03 2.33999994e-02 0. 0. 0. 3.89999989e-03 0. 0.
      3.89999989e-03 0. 0. 0. 0. 0. 0. 0. 0. 0. 0. 0. 0. 0. 0. 0. 0. 0.
      0. 0. 0. 0. 0. 0. 0. 1.95000004e-02 0. 0. 0. 3.89999989e-03 0. 0.
      3.89999989e-03 0. 0. 0. 0. 0. 0. 0. 0. 7.79999979e-03 0. 0. 0. 0.
      0. 0. 0. 0. 0. 0. 0. 1.16999997e-02 0. 1.16999997e-02 0. 0.
      7.79999979e-03 0. 1.55999996e-02 0. 0. 0. 7.79999979e-03 0. 0. 0.
      0. 0. 0. 0. 0. 0. 0. 0. 0. 0. 0. 0. 3.89999989e-03 0. 0. 0. 0.
      3.89999989e-03 0. 0. 3.89999989e-03 0. 0. 0. 0. 0. 0. 0.
      3.89999989e-03 0. 0. 0. 0. 0. 0. 0. 3.89999989e-03 0. 0. 0. 0. 0.
      0. 0. 0. 0. 0. 0. 0. 0. 3.89999989e-03 0. 3.89999989e-03 0.
      5.86000010e-02 0. 8.20000023e-02 0. 3.89999989e-03 0.
      7.79999979e-03 0. 0. 0. 0. 3.89999989e-03 0. 0. 3.89999989e-03 0.
      0. 0. 0. 0. 0. 0. 0. 0. 0. 0. 0. 0. 0. 0. 3.89999989e-03
      3.89999989e-03 6.25000000e-02 0. 5.86000010e-02 0. 0. 0.
      7.79999979e-03 0. 0. 0. 0. 0. 0. 0. 3.89999989e-03 0.
      1.55999996e-02 0. 1.16999997e-02 0. 0. 0. 0. 3.89999989e-03
      3.89999989e-03 0. 1.16999997e-02 7.79999979e-03 1.16999997e-02
      3.89999989e-03 2.73000002e-02</_>
    <_>
      1.16999997e-02 3.89999989e-03 0. 0. 7.79999979e-03 0. 0.
      1.95000004e-02 0. 0. 0. 0. 0. 0. 0. 3.89999989e-03 1.55999996e-02
      7.79999979e-03 0. 0. 0. 0. 0. 3.89999989e-03 1.16999997e-02 0. 0.
      0. 1.16999997e-02 3.89999989e-03 0. 3.90999988e-02 0. 0. 0. 0. 0.
      0. 0. 0. 0. 0. 0. 0. 0. 0. 0. 0. 0. 0. 0. 0. 0. 0. 0. 0.
      3.89999989e-03 0. 0. 0. 7.79999979e-03 0. 0. 1.16999997e-02
      1.95000004e-02 0. 0. 0. 5.86000010e-02 3.89999989e-03 0. 0. 0. 0.
      0. 0. 0. 0. 0. 0. 0. 0. 0. 0. 0. 0. 0. 0. 0. 0. 0. 0.
      7.79999979e-03 0. 0. 0. 0. 0. 0. 0. 3.89999989e-03 0. 0. 0. 0. 0.
      0. 0. 0. 0. 0. 0. 3.90999988e-02 3.89999989e-03 0. 0. 0.
      3.89999989e-03 0. 0. 3.89999989e-03 0. 0. 0. 2.03099996e-01 0.
      7.79999979e-03 1.16999997e-02 0. 0. 0. 0. 0. 0. 0. 0. 0. 0. 0. 0.
      0. 0. 0. 0. 0. 0. 0. 0. 0. 0. 0. 0. 0. 0. 0. 0. 0. 0. 0. 0. 0. 0.
      0. 0. 0. 0. 0. 0. 0. 0. 0. 0. 0. 0. 0. 0. 0. 0. 0. 0. 0. 0. 0. 0.
      0. 0. 0. 0. 0. 0. 0. 0. 0. 1.95000004e-02 0. 3.89999989e-03 0. 0.
      0. 4.30000015e-02 0. 0. 0. 0. 0. 0. 0. 0. 0. 0. 0. 0. 0. 0. 0. 0.
      0. 0. 0. 0. 0. 0. 0. 1.16999997e-02 0. 3.89999989e-03 0. 0. 0. 0.
      0. 0. 0. 0. 0. 0. 0. 0. 0. 0. 7.79999979e-03 3.90999988e-02 0. 0.
      0. 0. 0. 7.79999979e-03 3.89999989e-03 3.89999989e-03 0. 0.
      7.79999979e-03 7.79999979e-03 0. 3.08600008e-01</_>
    <_>
      3.89999989e-03 1.95000004e-02 0. 0. 1.16999997e-02 7.79999979e-03
      0. 5.46999983e-02 0. 0. 0. 0. 0. 0. 0. 1.16999997e-02
      3.89999989e-03 7.79999979e-03 0. 0. 3.89999989e-03 0. 0. 0. 0. 0.
      0. 0. 3.11999992e-02 0. 3.89999989e-03 8.59000012e-02 0. 0. 0. 0.
      0. 0. 0. 0. 0. 0. 0. 0. 0. 0. 0. 0. 3.89999989e-03 0. 0. 0. 0. 0.
      0. 0. 0. 0. 0. 0. 0. 0. 0. 3.89999989e-03 3.89999989e-03 0. 0. 0.
      0. 0. 0. 1.16999997e-02 0. 0. 0. 0. 0. 0. 0. 0. 0. 0. 0. 0.
      3.89999989e-03 0. 0. 0. 0. 0. 0. 0. 3.89999989e-03 0.
      3.89999989e-03 0. 0. 0. 0. 0. 0. 0. 0. 0. 0. 0. 0. 0. 0. 0. 0. 0.
      2.33999994e-02 0. 0. 0. 0. 0. 0. 0. 0. 0. 0. 0. 9.76999998e-02 0.
      3.89999989e-03 0. 0. 0. 0. 0. 0. 0. 0. 7.79999979e-03 0. 0. 0. 0.
      0. 0. 0. 0. 0. 0. 0. 0. 0. 0. 0. 0. 0. 0. 0. 0. 0. 0. 0.
      3.89999989e-03 0. 0. 0. 0. 0. 0. 0. 0. 0. 0. 0. 0. 0. 0. 0. 0. 0.
      0. 0. 0. 0. 0. 0. 0. 0. 0. 0. 0. 0. 0. 0. 3.89999989e-03 0.
      2.33999994e-02 0. 3.89999989e-03 0. 0. 0. 7.81000033e-02 0. 0. 0.
      0. 0. 0. 0. 7.79999979e-03 0. 7.79999979e-03 0. 0. 0. 0. 0.
      7.79999979e-03 0. 0. 0. 0. 0. 0. 0. 1.16999997e-02 0. 0. 0. 0. 0.
      0. 0. 0. 0. 0. 0. 0. 0. 0. 0. 0. 0. 2.73000002e-02 0.
      3.89999989e-03 0. 0. 0. 0. 0. 0. 0. 0. 0. 0. 0. 4.06199992e-01</_>
    <_>
      7.79999979e-03 1.55999996e-02 0. 0. 1.95000004e-02 0. 0.
      2.73000002e-02 0. 0. 0. 0. 0. 0. 0. 0. 3.89999989e-03
      7.79999979e-03 0. 3.89999989e-03 0. 0. 0. 3.89999989e-03 0. 0. 0.
      0. 1.95000004e-02 3.89999989e-03 0. 3.11999992e-02 0. 0. 0. 0. 0.
      0. 0. 0. 0. 0. 0. 0. 0. 0. 0. 0. 3.89999989e-03 0. 0. 0. 0. 0. 0.
      0. 0. 0. 0. 0. 0. 0. 0. 0. 3.89999989e-03 0. 0. 0. 7.79999979e-03
      0. 0. 7.79999979e-03 0. 0. 0. 0. 0. 0. 0. 0. 0. 0. 0. 0. 0. 0. 0.
      0. 0. 0. 0. 0. 3.89999989e-03 0. 0. 0. 0. 0. 0. 0. 0. 0. 0. 0. 0.
      0. 0. 0. 0. 0. 0. 0. 3.89999989e-03 0. 0. 0. 0. 0. 0.
      3.89999989e-03 0. 0. 0. 0. 9.76999998e-02 0. 7.79999979e-03
      7.79999979e-03 0. 7.79999979e-03 0. 3.89999989e-03 0. 0. 0.
      7.79999979e-03 0. 0. 0. 0. 0. 0. 0. 3.89999989e-03 0. 0. 0.
      3.89999989e-03 0. 0. 0. 0. 0. 0. 0. 0. 0. 0. 0. 3.89999989e-03 0.
      0. 0. 0. 0. 0. 0. 0. 0. 0. 0. 0. 0. 0. 0. 0. 0. 3.89999989e-03 0.
      0. 0. 0. 0. 0. 0. 0. 0. 0. 0. 0. 0. 0. 0. 7.79999979e-03 0.
      1.55999996e-02 0. 0. 0. 1.40599996e-01 0. 0. 0. 0. 0. 0. 0.
      1.55999996e-02 0. 3.89999989e-03 0. 0. 0. 0. 0. 0. 0. 0. 0. 0. 0.
      0. 0. 1.95000004e-02 0. 0. 0. 0. 0. 0. 0. 1.55999996e-02 0. 0. 0.
      0. 0. 0. 0. 0. 0. 2.33999994e-02 0. 3.89999989e-03 0. 0. 0. 0. 0.
      0. 0. 0. 0. 3.89999989e-03 0. 4.21900004e-01</_>
    <_>
      4.30000015e-02 1.95000004e-02 0. 0. 1.55999996e-02 0.
      7.79999979e-03 1.16999997e-02 3.89999989e-03 0. 0. 0.
      1.95000004e-02 2.33999994e-02 7.79999979e-03 7.81000033e-02
      5.46999983e-02 0. 0. 0. 0. 0. 0. 0. 3.90999988e-02 3.89999989e-03
      3.89999989e-03 0. 3.90999988e-02 3.89999989e-03 1.95000004e-02
      4.69000004e-02 0. 0. 0. 0. 0. 0. 0. 0. 0. 0. 0. 0. 0. 0. 0.
      3.89999989e-03 1.55999996e-02 3.89999989e-03 0. 0. 0. 0. 0. 0.
      2.73000002e-02 3.89999989e-03 0. 0. 3.51999998e-02 3.89999989e-03
      1.16999997e-02 2.73000002e-02 1.16999997e-02 0. 0. 0.
      3.89999989e-03 0. 0. 3.89999989e-03 0. 0. 0. 0. 0. 0. 0. 0. 0. 0.
      0. 0. 0. 0. 0. 0. 0. 0. 0. 0. 0. 0. 3.89999989e-03 0. 0.
      3.89999989e-03 0. 0. 0. 0. 0. 0. 0. 0. 0. 0. 0. 0. 0. 0.
      2.33999994e-02 3.89999989e-03 0. 0. 3.89999989e-03 0. 0. 0.
      8.20000023e-02 0. 0. 3.89999989e-03 7.81000033e-02 0.
      3.11999992e-02 1.95000004e-02 0. 0. 0. 0. 0. 0. 0. 0. 0. 0. 0. 0.
      0. 0. 0. 3.89999989e-03 0. 3.89999989e-03 0. 0. 0. 0. 0. 0. 0. 0.
      0. 0. 0. 0. 0. 0. 0. 0. 0. 0. 0. 0. 0. 0. 0. 0. 0. 0. 0. 0. 0.
      3.89999989e-03 0. 0. 0. 0. 0. 0. 0. 0. 0. 0. 0. 0. 0. 0. 0. 0. 0.
      7.79999979e-03 0. 0. 0. 0. 0. 7.79999979e-03 0. 0. 0. 0. 0. 0. 0.
      0. 0. 0. 0. 0. 0. 0. 0. 0. 0. 0. 0. 0. 0. 0. 0. 0. 0. 0. 0. 0. 0.
      0. 0. 0. 0. 0. 0. 0. 0. 0. 0. 3.89999989e-03 1.55999996e-02 0. 0.
      0. 0. 0. 0. 0. 1.55999996e-02 0. 0. 0. 1.55999996e-02 0.
      3.51999998e-02 3.90999988e-02</_>
    <_>
      1.95000004e-02 1.95000004e-02 0. 0. 7.79999979e-03 3.89999989e-03
      0. 3.51999998e-02 0. 0. 0. 0. 0. 0. 0. 3.89999989e-03
      2.33999994e-02 1.16999997e-02 0. 7.79999979e-03 0. 0. 0.
      7.79999979e-03 0. 0. 0. 0. 1.95000004e-02 7.79999979e-03 0.
      7.41999969e-02 0. 0. 0. 0. 0. 0. 0. 0. 0. 0. 0. 0. 0. 0. 0. 0. 0.
      0. 0. 0. 0. 0. 0. 0. 0. 0. 0. 0. 0. 0. 3.89999989e-03 0.
      1.95000004e-02 0. 0. 0. 7.79999979e-03 0. 0. 3.89999989e-03 0. 0.
      0. 0. 0. 0. 0. 0. 0. 7.79999979e-03 0. 0. 0. 0. 0. 0. 0. 0. 0. 0.
      0. 0. 0. 3.89999989e-03 1.16999997e-02 0. 0. 3.89999989e-03 0. 0.
      0. 0. 0. 0. 0. 0. 0. 0. 0. 0. 7.79999979e-03 7.79999979e-03 0. 0.
      3.89999989e-03 0. 0. 0. 0. 0. 0. 0. 4.69000004e-02 0.
      3.89999989e-03 1.16999997e-02 0. 0. 0. 0. 0. 0. 0. 0. 0. 0. 0. 0.
      0. 0. 0. 0. 0. 0. 0. 0. 0. 0. 0. 0. 0. 0. 0. 0. 0. 0. 0.
      3.89999989e-03 0. 0. 0. 0. 0. 0. 0. 0. 0. 0. 0. 0. 0. 0. 0. 0. 0.
      0. 0. 0. 0. 0. 0. 0. 0. 0. 0. 0. 0. 0. 0. 0. 0. 1.95000004e-02 0.
      0. 3.89999989e-03 0. 0. 7.02999979e-02 0. 0. 0. 0. 0. 0. 0. 0. 0.
      0. 0. 0. 0. 0. 0. 0. 0. 0. 0. 0. 0. 0. 0. 2.73000002e-02 0. 0. 0.
      0. 0. 0. 0. 0. 0. 0. 0. 0. 0. 0. 0. 0. 3.89999989e-03
      5.86000010e-02 0. 1.16999997e-02 3.89999989e-03 3.89999989e-03 0.
      1.16999997e-02 0. 0. 0. 7.79999979e-03 0. 1.55999996e-02
      3.89999989e-03 3.67199987e-01</_>
    <_>
      3.90999988e-02 7.79999979e-03 0. 1.16999997e-02 3.11999992e-02 0.
      3.89999989e-03 1.95000004e-02 0. 0. 0. 0. 0. 0. 0. 3.89999989e-03
      7.79999979e-03 0. 0. 0. 0. 0. 0. 3.89999989e-03 1.16999997e-02 0.
      0. 0. 1.16999997e-02 0. 0. 3.89999989e-03 0. 0. 0. 0. 0. 0. 0. 0.
      0. 0. 0. 0. 0. 0. 0. 0. 0. 0. 0. 0. 3.89999989e-03 0. 0. 0.
      3.89999989e-03 0. 0. 3.89999989e-03 3.90999988e-02 0.
      3.89999989e-03 3.89999989e-03 1.95000004e-02 3.89999989e-03 0. 0.
      2.33999994e-02 0. 3.89999989e-03 3.89999989e-03 0. 0. 0. 0. 0. 0.
      0. 0. 0. 0. 0. 0. 0. 0. 0. 0. 0. 0. 0. 0. 0. 0. 0. 3.89999989e-03
      7.79999979e-03 0. 0. 3.89999989e-03 0. 0. 0. 0. 0. 0. 0. 0. 0. 0.
      0. 0. 1.95000004e-02 3.89999989e-03 0. 0. 0. 0. 0. 0.
      3.11999992e-02 0. 0. 0. 3.51999998e-02 0. 3.89999989e-03 0.
      3.89999989e-03 1.95000004e-02 0. 1.95000004e-02 0. 0. 0.
      6.63999990e-02 0. 0. 0. 0. 0. 0. 0. 3.89999989e-03 0. 0. 0. 0. 0.
      0. 0. 0. 0. 0. 0. 0. 0. 0. 0. 1.16999997e-02 0. 0. 0. 0. 0. 0. 0.
      0. 0. 0. 0. 0. 0. 0. 0. 0. 0. 0. 0. 0. 0. 0. 0. 0. 0. 0. 0.
      3.89999989e-03 0. 0. 0. 3.89999989e-03 0. 4.30000015e-02 0.
      1.21100001e-01 0. 3.89999989e-03 0. 1.60200000e-01 0. 0. 0. 0. 0.
      0. 0. 3.89999989e-03 0. 0. 0. 0. 0. 0. 0. 0. 0. 0. 0. 0. 0. 0. 0.
      0. 1.16999997e-02 7.79999979e-03 0. 7.79999979e-03 0. 0. 0.
      3.89999989e-03 0. 0. 0. 0. 0. 0. 0. 3.89999989e-03 1.16999997e-02
      1.16999997e-02 0. 3.89999989e-03 0. 3.89999989e-03 0.
      1.55999996e-02 3.89999989e-03 1.55999996e-02 0. 1.55999996e-02
      1.16999997e-02 0. 0. 2.73000002e-02</_>
    <_>
      0. 1.55999996e-02 0. 0. 3.11999992e-02 0. 0. 4.30000015e-02 0. 0.
      0. 0. 3.89999989e-03 0. 0. 3.89999989e-03 1.16999997e-02
      1.55999996e-02 0. 0. 0. 0. 0. 0. 0. 0. 0. 0. 2.73000002e-02 0.
      1.16999997e-02 8.59000012e-02 0. 0. 0. 0. 0. 0. 0. 0. 0. 0. 0. 0.
      0. 0. 0. 0. 0. 0. 0. 0. 0. 0. 0. 0. 0. 3.89999989e-03 0. 0. 0. 0.
      0. 7.79999979e-03 7.79999979e-03 0. 0. 0. 0. 3.89999989e-03 0.
      1.16999997e-02 0. 0. 0. 0. 0. 0. 0. 0. 3.89999989e-03 0. 0. 0. 0.
      0. 0. 0. 0. 0. 0. 0. 7.79999979e-03 0. 0. 0. 0. 0. 0. 0. 0. 0. 0.
      0. 0. 0. 0. 0. 0. 0. 0. 0. 1.16999997e-02 0. 0. 0. 0. 0. 0. 0. 0.
      0. 0. 0. 3.90999988e-02 0. 0. 1.55999996e-02 0. 0. 0. 0. 0. 0. 0.
      0. 0. 0. 0. 0. 0. 0. 0. 0. 0. 3.89999989e-03 0. 0. 0. 0. 0. 0. 0.
      0. 0. 0. 0. 0. 0. 1.16999997e-02 0. 0. 0. 0. 0. 0. 0. 0. 0. 0. 0.
      0. 0. 0. 0. 0. 0. 0. 0. 0. 0. 0. 0. 0. 0. 0. 0. 0. 0. 0. 0. 0. 0.
      2.73000002e-02 0. 0. 0. 0. 0. 7.81000033e-02 0. 0. 0. 0. 0. 0. 0.
      3.89999989e-03 0. 7.79999979e-03 0. 0. 0. 0. 0. 0. 0. 0. 0. 0. 0.
      0. 0. 2.33999994e-02 0. 0. 0. 0. 0. 0. 0. 0. 0. 0. 0. 0. 0. 0. 0.
      0. 0. 5.07999994e-02 0. 0. 0. 0. 0. 1.16999997e-02 0. 0. 0. 0. 0.
      0. 0. 4.18000013e-01</_>
    <_>
      3.90999988e-02 7.79999979e-03 0. 1.95000004e-02 3.51999998e-02
      3.89999989e-03 3.89999989e-03 3.89999989e-03 0. 0. 0. 0.
      7.79999979e-03 0. 0. 7.79999979e-03 1.16999997e-02 0. 0. 0.
      3.89999989e-03 0. 0. 0. 7.79999979e-03 0. 0. 0. 4.69000004e-02
      3.89999989e-03 1.16999997e-02 2.73000002e-02 0. 0. 0. 0. 0. 0. 0.
      0. 0. 0. 0. 0. 3.89999989e-03 0. 0. 0. 2.73000002e-02 0. 0. 0. 0.
      0. 0. 0. 0. 0. 0. 0. 5.46999983e-02 3.89999989e-03 3.11999992e-02
      1.95000004e-02 3.90999988e-02 7.79999979e-03 0. 3.89999989e-03
      3.89999989e-03 3.89999989e-03 3.89999989e-03 0. 0. 0. 0. 0. 0. 0.
      0. 0. 0. 0. 0. 0. 0. 0. 0. 0. 0. 0. 0. 0. 3.89999989e-03 0. 0. 0.
      3.89999989e-03 0. 0. 0. 0. 0. 0. 0. 0. 0. 0. 0. 0. 0. 0. 0.
      2.33999994e-02 3.89999989e-03 0. 0. 3.89999989e-03 0. 0.
      3.89999989e-03 1.95000004e-02 0. 0. 0. 1.95000004e-02 0.
      7.79999979e-03 7.79999979e-03 0. 7.79999979e-03 0. 2.73000002e-02
      0. 3.89999989e-03 0. 1.95000004e-02 0. 0. 0. 3.89999989e-03 0. 0.
      0. 0. 0. 0. 0. 0. 0. 0. 0. 0. 0. 0. 0. 0. 0. 0. 0. 3.89999989e-03
      0. 0. 0. 0. 0. 0. 0. 0. 0. 0. 0. 0. 0. 0. 0. 0. 0. 0. 0. 0. 0. 0.
      0. 0. 0. 0. 0. 0. 0. 0. 0. 1.55999996e-02 1.16999997e-02
      1.95000004e-02 0. 1.13300003e-01 0. 0. 0. 3.90999988e-02 0. 0. 0.
      0. 0. 7.79999979e-03 0. 1.55999996e-02 0. 0. 0. 3.89999989e-03
      3.89999989e-03 0. 0. 0. 0. 0. 0. 3.89999989e-03 0. 0. 0.
      3.89999989e-03 3.89999989e-03 1.16999997e-02 0. 2.33999994e-02 0.
      0. 0. 3.89999989e-03 0. 0. 0. 0. 0. 0. 0. 1.16999997e-02 0.
      7.79999979e-03 0. 1.95000004e-02 0. 0. 0. 0. 0. 7.79999979e-03 0.
      1.16999997e-02 3.89999989e-03 7.79999979e-03 3.89999989e-03
      3.51999998e-02</_>
    <_>
      2.73000002e-02 5.07999994e-02 0. 2.33999994e-02 3.89999989e-03 0.
      1.55999996e-02 9.76999998e-02 0. 0. 0. 0. 2.33999994e-02 0.
      7.79999979e-03 1.79700002e-01 7.79999979e-03 0. 0. 3.89999989e-03
      3.89999989e-03 0. 3.89999989e-03 0. 3.89999989e-03 0. 0. 0.
      3.89999989e-03 3.89999989e-03 2.73000002e-02 3.11999992e-02 0. 0.
      0. 0. 0. 0. 0. 0. 0. 0. 0. 0. 0. 0. 0. 0. 0. 0. 0. 0. 0. 0. 0. 0.
      0. 0. 0. 0. 0. 0. 0. 7.79999979e-03 3.89999989e-03 3.89999989e-03
      0. 0. 3.89999989e-03 0. 3.89999989e-03 0. 0. 0. 0. 0.
      3.89999989e-03 0. 3.89999989e-03 0. 0. 0. 0. 0. 0. 0. 0. 0. 0. 0.
      0. 0. 0. 0. 0. 3.89999989e-03 1.16999997e-02 0. 0. 0. 0. 0. 0. 0.
      0. 0. 0. 0. 0. 0. 0. 0. 0. 0. 0. 0. 3.89999989e-03 0. 0. 0. 0. 0.
      0. 0. 7.79999979e-03 0. 3.89999989e-03 1.16999997e-02
      3.89999989e-03 2.33999994e-02 0. 1.95000004e-02 0. 0. 0.
      6.25000000e-02 0. 0. 0. 0. 0. 0. 0. 6.25000000e-02 0. 0. 0. 0. 0.
      0. 0. 0. 0. 0. 0. 0. 0. 0. 0. 3.89999989e-03 0. 0. 0. 0. 0. 0. 0.
      0. 0. 0. 0. 0. 0. 0. 0. 0. 0. 0. 0. 0. 0. 0. 0. 0. 0. 0. 0. 0. 0.
      0. 0. 0. 0. 3.11999992e-02 0. 2.73000002e-02 0. 0. 0.
      2.33999994e-02 0. 0. 0. 0. 0. 0. 0. 3.51999998e-02 3.89999989e-03
      3.89999989e-03 0. 0. 0. 0. 0. 3.89999989e-03 0. 0. 0. 0. 0. 0. 0.
      0. 3.89999989e-03 3.89999989e-03 0. 7.79999979e-03 0. 0. 0.
      7.79999979e-03 0. 0. 0. 0. 0. 0. 0. 1.55999996e-02 7.79999979e-03
      1.16999997e-02 0. 7.79999979e-03 0. 0. 0. 3.89999989e-03 0. 0. 0.
      0. 0. 0. 7.79999979e-03 2.33999994e-02</_>
    <_>
      1.95000004e-02 1.55999996e-02 0. 2.33999994e-02 1.95000004e-02 0.
      3.89999989e-03 2.33999994e-02 0. 0. 0. 0. 7.79999979e-03 0.
      3.89999989e-03 3.89999989e-03 7.79999979e-03 0. 0. 3.89999989e-03
      3.89999989e-03 0. 0. 3.89999989e-03 3.89999989e-03 0. 0.
      3.89999989e-03 1.55999996e-02 0. 7.79999979e-03 3.89999989e-03 0.
      0. 0. 0. 0. 0. 0. 0. 0. 0. 0. 0. 0. 0. 0. 0. 0. 0. 0. 0. 0.
      3.89999989e-03 0. 0. 7.79999979e-03 0. 0. 0. 1.55999996e-02 0.
      3.89999989e-03 7.79999979e-03 2.73000002e-02 3.89999989e-03 0. 0.
      1.55999996e-02 0. 3.89999989e-03 3.89999989e-03 0. 0. 0. 0. 0. 0.
      0. 0. 3.89999989e-03 0. 0. 0. 0. 0. 0. 0. 0. 0. 0. 0. 0. 0. 0. 0.
      7.79999979e-03 0. 0. 0. 0. 0. 0. 0. 0. 0. 0. 0. 0. 0. 0. 0.
      3.11999992e-02 0. 0. 0. 3.89999989e-03 0. 0. 0. 7.79999979e-03 0.
      0. 0. 2.33999994e-02 0. 3.89999989e-03 3.89999989e-03 0.
      1.16999997e-02 0. 3.90999988e-02 0. 0. 0. 1.95000004e-02 0. 0. 0.
      0. 0. 0. 0. 7.79999979e-03 0. 0. 0. 0. 0. 3.89999989e-03 0. 0. 0.
      0. 0. 0. 0. 0. 0. 3.89999989e-03 0. 0. 0. 0. 0. 0. 0. 0. 0. 0. 0.
      0. 0. 0. 0. 0. 0. 0. 0. 0. 0. 0. 0. 0. 0. 0. 0. 3.89999989e-03 0.
      7.79999979e-03 0. 3.89999989e-03 1.16999997e-02 9.76999998e-02 0.
      1.09399997e-01 0. 0. 0. 1.05499998e-01 0. 0. 0. 0. 0. 0. 0. 0. 0.
      7.79999979e-03 0. 0. 0. 0. 0. 0. 0. 0. 0. 0. 0. 0. 0. 0.
      7.79999979e-03 1.55999996e-02 0. 4.30000015e-02 0. 3.89999989e-03
      0. 1.16999997e-02 0. 0. 0. 0. 0. 0. 0. 3.89999989e-03
      3.89999989e-03 7.79999979e-03 0. 1.95000004e-02 3.89999989e-03
      3.89999989e-03 0. 1.16999997e-02 0. 1.55999996e-02 0.
      7.79999979e-03 0. 3.89999989e-03 3.89999989e-03 4.30000015e-02</_>
    <_>
      3.11999992e-02 4.69000004e-02 0. 0. 1.16999997e-02 3.89999989e-03
      1.95000004e-02 4.30000015e-02 0. 0. 0. 0. 7.79999979e-03
      3.89999989e-03 7.79999979e-03 9.38000008e-02 7.79999979e-03 0. 0.
      7.79999979e-03 0. 0. 0. 0. 2.73000002e-02 0. 0. 3.89999989e-03
      1.55999996e-02 0. 2.33999994e-02 2.33999994e-02 0. 3.89999989e-03
      0. 0. 0. 0. 0. 0. 0. 0. 0. 0. 3.89999989e-03 0. 0. 0. 0. 0. 0. 0.
      0. 0. 0. 0. 3.89999989e-03 0. 0. 0. 0. 0. 0. 1.16999997e-02
      2.73000002e-02 0. 0. 0. 0. 0. 0. 0. 0. 0. 0. 0. 3.89999989e-03 0.
      0. 0. 3.89999989e-03 0. 0. 0. 0. 0. 0. 0. 0. 0. 0. 0. 0. 0. 0. 0.
      7.79999979e-03 0. 0. 0. 0. 0. 0. 0. 0. 0. 0. 0. 0. 0. 0. 0.
      2.33999994e-02 0. 0. 0. 0. 0. 0. 0. 3.11999992e-02 0. 0. 0.
      3.89999989e-03 0. 1.55999996e-02 0. 0. 1.95000004e-02 0.
      1.16999997e-02 0. 0. 0. 3.89999989e-03 0. 0. 0. 0. 0. 0. 0.
      1.95000004e-02 0. 3.89999989e-03 0. 0. 0. 0. 0. 0. 0. 0. 0. 0. 0.
      0. 0. 1.55999996e-02 0. 0. 0. 0. 0. 0. 0. 0. 0. 0. 0. 0. 0. 0. 0.
      0. 0. 0. 0. 0. 0. 0. 0. 0. 0. 0. 0. 0. 0. 0. 0. 0. 3.89999989e-03
      3.11999992e-02 0. 3.89999989e-03 0. 0. 0. 1.95000004e-02 0. 0. 0.
      0. 0. 0. 0. 3.89999989e-03 0. 0. 0. 0. 0. 0. 0. 0. 0. 0. 0. 0. 0.
      0. 0. 0. 2.73000002e-02 7.02999979e-02 0. 2.33999994e-02 0. 0.
      3.89999989e-03 1.95000004e-02 0. 0. 0. 0. 0. 0. 0. 2.73000002e-02
      5.46999983e-02 5.07999994e-02 0. 7.79999979e-03 0. 0. 0.
      7.79999979e-03 7.79999979e-03 7.79999979e-03 0. 0. 3.89999989e-03
      3.89999989e-03 3.89999989e-03 2.33999994e-02</_>
    <_>
      1.55999996e-02 0. 0. 0. 2.73000002e-02 1.16999997e-02
      3.89999989e-03 2.73000002e-02 0. 0. 0. 0. 3.89999989e-03 0.
      3.89999989e-03 3.89999989e-03 2.33999994e-02 7.79999979e-03 0. 0.
      3.89999989e-03 0. 0. 0. 3.89999989e-03 0. 0. 0. 4.69000004e-02
      1.16999997e-02 7.79999979e-03 8.20000023e-02 0. 0. 0. 0. 0. 0. 0.
      0. 0. 0. 0. 0. 0. 0. 0. 0. 0. 0. 0. 0. 0. 0. 0. 0. 0. 0. 0. 0.
      7.79999979e-03 3.89999989e-03 0. 3.89999989e-03 2.33999994e-02 0.
      0. 0. 3.89999989e-03 0. 0. 7.79999979e-03 0. 0. 0. 0. 0. 0. 0. 0.
      1.16999997e-02 0. 0. 0. 0. 0. 0. 0. 0. 0. 0. 0. 3.89999989e-03 0.
      0. 0. 0. 0. 0. 0. 0. 0. 0. 0. 0. 0. 0. 0. 0. 0. 0. 0.
      1.55999996e-02 7.79999979e-03 0. 0. 0. 0. 0. 0. 1.55999996e-02 0.
      0. 0. 6.25000000e-02 3.89999989e-03 0. 5.07999994e-02 0.
      3.89999989e-03 0. 0. 0. 0. 0. 0. 0. 0. 0. 0. 0. 0. 0. 0.
      3.89999989e-03 0. 0. 0. 0. 0. 0. 0. 0. 0. 0. 0. 0. 0. 0.
      7.79999979e-03 0. 0. 0. 0. 0. 0. 0. 0. 0. 0. 0. 0. 0. 0. 0. 0. 0.
      0. 0. 0. 0. 0. 0. 0. 0. 0. 0. 0. 0. 0. 0. 0. 0. 3.89999989e-03 0.
      0. 0. 0. 0. 3.51999998e-02 0. 0. 0. 0. 0. 0. 0. 3.89999989e-03 0.
      0. 0. 0. 0. 0. 0. 0. 0. 0. 0. 0. 0. 0. 0. 1.16999997e-02 0. 0. 0.
      0. 0. 0. 0. 0. 0. 0. 0. 0. 0. 0. 0. 0. 0. 3.51999998e-02 0. 0. 0.
      0. 0. 0. 0. 3.89999989e-03 0. 0. 7.79999979e-03 7.79999979e-03 0.
      3.67199987e-01</_>
    <_>
      0. 3.89999989e-03 0. 0. 1.95000004e-02 0. 0. 2.73000002e-02 0. 0.
      0. 0. 0. 0. 0. 0. 3.89999989e-03 1.16999997e-02 0. 0. 0. 0. 0. 0.
      0. 0. 0. 0. 3.51999998e-02 0. 3.89999989e-03 3.51999998e-02 0. 0.
      0. 0. 0. 0. 0. 0. 0. 0. 0. 0. 0. 0. 0. 0. 0. 0. 0. 0. 0. 0. 0. 0.
      0. 0. 0. 0. 1.16999997e-02 0. 0. 1.16999997e-02 7.79999979e-03 0.
      0. 0. 2.73000002e-02 0. 3.89999989e-03 0. 0. 0. 0. 0.
      3.89999989e-03 0. 0. 0. 3.89999989e-03 0. 0. 0. 0. 0. 0. 0. 0. 0.
      0. 0. 3.89999989e-03 0. 0. 0. 0. 0. 0. 0. 0. 0. 0. 0. 0. 0. 0. 0.
      0. 0. 0. 0. 2.73000002e-02 7.79999979e-03 0. 0. 0. 0. 0. 0.
      7.79999979e-03 0. 0. 0. 1.36700004e-01 0. 7.79999979e-03
      1.16999997e-02 0. 0. 0. 0. 0. 0. 0. 3.89999989e-03 0. 0. 0. 0. 0.
      0. 0. 0. 0. 0. 0. 0. 0. 0. 0. 0. 0. 0. 0. 0. 0. 0. 0.
      1.16999997e-02 0. 0. 0. 0. 0. 0. 0. 0. 0. 0. 0. 0. 0. 0. 0. 0. 0.
      0. 0. 0. 0. 0. 0. 0. 0. 0. 0. 0. 0. 0. 0. 0. 3.89999989e-03
      2.73000002e-02 0. 0. 0. 3.89999989e-03 0. 7.81000033e-02 0. 0. 0.
      0. 0. 0. 0. 7.79999979e-03 0. 3.89999989e-03 0. 0. 0. 0. 0. 0. 0.
      0. 0. 0. 0. 0. 0. 0. 0. 0. 0. 0. 0. 0. 0. 0. 0. 0. 0. 0. 0. 0. 0.
      0. 0. 5.86000010e-02 0. 0. 0. 0. 0. 1.95000004e-02 0.
      3.89999989e-03 0. 0. 3.89999989e-03 1.55999996e-02 0.
      3.43800008e-01</_>
    <_>
      3.89999989e-03 0. 0. 0. 1.55999996e-02 0. 3.89999989e-03
      2.73000002e-02 0. 0. 0. 0. 0. 0. 3.89999989e-03 0. 1.16999997e-02
      7.79999979e-03 0. 0. 0. 0. 0. 0. 0. 7.79999979e-03 0. 0.
      3.11999992e-02 0. 3.89999989e-03 5.46999983e-02 0. 0. 0. 0. 0. 0.
      0. 0. 0. 0. 0. 0. 0. 0. 0. 0. 0. 0. 0. 0. 0. 0. 0. 0. 0. 0. 0. 0.
      3.89999989e-03 0. 0. 2.33999994e-02 3.89999989e-03 3.89999989e-03
      0. 0. 3.11999992e-02 0. 0. 3.89999989e-03 0. 0. 0. 0. 0. 0. 0. 0.
      0. 0. 0. 0. 0. 0. 0. 0. 0. 0. 0. 0. 3.89999989e-03 0. 0.
      3.89999989e-03 0. 0. 0. 0. 0. 0. 0. 0. 0. 0. 0. 0. 0. 0. 0. 0.
      2.73000002e-02 0. 0. 0. 0. 0. 0. 0. 0. 0. 0. 0. 7.81000033e-02 0.
      1.16999997e-02 1.55999996e-02 0. 0. 0. 0. 0. 0. 0. 0. 0. 0. 0. 0.
      0. 0. 0. 0. 0. 0. 0. 0. 0. 0. 0. 0. 0. 0. 0. 0. 0. 0. 0.
      3.89999989e-03 0. 0. 0. 0. 0. 0. 0. 0. 0. 0. 0. 0. 0. 0. 0. 0. 0.
      0. 0. 0. 0. 0. 0. 0. 0. 0. 0. 0. 0. 0. 0. 7.79999979e-03 0.
      7.79999979e-03 0. 0. 0. 3.89999989e-03 0. 8.59000012e-02 0. 0. 0.
      0. 0. 0. 0. 3.89999989e-03 0. 0. 0. 0. 0. 0. 0. 0. 0. 0. 0. 0. 0.
      3.89999989e-03 0. 7.79999979e-03 0. 0. 0. 0. 0. 0. 0. 0. 0. 0. 0.
      0. 0. 0. 0. 0. 0. 5.86000010e-02 0. 0. 0. 0. 0. 3.89999989e-03 0.
      7.79999979e-03 0. 0. 7.79999979e-03 0. 0. 4.14099991e-01</_>
    <_>
      3.89999989e-03 1.95000004e-02 0. 0. 1.55999996e-02 0. 0.
      7.79999979e-03 0. 0. 0. 0. 0. 0. 0. 0. 3.89999989e-03
      2.73000002e-02 0. 0. 0. 3.89999989e-03 0. 7.79999979e-03 0. 0. 0.
      0. 1.95000004e-02 0. 0. 8.20000023e-02 0. 0. 0. 0. 0. 0. 0. 0. 0.
      0. 0. 0. 0. 0. 0. 0. 0. 3.89999989e-03 0. 0. 0. 0. 0. 0. 0. 0. 0.
      0. 3.89999989e-03 0. 0. 7.79999979e-03 3.89999989e-03 0. 0. 0.
      2.33999994e-02 0. 7.79999979e-03 3.89999989e-03 0. 0. 0. 0. 0. 0.
      0. 0. 0. 0. 0. 0. 3.89999989e-03 0. 0. 0. 0. 0. 0. 0. 0. 0. 0. 0.
      0. 0. 0. 0. 0. 0. 0. 0. 0. 0. 0. 0. 0. 0. 0. 0. 3.89999989e-03 0.
      0. 0. 0. 0. 0. 0. 0. 0. 0. 0. 3.51999998e-02 0. 3.89999989e-03
      1.16999997e-02 0. 0. 0. 0. 0. 0. 0. 0. 0. 0. 0. 0. 0. 0. 0. 0. 0.
      3.89999989e-03 0. 0. 0. 0. 0. 0. 0. 0. 0. 0. 0. 0. 0.
      7.79999979e-03 0. 0. 0. 0. 0. 0. 0. 0. 0. 0. 0. 0. 0. 0. 0. 0. 0.
      0. 0. 0. 0. 0. 0. 0. 0. 0. 0. 0. 0. 0. 0. 0. 0. 2.33999994e-02 0.
      3.89999989e-03 3.89999989e-03 0. 0. 4.30000015e-02 0. 0. 0. 0. 0.
      0. 0. 7.79999979e-03 0. 0. 0. 0. 0. 0. 0. 0. 0. 0. 0. 0. 0. 0. 0.
      1.16999997e-02 0. 0. 0. 0. 0. 0. 0. 7.79999979e-03 0. 0. 0. 0. 0.
      0. 0. 0. 0. 5.07999994e-02 0. 3.89999989e-03 0. 0. 0.
      7.79999979e-03 0. 0. 0. 0. 0. 3.89999989e-03 0. 5.15600026e-01</_>
    <_>
      4.69000004e-02 1.16999997e-02 0. 0. 2.33999994e-02 3.89999989e-03
      0. 2.33999994e-02 7.79999979e-03 0. 0. 0. 1.95000004e-02
      2.33999994e-02 3.89999989e-03 3.51999998e-02 5.46999983e-02
      3.89999989e-03 0. 0. 0. 0. 0. 0. 6.25000000e-02 3.89999989e-03 0.
      0. 5.07999994e-02 3.89999989e-03 1.55999996e-02 2.73000002e-02 0.
      3.89999989e-03 0. 0. 0. 0. 0. 0. 0. 0. 0. 0. 0. 0. 3.89999989e-03
      0. 1.16999997e-02 0. 0. 0. 0. 0. 0. 0. 1.95000004e-02
      3.89999989e-03 0. 0. 3.51999998e-02 3.89999989e-03 1.95000004e-02
      1.55999996e-02 7.79999979e-03 0. 0. 0. 7.79999979e-03 0.
      3.89999989e-03 0. 0. 0. 0. 0. 0. 0. 0. 0. 0. 0. 0. 0. 0. 0. 0. 0.
